{
    "version": "0.5.0",
    "architecture": "WaveNet",
    "config": {
        "layers": [
            {
                "input_size": 1,
                "condition_size": 1,
                "head_size": 8,
                "channels": 16,
                "kernel_size": 3,
                "dilations": [
                    1,
                    2,
                    4,
                    8,
                    16,
                    32,
                    64,
                    128,
                    256,
                    512
                ],
                "activation": "Tanh",
                "gated": false,
                "head_bias": false
            },
            {
                "input_size": 16,
                "condition_size": 1,
                "head_size": 1,
                "channels": 8,
                "kernel_size": 3,
                "dilations": [
                    1,
                    2,
                    4,
                    8,
                    16,
                    32,
                    64,
                    128,
                    256,
                    512
                ],
                "activation": "Tanh",
                "gated": false,
                "head_bias": true
            }
        ],
        "head": null,
        "head_scale": 0.02
    },
    "weights": [
        -0.0011391445295885205,
        0.24209120869636536,
        -0.2533324956893921,
        -0.6458714604377747,
        -0.0019283074652776122,
        0.00040270519093610346,
        -0.00012780383985955268,
        0.8300417065620422,
        -0.0002654225390870124,
        0.014134523458778858,
        -0.10134629905223846,
        -0.0062319934368133545,
        -0.8568403720855713,
        -0.4599263072013855,
        -0.11781749874353409,
        -0.0034662815742194653,
        0.05653918534517288,
        0.07537461072206497,
        -0.17876257002353668,
        -0.10981715470552444,
        -0.09762556105852127,
        0.21033641695976257,
        0.02774609439074993,
        0.2678605020046234,
        -0.0918656438589096,
        0.06992826610803604,
        0.29535913467407227,
        -0.217624232172966,
        -0.058435749262571335,
        0.07160338014364243,
        -0.14442360401153564,
        0.09043534845113754,
        -0.1784781962633133,
        0.02628110907971859,
        -0.05325990170240402,
        -0.042710769921541214,
        -0.041740573942661285,
        0.06705354154109955,
        -0.1043904721736908,
        0.15156054496765137,
        0.024054650217294693,
        -0.03278698772192001,
        -0.0779547467827797,
        -0.13807767629623413,
        -0.19142401218414307,
        0.056118957698345184,
        0.11003579944372177,
        0.20416128635406494,
        -0.18723942339420319,
        0.064155213534832,
        0.23795686662197113,
        0.08196263015270233,
        0.1164541244506836,
        0.18879181146621704,
        0.01724897138774395,
        -0.030475948005914688,
        0.18917316198349,
        -0.19527919590473175,
        -0.0661579966545105,
        0.06142207235097885,
        -0.026010213419795036,
        0.06970687210559845,
        -0.018650207668542862,
        -0.07408953458070755,
        -0.010695375502109528,
        -0.048187628388404846,
        -0.21875359117984772,
        0.1702171266078949,
        0.0997542217373848,
        0.14721909165382385,
        -0.25155219435691833,
        -0.06886810064315796,
        0.030692197382450104,
        -0.026082118973135948,
        0.11106664687395096,
        0.11130743473768234,
        -0.0645080953836441,
        -0.11241470277309418,
        0.009600563906133175,
        -0.004915271885693073,
        -0.1182246282696724,
        0.19617708027362823,
        0.10606657713651657,
        -0.19867433607578278,
        0.12868402898311615,
        0.12265919893980026,
        -0.008854329586029053,
        -0.04977641999721527,
        0.014647210948169231,
        -0.08110743016004562,
        -0.058509085327386856,
        0.15704819560050964,
        0.08339014649391174,
        0.05572819337248802,
        -0.2579514682292938,
        -0.08942251652479172,
        0.07345762848854065,
        -0.11514515429735184,
        -0.1463208794593811,
        -0.08053093403577805,
        -0.012418515980243683,
        0.08091823756694794,
        -0.07945838570594788,
        -0.1795564591884613,
        -0.15001337230205536,
        -0.01476994063705206,
        -0.23711110651493073,
        -0.11696187406778336,
        -0.020158225670456886,
        -0.15156766772270203,
        -0.13660886883735657,
        -0.02091911993920803,
        -0.04658463969826698,
        0.16146177053451538,
        0.1978197693824768,
        -0.1641763150691986,
        0.10286490619182587,
        -0.22784316539764404,
        0.04486316069960594,
        -0.11872948706150055,
        0.26545488834381104,
        0.04412134364247322,
        -0.22586144506931305,
        0.30251070857048035,
        -0.08431895077228546,
        -0.16961127519607544,
        0.179679274559021,
        -0.09434610605239868,
        0.024267051368951797,
        -0.30068325996398926,
        -0.002674417570233345,
        -0.044960878789424896,
        -0.11905588209629059,
        -0.04112140089273453,
        0.2630274295806885,
        -0.24872468411922455,
        0.04925979673862457,
        -0.01780817098915577,
        0.2190839946269989,
        0.006734637543559074,
        0.20954598486423492,
        -0.17465610802173615,
        0.2078990489244461,
        -0.11981355398893356,
        0.13684993982315063,
        -0.07941537350416183,
        -0.061610691249370575,
        0.15214194357395172,
        -0.04106545075774193,
        -0.27082735300064087,
        0.09447586536407471,
        -0.08575762063264847,
        -0.18139035999774933,
        0.31188148260116577,
        0.13289856910705566,
        -0.26091617345809937,
        0.3292073607444763,
        -0.0710822194814682,
        -0.09812387079000473,
        0.16863438487052917,
        0.00018557978910394013,
        -0.026691634207963943,
        -0.1035776361823082,
        -0.17948539555072784,
        -0.04408620670437813,
        0.17213335633277893,
        -0.006110069341957569,
        0.08006244152784348,
        -0.28569501638412476,
        0.04923678934574127,
        0.15272082388401031,
        -0.2347123622894287,
        0.19528114795684814,
        0.08454345166683197,
        -0.24875152111053467,
        0.004685256164520979,
        -0.08127506822347641,
        -0.00830835197120905,
        0.13196143507957458,
        -0.0814497247338295,
        -0.03736741840839386,
        -0.08984415978193283,
        0.07629845291376114,
        0.2177259773015976,
        0.026231279596686363,
        -0.011968880891799927,
        -0.1641804277896881,
        -0.06229902058839798,
        -0.11867283284664154,
        0.24347156286239624,
        0.1505606770515442,
        0.10287362337112427,
        -0.28936654329299927,
        0.08708787709474564,
        -0.05647999420762062,
        -0.21339336037635803,
        -0.023414835333824158,
        0.07666245847940445,
        -0.2612045407295227,
        0.05499037355184555,
        0.030335253104567528,
        -0.08220420032739639,
        -0.06540003418922424,
        -0.0885089635848999,
        -0.25283077359199524,
        0.2314343899488449,
        0.03913559764623642,
        0.07450620085000992,
        0.07272631675004959,
        0.06258460879325867,
        0.0516197569668293,
        -0.03855485841631889,
        -0.14680074155330658,
        0.06941494345664978,
        0.02839374542236328,
        0.19769299030303955,
        -0.19186334311962128,
        -0.05704423412680626,
        0.29745784401893616,
        -0.2162752002477646,
        0.0033006651792675257,
        0.27421051263809204,
        -0.02314554527401924,
        -0.04206279292702675,
        -0.26689404249191284,
        0.0962449163198471,
        -0.043704625219106674,
        0.11059753596782684,
        0.04999927431344986,
        -0.04133114218711853,
        -0.18271803855895996,
        0.21808306872844696,
        -0.010129631496965885,
        0.1617254614830017,
        0.01055832952260971,
        -0.06432025879621506,
        -0.04273340106010437,
        0.02591814659535885,
        -0.07719461619853973,
        0.18080741167068481,
        -0.0819864422082901,
        0.1756376028060913,
        0.1487702578306198,
        -0.027994439005851746,
        0.09677339345216751,
        0.045376453548669815,
        0.008899169974029064,
        -0.10214333236217499,
        0.17931781709194183,
        -0.12358923256397247,
        -0.07860966771841049,
        0.16529430449008942,
        0.008630014955997467,
        -0.021268166601657867,
        0.03192625194787979,
        -0.13277453184127808,
        -0.21261978149414062,
        -0.007766552735120058,
        0.019446054473519325,
        -0.1311839520931244,
        -0.003894855035468936,
        -0.11557760089635849,
        0.09461703896522522,
        0.019577467814087868,
        0.2306799739599228,
        -0.007618264760822058,
        -0.12350493669509888,
        0.2517416477203369,
        0.12554632127285004,
        -0.04372295364737511,
        0.10149119049310684,
        -0.06055959314107895,
        -0.0628216564655304,
        -0.1424071490764618,
        -0.04462169483304024,
        -0.11686479300260544,
        0.12562775611877441,
        -0.135441854596138,
        0.06786449998617172,
        -0.16964459419250488,
        0.010623970068991184,
        -0.13325795531272888,
        0.08944013714790344,
        0.07461011409759521,
        0.07824893295764923,
        -0.09021208435297012,
        0.004210212267935276,
        -0.017604749649763107,
        0.18968163430690765,
        -0.030479656532406807,
        -0.20991110801696777,
        0.1795009821653366,
        0.0843198299407959,
        -0.08791114389896393,
        0.17403186857700348,
        -0.0505162812769413,
        0.01701509952545166,
        0.09750626981258392,
        0.09510806202888489,
        -0.12148592621088028,
        0.12772539258003235,
        0.03399629890918732,
        -0.14344914257526398,
        0.2511894702911377,
        0.00844510830938816,
        -0.13532759249210358,
        0.08949704468250275,
        0.02546539157629013,
        0.20640718936920166,
        -0.25615057349205017,
        -0.10151884704828262,
        -0.18704326450824738,
        0.26046040654182434,
        -0.023539483547210693,
        -0.1113261878490448,
        0.333316832780838,
        -0.03451262786984444,
        -0.1017821729183197,
        0.26939481496810913,
        -0.004881903529167175,
        0.10303550213575363,
        -0.16216713190078735,
        -0.09911244362592697,
        -0.06006919965147972,
        0.06281070411205292,
        0.10249946266412735,
        0.25480353832244873,
        -0.21769705414772034,
        0.09544294327497482,
        -0.09778370708227158,
        0.06350625306367874,
        -0.20144695043563843,
        0.22864031791687012,
        -0.17529529333114624,
        -0.03513465076684952,
        -0.06287380307912827,
        0.3789805471897125,
        0.12099115550518036,
        -0.05064097046852112,
        0.26327210664749146,
        -0.00855801347643137,
        -0.2211034893989563,
        0.35146158933639526,
        0.11028466373682022,
        -0.24977803230285645,
        0.3654087781906128,
        0.11722163110971451,
        -0.05470114201307297,
        0.14992007613182068,
        0.05681130290031433,
        -0.14737895131111145,
        0.3336320221424103,
        0.01404274720698595,
        0.058470819145441055,
        0.06588444113731384,
        0.10253339260816574,
        0.16156871616840363,
        0.00804965291172266,
        -0.15464527904987335,
        -0.18702909350395203,
        -0.05210680887103081,
        -0.19275157153606415,
        -0.34376633167266846,
        0.1688377857208252,
        0.05474315956234932,
        -0.023601803928613663,
        0.18791386485099792,
        -0.07699830085039139,
        0.06453029066324234,
        -0.06267071515321732,
        -0.03786645829677582,
        0.09335006773471832,
        -0.06282611936330795,
        -0.01766948774456978,
        0.09287278354167938,
        -0.13459426164627075,
        0.08142877370119095,
        -0.0003936700231861323,
        0.13554081320762634,
        0.11101987212896347,
        0.278967022895813,
        -0.13690504431724548,
        0.0481831431388855,
        -0.055315062403678894,
        0.1387953907251358,
        0.06614036858081818,
        -0.1468363255262375,
        0.11110605299472809,
        -0.10651086270809174,
        -0.16412286460399628,
        0.06610026955604553,
        -0.08432029187679291,
        -0.30647191405296326,
        -0.026328982785344124,
        -0.13425971567630768,
        -0.09169881790876389,
        0.17766082286834717,
        -0.057676203548908234,
        -0.24729442596435547,
        0.16428408026695251,
        0.09795228391885757,
        0.02245977148413658,
        0.07588885724544525,
        0.013812999241054058,
        0.1413620114326477,
        -0.16417306661605835,
        0.2416263222694397,
        0.02175397053360939,
        -0.005257382523268461,
        0.20878037810325623,
        -0.17114926874637604,
        0.03018401749432087,
        0.19972315430641174,
        -0.04776124656200409,
        -0.01918681152164936,
        -0.08904127031564713,
        -0.002489158883690834,
        -0.14725573360919952,
        0.060207854956388474,
        0.10645052045583725,
        -0.04620702564716339,
        -0.2183533012866974,
        0.09927882254123688,
        0.019004054367542267,
        0.10857271403074265,
        -0.12702779471874237,
        0.16394050419330597,
        -0.2159651517868042,
        -0.025739222764968872,
        -0.0486428402364254,
        0.025793978944420815,
        -0.008749546483159065,
        0.2029196321964264,
        0.08972518146038055,
        -0.17314845323562622,
        -0.0157189778983593,
        0.15735360980033875,
        -0.2027605026960373,
        0.11935306340456009,
        -0.004902844782918692,
        -0.22564928233623505,
        -0.08865714073181152,
        0.08927193284034729,
        0.028756238520145416,
        -0.0708640068769455,
        0.18136346340179443,
        -0.14026717841625214,
        0.09930339455604553,
        -0.05261275917291641,
        -0.21166732907295227,
        0.13108853995800018,
        0.1126452311873436,
        0.12997132539749146,
        0.008506226353347301,
        -0.13217902183532715,
        0.12686128914356232,
        0.06294944882392883,
        0.028161965310573578,
        -0.09463763236999512,
        0.02162979543209076,
        -0.16816279292106628,
        -0.06662864238023758,
        0.0848834365606308,
        -0.10618975758552551,
        0.04536069184541702,
        -0.0011163378367200494,
        0.07317230850458145,
        0.01123143546283245,
        -0.024837445467710495,
        -0.0017352848080918193,
        0.041034016758203506,
        0.08106400817632675,
        0.09872539341449738,
        -0.0022432131227105856,
        0.15173868834972382,
        -0.12397506833076477,
        -0.13374929130077362,
        -0.0024163275957107544,
        -0.10411780327558517,
        0.09036529064178467,
        -0.02615961618721485,
        -0.07066302746534348,
        -0.08928991854190826,
        0.17257201671600342,
        -0.057996366173028946,
        0.13170602917671204,
        0.14967237412929535,
        0.04033135250210762,
        0.02349628321826458,
        0.01809397153556347,
        -0.06701226532459259,
        0.0209518950432539,
        0.1249450147151947,
        -0.0487547442317009,
        0.19888266921043396,
        0.16744364798069,
        -0.16301193833351135,
        -0.1457280069589615,
        0.012366188690066338,
        0.19309267401695251,
        0.00856380071491003,
        0.017960194498300552,
        -0.005414681509137154,
        -0.07263617217540741,
        0.1804371327161789,
        -0.15044350922107697,
        -0.11313929408788681,
        0.13657315075397491,
        -0.08417613804340363,
        -0.05677026882767677,
        0.030550608411431313,
        0.15746308863162994,
        0.08350437134504318,
        -0.06365194916725159,
        0.14098218083381653,
        0.10251306742429733,
        0.06824144721031189,
        0.08712959289550781,
        0.245568186044693,
        -0.09148609638214111,
        0.005639967042952776,
        -0.11103351414203644,
        0.028862005099654198,
        -0.08606435358524323,
        0.006021173670887947,
        -0.18443411588668823,
        0.09651538729667664,
        -0.1559583991765976,
        0.1106974184513092,
        -0.18052928149700165,
        -0.03244813159108162,
        0.16276948153972626,
        -0.18580803275108337,
        -0.2802240252494812,
        -0.03591229021549225,
        -0.0717029795050621,
        -0.19245116412639618,
        -0.01644260808825493,
        -0.09498976171016693,
        -0.09531405568122864,
        0.018211912363767624,
        -0.012842033989727497,
        -0.11453474313020706,
        0.0217572133988142,
        0.09426047652959824,
        0.15493722259998322,
        -0.18724577128887177,
        0.07082783430814743,
        -0.15613953769207,
        0.1543819010257721,
        -0.18767434358596802,
        -0.03358789160847664,
        0.13225308060646057,
        -0.16598165035247803,
        0.1328706592321396,
        -0.02534053847193718,
        -0.053099144250154495,
        0.04780210554599762,
        0.053401678800582886,
        -0.017860909923911095,
        -0.21154393255710602,
        -0.01642950065433979,
        -0.02571577951312065,
        0.13728344440460205,
        -0.015623655170202255,
        0.2126404047012329,
        -0.1387026458978653,
        -0.014390937052667141,
        0.10170059651136398,
        0.04881494864821434,
        -0.08549842983484268,
        0.12700437009334564,
        -0.11236780136823654,
        -0.05000649765133858,
        -0.08005267381668091,
        0.20780926942825317,
        -0.07805036008358002,
        -0.15491002798080444,
        0.17096659541130066,
        0.16193589568138123,
        -0.11607393622398376,
        -0.013711142353713512,
        -0.1423339992761612,
        -0.03680887445807457,
        0.09222067147493362,
        -0.08480170369148254,
        -0.03208532556891441,
        0.14702701568603516,
        0.09272131323814392,
        0.05959007889032364,
        0.06756565719842911,
        -0.13181421160697937,
        -0.20484794676303864,
        0.0710521712899208,
        0.028412068262696266,
        0.0453294962644577,
        -0.13031387329101562,
        0.07283298671245575,
        0.14042602479457855,
        0.12104490399360657,
        -0.08232519030570984,
        -0.029931161552667618,
        -0.08684782683849335,
        0.19704177975654602,
        -0.05428823456168175,
        -0.06722119450569153,
        0.13994866609573364,
        -0.05241026356816292,
        -0.04944835603237152,
        -0.054891958832740784,
        -0.13872630894184113,
        -0.24437856674194336,
        0.01592855527997017,
        -0.09066957980394363,
        0.03606191277503967,
        0.06490067392587662,
        0.0654413253068924,
        0.011722066439688206,
        0.16526053845882416,
        0.0009378452668897808,
        -0.07817047834396362,
        0.06384456157684326,
        0.05685404688119888,
        -0.12794256210327148,
        0.03374210000038147,
        -0.11593502014875412,
        0.09969116002321243,
        0.026042012497782707,
        -0.10631026327610016,
        0.004620783030986786,
        0.14971677958965302,
        0.06029976159334183,
        0.05661715939640999,
        0.07434199005365372,
        0.06230369210243225,
        -0.04018336161971092,
        -0.006633545272052288,
        -0.06944339722394943,
        -0.04105935990810394,
        0.21533437073230743,
        -0.15052032470703125,
        -0.026169050484895706,
        -0.1353609412908554,
        0.10170114785432816,
        -0.11290701478719711,
        0.23081131279468536,
        -0.17297182977199554,
        0.13544632494449615,
        -0.21330302953720093,
        -0.13362179696559906,
        0.09497686475515366,
        -0.15595854818820953,
        0.05261586606502533,
        -0.08875198662281036,
        -0.22477024793624878,
        -0.022718707099556923,
        0.018068501725792885,
        0.25604525208473206,
        -0.13937480747699738,
        0.006124282721430063,
        -0.010874590836465359,
        0.06869200617074966,
        0.08883266150951385,
        -0.01677589863538742,
        -0.015359381213784218,
        0.13296876847743988,
        -0.18115554749965668,
        0.1789242923259735,
        -0.055569350719451904,
        0.2226431518793106,
        -0.2249007374048233,
        -0.0062308222986757755,
        -0.12713128328323364,
        -0.0475090928375721,
        0.06378265470266342,
        0.030227117240428925,
        -0.1197216659784317,
        0.012958425097167492,
        0.005826034117490053,
        -0.136444553732872,
        0.14422507584095,
        -0.1894967406988144,
        -0.10960806161165237,
        0.0016306720208376646,
        -0.038782812654972076,
        0.11884011328220367,
        0.10399329662322998,
        -0.1082046627998352,
        0.0753617137670517,
        0.013010513037443161,
        -0.12289830297231674,
        -0.09045545756816864,
        0.07183016091585159,
        0.11955055594444275,
        0.023986153304576874,
        -0.10802789032459259,
        0.11835695803165436,
        -0.10492447018623352,
        0.054494909942150116,
        0.04282217472791672,
        -0.08966253697872162,
        0.06852491945028305,
        -0.1430206000804901,
        0.037384387105703354,
        -0.11161734908819199,
        0.03459722548723221,
        -0.06098812445998192,
        0.06954774260520935,
        -0.0840398296713829,
        0.08951028436422348,
        -0.038679931312799454,
        -0.09250292181968689,
        -0.06977526843547821,
        -0.0678054690361023,
        0.0787883773446083,
        -0.01844721846282482,
        0.0022482085041701794,
        0.05668425187468529,
        0.08746401220560074,
        0.13549576699733734,
        0.12323973327875137,
        -0.08666598796844482,
        0.05418413504958153,
        -0.02106679603457451,
        -0.0776217132806778,
        0.05526953190565109,
        0.16018961369991302,
        -0.11253595352172852,
        0.10962498188018799,
        -0.05168682336807251,
        -0.0292756836861372,
        0.13615983724594116,
        -0.02306405082345009,
        0.012586654163897038,
        -0.030796676874160767,
        0.12329786270856857,
        -0.010397868230938911,
        -0.08966287970542908,
        0.060385435819625854,
        -0.07132740318775177,
        -0.13954174518585205,
        0.014670773409307003,
        0.08947418630123138,
        -0.012460305355489254,
        0.06987215578556061,
        0.09123978763818741,
        0.12392100691795349,
        -0.07512782514095306,
        -0.04274039342999458,
        -0.027222219854593277,
        -0.14677797257900238,
        0.019336147233843803,
        0.0880064144730568,
        0.14957529306411743,
        0.09902878105640411,
        0.16823193430900574,
        0.05759381502866745,
        0.14116232097148895,
        -0.08998993039131165,
        -0.10346438735723495,
        -0.02730722725391388,
        0.07161645591259003,
        -0.18530645966529846,
        0.1873861402273178,
        0.0636935830116272,
        -0.05289509519934654,
        -0.08671241998672485,
        0.12644638121128082,
        -0.1450302004814148,
        -0.02741166763007641,
        0.11182864755392075,
        -0.11323574185371399,
        0.04840881749987602,
        0.10533981025218964,
        0.09326298534870148,
        -0.12375672161579132,
        0.17097210884094238,
        -0.08603718876838684,
        0.10681106895208359,
        -0.12207679450511932,
        -0.14419826865196228,
        0.15418508648872375,
        0.12134023010730743,
        0.06470309942960739,
        -0.11781159788370132,
        -0.14776064455509186,
        -0.07589113712310791,
        -0.16592343151569366,
        0.004389990586787462,
        0.15985967218875885,
        -0.015177078545093536,
        0.026698149740695953,
        0.06903483718633652,
        0.08218300342559814,
        -0.0701819509267807,
        -0.028498321771621704,
        -0.046931974589824677,
        -0.03776632249355316,
        -0.04738244414329529,
        -0.06918572634458542,
        0.5047418475151062,
        -0.40166351199150085,
        0.5850625038146973,
        -0.5372551679611206,
        0.08184720575809479,
        0.7037916779518127,
        0.7794168591499329,
        -0.6115484237670898,
        0.14253905415534973,
        0.061658360064029694,
        -0.5244547724723816,
        -0.34188970923423767,
        0.21683698892593384,
        -0.6074503064155579,
        0.13428138196468353,
        0.4150545001029968,
        -0.05332651734352112,
        0.2273416966199875,
        -0.043796490877866745,
        0.14279276132583618,
        0.2329586297273636,
        -0.12301686406135559,
        0.09454767405986786,
        0.0051449560560286045,
        -0.05170546472072601,
        -0.003842676291242242,
        0.06746592372655869,
        -0.0006772566121071577,
        -0.0033192262053489685,
        -0.004208310041576624,
        0.1671934574842453,
        -0.008287178352475166,
        -0.11477208137512207,
        -0.13213065266609192,
        -0.2388623058795929,
        -0.007514648605138063,
        0.13130278885364532,
        -0.09564002603292465,
        -0.09239111840724945,
        0.030947024002671242,
        -0.04524831846356392,
        0.06675862520933151,
        -0.12024125456809998,
        -0.2571697533130646,
        0.12177591770887375,
        -0.12450510263442993,
        0.15291671454906464,
        -0.026842474937438965,
        0.08918682485818863,
        0.029544677585363388,
        0.16837447881698608,
        0.19173483550548553,
        -0.2061607837677002,
        -0.09085617959499359,
        0.21416936814785004,
        -0.29203444719314575,
        0.044717416167259216,
        -0.10831014811992645,
        0.23189102113246918,
        -0.12109515070915222,
        0.06245718523859978,
        0.010225852951407433,
        0.2385178953409195,
        0.11600648611783981,
        0.2773812413215637,
        -0.14784374833106995,
        -0.018251871690154076,
        -0.23041948676109314,
        -0.06258337944746017,
        0.26806414127349854,
        0.014934978447854519,
        -0.04764096811413765,
        -0.12755346298217773,
        0.06940053403377533,
        -0.006172464694827795,
        -0.042213886976242065,
        0.050746120512485504,
        0.08176428079605103,
        -0.1834169328212738,
        0.022901978343725204,
        -0.2521655261516571,
        -0.17445161938667297,
        -0.12245221436023712,
        0.12613268196582794,
        0.18673089146614075,
        0.2565094232559204,
        0.23537185788154602,
        0.011765358969569206,
        0.08129017055034637,
        0.2532891035079956,
        -0.09232927858829498,
        0.332624226808548,
        -0.09850911796092987,
        0.09038785845041275,
        -0.26244357228279114,
        0.06592467427253723,
        -0.2649509012699127,
        -0.026896663010120392,
        0.08177357167005539,
        0.05179555341601372,
        0.19343137741088867,
        0.09832191467285156,
        0.21354253590106964,
        0.1224886104464531,
        0.14604665338993073,
        -0.08488338440656662,
        -0.20768852531909943,
        -0.19183215498924255,
        0.04008861631155014,
        -0.10503551363945007,
        0.17486776411533356,
        0.021110188215970993,
        -0.002794302301481366,
        0.1008395254611969,
        0.2294623702764511,
        0.2584932744503021,
        -0.2117285579442978,
        -0.32368072867393494,
        0.06005752459168434,
        -0.054861750453710556,
        0.06280428171157837,
        -0.04572213813662529,
        -0.2895504832267761,
        0.2311083823442459,
        0.08771583437919617,
        -0.125835120677948,
        0.022924156859517097,
        -0.11558058857917786,
        0.11805085092782974,
        0.06490829586982727,
        0.3365827798843384,
        -0.15590216219425201,
        -0.24728457629680634,
        0.06991226226091385,
        0.33479762077331543,
        0.22996501624584198,
        0.060005370527505875,
        -0.08942971378564835,
        0.2793845236301422,
        -0.11446145921945572,
        0.08211058378219604,
        -0.07091546058654785,
        -0.020760327577590942,
        0.09862121939659119,
        0.03332975506782532,
        0.0810336321592331,
        -0.26050493121147156,
        -0.2349683940410614,
        0.0737648606300354,
        -0.02574007585644722,
        -0.15363019704818726,
        0.00628412002697587,
        -0.26065030694007874,
        -0.065196692943573,
        0.2734539210796356,
        0.2455097734928131,
        0.05164889991283417,
        0.011000684462487698,
        0.19460494816303253,
        0.05083790794014931,
        -0.14970573782920837,
        -0.13675637543201447,
        0.07963832467794418,
        -0.2522217929363251,
        -0.12321839481592178,
        -0.07391072064638138,
        0.04210049286484718,
        -0.32409951090812683,
        0.02974976785480976,
        0.14711765944957733,
        -0.093921959400177,
        0.07979247719049454,
        -0.0018602109048515558,
        0.10277773439884186,
        -0.07873356342315674,
        -0.04894128441810608,
        0.18300870060920715,
        0.2775407135486603,
        -0.23296402394771576,
        0.06750990450382233,
        -0.13627907633781433,
        -0.07043082267045975,
        0.05240817740559578,
        -0.11079662293195724,
        0.07876972109079361,
        -0.17170415818691254,
        -0.13084913790225983,
        -0.036563195288181305,
        -0.01616387814283371,
        0.09159734100103378,
        -0.017022080719470978,
        0.1567266881465912,
        -0.10559351742267609,
        -0.08041860163211823,
        0.11472577601671219,
        0.025551514700055122,
        0.02262687310576439,
        -0.08249493688344955,
        -0.1246139258146286,
        -0.018554339185357094,
        0.10166139900684357,
        -0.013781285844743252,
        -0.09490975737571716,
        -0.16351351141929626,
        -0.057279475033283234,
        0.028818383812904358,
        -0.13505086302757263,
        -0.22295385599136353,
        0.17814572155475616,
        -0.0400480218231678,
        0.06762173026800156,
        0.024366842582821846,
        0.060328900814056396,
        -0.009506555274128914,
        -0.03282884508371353,
        0.04402441531419754,
        0.28762131929397583,
        -0.16014066338539124,
        -0.11496323347091675,
        -0.26044318079948425,
        0.13370388746261597,
        -0.32777145504951477,
        0.04167783632874489,
        0.13408057391643524,
        0.23836097121238708,
        -0.25918468832969666,
        0.004284154158085585,
        0.14158852398395538,
        -0.16578897833824158,
        0.27688756585121155,
        0.2654878497123718,
        -0.044475339353084564,
        0.1835530400276184,
        -0.05057680234313011,
        0.054782357066869736,
        -0.20104560256004333,
        -0.03789474442601204,
        -0.25131091475486755,
        -0.22360992431640625,
        0.24756808578968048,
        -0.2024351954460144,
        0.29173991084098816,
        -0.0487358421087265,
        -0.12389107048511505,
        -0.043446075171232224,
        0.035187043249607086,
        0.18615934252738953,
        0.13469339907169342,
        -0.18025265634059906,
        0.1676025688648224,
        -0.00915067084133625,
        0.13734710216522217,
        0.020105989649891853,
        0.17770305275917053,
        -0.07342638075351715,
        -0.06825295835733414,
        0.15315526723861694,
        0.018535569310188293,
        0.0559152327477932,
        -0.02622765488922596,
        -0.060671910643577576,
        0.05013062432408333,
        -0.06971185654401779,
        0.1409858614206314,
        -0.033220767974853516,
        0.03275883570313454,
        -0.1296548992395401,
        -0.020295411348342896,
        -0.005878251977264881,
        0.11944818496704102,
        -0.047794409096241,
        -0.08152380585670471,
        0.09660409390926361,
        -0.08037430047988892,
        0.12311626970767975,
        -0.15972423553466797,
        -0.11362574249505997,
        -0.05237630754709244,
        0.10588480532169342,
        0.025638703256845474,
        0.03040287084877491,
        -0.06952748447656631,
        0.04311317577958107,
        -0.010540273040533066,
        -0.031289711594581604,
        0.03646761178970337,
        0.03990413248538971,
        -0.01086595468223095,
        -0.06763248890638351,
        -0.05045752599835396,
        -0.11262204498052597,
        0.16504593193531036,
        -0.01118436362594366,
        0.1562238484621048,
        -0.022068431600928307,
        -0.06580314040184021,
        -0.007434933912009001,
        -0.1861577033996582,
        0.03360344469547272,
        -0.08741496503353119,
        -0.09481850266456604,
        -0.047554608434438705,
        0.04672612249851227,
        0.06601611524820328,
        -0.2235216200351715,
        0.23226071894168854,
        -0.023119408637285233,
        -0.04742574319243431,
        0.153281569480896,
        0.12612462043762207,
        -0.18858394026756287,
        -0.08436048030853271,
        -0.02739889733493328,
        0.19540852308273315,
        -0.2587004601955414,
        -0.15294070541858673,
        0.018740791827440262,
        -0.10083462297916412,
        -0.043461885303258896,
        0.1742471307516098,
        -0.017419373616576195,
        -0.10987694561481476,
        -0.21618232131004333,
        -0.1890101283788681,
        -0.2107502818107605,
        0.05465835705399513,
        -0.11320054531097412,
        -0.1423085480928421,
        0.016122709959745407,
        -0.14266835153102875,
        -0.21044787764549255,
        0.007149975746870041,
        -0.15237846970558167,
        0.09627490490674973,
        -0.12484797835350037,
        -0.10924490541219711,
        -0.04789765179157257,
        0.029152097180485725,
        0.1839093416929245,
        -0.05793001502752304,
        -0.06042734906077385,
        0.01588553935289383,
        -0.08862634003162384,
        0.010287892073392868,
        0.1633942872285843,
        -0.19501671195030212,
        0.08328256756067276,
        -0.04511887952685356,
        0.03769012168049812,
        -0.08193531632423401,
        0.10933903604745865,
        -0.12141723930835724,
        -0.08914979547262192,
        -0.058914706110954285,
        0.08102311939001083,
        -0.12011662870645523,
        -0.1305406391620636,
        0.33421093225479126,
        -0.023118216544389725,
        -0.1886608600616455,
        -0.08904709666967392,
        -0.0025947189424186945,
        -0.011376398615539074,
        0.11155495792627335,
        0.058389175683259964,
        -0.18376244604587555,
        0.018283994868397713,
        0.08892741054296494,
        0.20887689292430878,
        -0.08460220694541931,
        -0.0028320872224867344,
        0.09796331077814102,
        -0.2041507512331009,
        0.025425732135772705,
        0.23513074219226837,
        -0.014345616102218628,
        0.09344523400068283,
        0.11358284205198288,
        -0.09350774437189102,
        -0.039405517280101776,
        -0.11481672525405884,
        0.07139052450656891,
        0.279111385345459,
        -0.03539067134261131,
        0.01987914927303791,
        -0.20204202830791473,
        0.08744562417268753,
        0.17298947274684906,
        0.13310958445072174,
        -0.15452954173088074,
        -0.17197765409946442,
        0.05228015035390854,
        0.056191544979810715,
        0.12389937788248062,
        -0.06895305216312408,
        0.051938243210315704,
        0.1020391657948494,
        -0.09536854177713394,
        0.14206819236278534,
        -0.09498932957649231,
        0.18711255490779877,
        -0.06955689936876297,
        0.07032398879528046,
        -0.12272597849369049,
        -0.1763915717601776,
        -0.09224621206521988,
        0.09424158185720444,
        0.005655009765177965,
        0.0816599652171135,
        -0.24468830227851868,
        0.18482975661754608,
        -0.04330701008439064,
        0.081936776638031,
        -0.18388731777668,
        -0.09716040641069412,
        -0.2819315493106842,
        0.2430700808763504,
        0.0345066599547863,
        0.032374780625104904,
        0.2496858835220337,
        0.09205526113510132,
        -0.04787132889032364,
        0.11825587600469589,
        -0.02907927706837654,
        0.024851731956005096,
        0.16592125594615936,
        -0.12655724585056305,
        0.07396124303340912,
        0.2489367127418518,
        -0.019598644226789474,
        0.219828262925148,
        0.15673479437828064,
        -0.018526948988437653,
        -0.06753424555063248,
        0.041304606944322586,
        -0.17211328446865082,
        0.0884387269616127,
        0.09484148770570755,
        0.07469474524259567,
        -0.17109131813049316,
        -0.26490411162376404,
        0.08704196661710739,
        0.033437956124544144,
        -0.17942875623703003,
        -0.0549158900976181,
        -0.1382516473531723,
        -0.17524239420890808,
        0.023321524262428284,
        0.16734735667705536,
        -0.011610024608671665,
        0.060292139649391174,
        0.12942126393318176,
        0.10428956896066666,
        -0.23334519565105438,
        0.07801377028226852,
        0.22150732576847076,
        0.05807434022426605,
        -0.22081023454666138,
        0.06431826949119568,
        0.16172051429748535,
        -0.09506632387638092,
        0.11995983123779297,
        -0.014871584251523018,
        -0.25125983357429504,
        -0.16725444793701172,
        0.024081502109766006,
        0.0892152413725853,
        0.07691428810358047,
        0.13441438972949982,
        0.005005847662687302,
        -0.2674383223056793,
        0.09247968345880508,
        -0.18466758728027344,
        -0.1930321753025055,
        0.08427076041698456,
        -0.045910805463790894,
        0.12704196572303772,
        0.0712573304772377,
        0.09194348752498627,
        0.08030445873737335,
        -0.04099991172552109,
        -0.1579369753599167,
        0.06281859427690506,
        0.01729530096054077,
        0.17729660868644714,
        -0.08636434376239777,
        -0.1344863474369049,
        0.06343667954206467,
        -0.03764301910996437,
        -0.052983783185482025,
        0.02204776741564274,
        0.20453158020973206,
        0.04826420173048973,
        0.009651717729866505,
        -0.0032663727179169655,
        -0.09117630124092102,
        0.13713911175727844,
        -0.15761969983577728,
        0.09524660557508469,
        -0.11864425987005234,
        -0.04957528039813042,
        -0.1683630347251892,
        0.1566375344991684,
        0.03818662092089653,
        0.09566108882427216,
        -0.07462382316589355,
        0.058791618794202805,
        -0.09449857473373413,
        -0.19458594918251038,
        -0.08834540843963623,
        0.16874650120735168,
        -0.11521279066801071,
        0.08268684148788452,
        -0.058197688311338425,
        0.16336430609226227,
        0.3267543613910675,
        -0.0473681278526783,
        -0.1837628185749054,
        0.15721164643764496,
        0.13033245503902435,
        0.11892739683389664,
        0.1649792343378067,
        0.037284791469573975,
        -0.2648715376853943,
        0.05190889537334442,
        0.15233546495437622,
        -0.07853943854570389,
        -0.060525622218847275,
        0.05900559201836586,
        -0.009805078618228436,
        -0.20615103840827942,
        -0.2720199525356293,
        0.1830013394355774,
        0.16682283580303192,
        0.08209823071956635,
        -0.1585153043270111,
        -0.15474748611450195,
        0.04940878599882126,
        0.11361929774284363,
        -0.12370292097330093,
        -0.05878349393606186,
        0.08411365747451782,
        -0.09270235896110535,
        0.08953534066677094,
        -0.17997294664382935,
        0.1258341372013092,
        0.04695848003029823,
        -0.18889155983924866,
        0.13701972365379333,
        0.03468373045325279,
        -0.16524560749530792,
        0.39977502822875977,
        0.19510610401630402,
        0.3233286142349243,
        -0.1907903105020523,
        0.03654489293694496,
        -0.06452028453350067,
        0.1843341439962387,
        0.04900626093149185,
        0.06977581977844238,
        -0.22872596979141235,
        0.11559378355741501,
        -0.19922824203968048,
        -0.2020299732685089,
        0.1735357940196991,
        0.05184807628393173,
        -0.28011423349380493,
        -0.040240801870822906,
        -0.25465959310531616,
        -0.20034734904766083,
        -0.00774439936503768,
        0.02670866996049881,
        -0.11872954666614532,
        -0.0900873914361,
        -0.05546531453728676,
        0.1953325718641281,
        -0.03791269287467003,
        0.12086530774831772,
        0.0022575268521904945,
        0.17696718871593475,
        0.10318020731210709,
        0.02614898420870304,
        -0.10787562280893326,
        -0.041545312851667404,
        0.03030392900109291,
        0.05318211764097214,
        -0.02235599048435688,
        -0.02570580132305622,
        -0.12284830212593079,
        0.03903810307383537,
        -0.07828997075557709,
        0.14923909306526184,
        0.09795782715082169,
        0.030837733298540115,
        0.14176057279109955,
        -0.08527887612581253,
        0.016577601432800293,
        0.19719058275222778,
        0.23026318848133087,
        -0.11484959721565247,
        -0.024033691734075546,
        -0.10928045213222504,
        -0.12198170274496078,
        0.09163394570350647,
        0.05520475655794144,
        -0.028193054720759392,
        -0.010059300810098648,
        -0.145609050989151,
        0.2061203420162201,
        -0.0814608708024025,
        0.017200374975800514,
        -0.015014824457466602,
        -0.09556246548891068,
        0.09182660281658173,
        0.22599628567695618,
        -0.06355244666337967,
        0.05306967720389366,
        -0.09475953131914139,
        -0.2499377429485321,
        0.10735207796096802,
        -0.2689206600189209,
        -0.024504194036126137,
        0.13816148042678833,
        -0.06596836447715759,
        -0.15277281403541565,
        0.06872379779815674,
        0.17531263828277588,
        0.02935408242046833,
        -0.06905244290828705,
        -0.03613419085741043,
        0.002038495149463415,
        0.06766128540039062,
        0.014662356115877628,
        -0.1053231731057167,
        -0.044468317180871964,
        -0.18947982788085938,
        -0.04420062527060509,
        -0.145139679312706,
        -0.30972257256507874,
        0.20511911809444427,
        -0.09347456693649292,
        -0.018295586109161377,
        0.010595694184303284,
        -0.057204827666282654,
        0.05238840728998184,
        0.2241545468568802,
        -0.16001613438129425,
        -0.0014579948037862778,
        -0.012451522052288055,
        -0.06340768933296204,
        0.08151701092720032,
        0.11666511744260788,
        0.09273738414049149,
        -0.04837719351053238,
        0.0051478114910423756,
        -0.03361232206225395,
        0.012014499865472317,
        0.033603422343730927,
        0.0054135387763381,
        -0.1609889715909958,
        -0.13190686702728271,
        0.11635207384824753,
        -0.04486376792192459,
        -0.09972069412469864,
        0.03505538031458855,
        -0.10603425651788712,
        0.20346535742282867,
        0.025616930797696114,
        -0.20393106341362,
        0.023694902658462524,
        0.05364048853516579,
        0.019144851714372635,
        0.2498498409986496,
        0.17481845617294312,
        -0.007268090266734362,
        -0.21154293417930603,
        -0.15565672516822815,
        -0.2941708564758301,
        0.05514851212501526,
        -0.041406258940696716,
        0.27865198254585266,
        0.12937110662460327,
        -0.028432302176952362,
        0.040801096707582474,
        0.12292010337114334,
        0.09419261664152145,
        0.19981926679611206,
        -0.1180962547659874,
        0.05860096588730812,
        -0.06975904107093811,
        0.029185917228460312,
        -0.04657949134707451,
        0.008595418184995651,
        -0.2866666615009308,
        -0.12211292237043381,
        0.02957349643111229,
        -0.009231425821781158,
        -0.10559114813804626,
        0.24406901001930237,
        0.0031474956776946783,
        0.07950665801763535,
        -0.1837819218635559,
        0.053698815405368805,
        -0.10354898124933243,
        -0.10702159255743027,
        -0.08845844864845276,
        -0.08459693193435669,
        0.2918800413608551,
        0.033519305288791656,
        0.05077569559216499,
        0.06968001276254654,
        -0.03405163809657097,
        -0.08908359706401825,
        -0.08973249047994614,
        0.0357535220682621,
        -0.01964583992958069,
        0.4298192858695984,
        -0.04919825866818428,
        -0.14267264306545258,
        -0.10582724213600159,
        0.13060441613197327,
        0.1758190542459488,
        0.009620037861168385,
        -0.17731283605098724,
        0.07468637079000473,
        0.20854921638965607,
        -0.05639403685927391,
        -0.05319168418645859,
        -0.2038494050502777,
        -0.09589556604623795,
        0.2024880349636078,
        -0.1843242645263672,
        0.1015901044011116,
        0.10866124927997589,
        -0.11532323062419891,
        0.03362880274653435,
        -0.12506914138793945,
        0.20449872314929962,
        0.06762680411338806,
        -0.08227760344743729,
        0.1252976655960083,
        0.11528722196817398,
        -0.1602640599012375,
        0.21915368735790253,
        -0.06117609888315201,
        0.27038055658340454,
        -0.17396531999111176,
        -0.07804606854915619,
        -0.07822201400995255,
        0.15586763620376587,
        -0.31484121084213257,
        0.10213450342416763,
        -0.047300443053245544,
        -0.022895336151123047,
        -0.1622815579175949,
        -0.3434942662715912,
        -0.1717594414949417,
        -0.02403358928859234,
        -0.2792838215827942,
        -0.11724723130464554,
        0.026903940364718437,
        -0.0559844970703125,
        0.20107896625995636,
        -0.1679053008556366,
        -0.12986284494400024,
        0.1316477358341217,
        0.06849231570959091,
        0.027145493775606155,
        -0.17227008938789368,
        0.12793521583080292,
        -0.23152126371860504,
        0.06649922579526901,
        0.07219052314758301,
        0.15432414412498474,
        -0.014098228886723518,
        0.07749556750059128,
        -0.0010291486978530884,
        -0.14500166475772858,
        0.008031537756323814,
        -0.03825884684920311,
        -0.07878942787647247,
        -0.07605274766683578,
        -0.27003297209739685,
        -0.007424590643495321,
        -0.03673696517944336,
        -0.10831523686647415,
        0.042407721281051636,
        0.17341828346252441,
        0.20415490865707397,
        0.20340268313884735,
        0.18134719133377075,
        0.025045106187462807,
        -0.012206324376165867,
        0.046845778822898865,
        0.05576128885149956,
        -0.05083522945642471,
        -0.1408737301826477,
        -0.038754843175411224,
        0.08529799431562424,
        -0.0010171070462092757,
        0.08352579921483994,
        0.1365436464548111,
        0.015620184130966663,
        -0.11652082949876785,
        -0.06184115633368492,
        0.04855268448591232,
        0.09061818569898605,
        0.028783509507775307,
        -0.0690230131149292,
        0.092424675822258,
        -0.1453600972890854,
        0.06174034625291824,
        -0.3859163224697113,
        0.0009818592807278037,
        -0.0987159013748169,
        -0.1363668590784073,
        0.040015362203121185,
        0.005401689559221268,
        -0.1388915628194809,
        0.05888422951102257,
        -0.015072033740580082,
        0.11579932272434235,
        -0.1486881524324417,
        0.10788034647703171,
        -0.12348625063896179,
        -0.009974261745810509,
        -0.007488597650080919,
        -0.06380826979875565,
        0.004642100539058447,
        -0.030615627765655518,
        -0.2178887277841568,
        -0.03358619287610054,
        0.15339453518390656,
        0.005205885041505098,
        -0.013626350089907646,
        -0.05199004337191582,
        0.07498693466186523,
        0.293733686208725,
        0.2552572190761566,
        0.023415111005306244,
        0.11656294018030167,
        -0.17702482640743256,
        -0.14823712408542633,
        -0.1338682919740677,
        0.10914277285337448,
        -0.047568533569574356,
        -0.10410705953836441,
        -0.019153570756316185,
        0.034314002841711044,
        -0.06774753332138062,
        0.015966828912496567,
        -0.01838625781238079,
        -0.24183425307273865,
        -0.12032540887594223,
        0.11058706045150757,
        0.10555319488048553,
        0.04558877646923065,
        0.024218598380684853,
        0.03832473233342171,
        -0.06849458068609238,
        -0.6146209239959717,
        -0.02523101679980755,
        0.0486508347094059,
        -0.10031084716320038,
        0.004149879794567823,
        0.24103140830993652,
        -0.05577080696821213,
        -0.04142071679234505,
        0.029652580618858337,
        -0.08852627128362656,
        0.247253879904747,
        0.11065691709518433,
        -0.029783328995108604,
        0.031207125633955002,
        0.08947577327489853,
        -0.14558002352714539,
        0.12320273369550705,
        -0.04666382819414139,
        -0.2104082852602005,
        -0.06400714814662933,
        -0.27705758810043335,
        0.16618359088897705,
        -0.008566111326217651,
        -0.10138993710279465,
        0.10837395489215851,
        -0.20053589344024658,
        -0.21666570007801056,
        0.19946007430553436,
        -0.09986785799264908,
        0.2848736345767975,
        0.08304788172245026,
        -0.11150465160608292,
        -0.02146032638847828,
        -0.07247543334960938,
        0.1127239540219307,
        0.22138051688671112,
        -0.1343303620815277,
        0.0877571702003479,
        -0.2383667230606079,
        -0.2198811173439026,
        0.1755237877368927,
        -0.04585399478673935,
        -0.03991540148854256,
        0.036948759108781815,
        -0.06359030306339264,
        -0.2142464816570282,
        0.20025740563869476,
        0.04249502345919609,
        0.094730906188488,
        -0.03458724170923233,
        0.062297821044921875,
        0.08331441134214401,
        -0.029760610312223434,
        -0.1307612955570221,
        -0.09201252460479736,
        0.13308921456336975,
        0.060266654938459396,
        0.2631346583366394,
        -0.011768031865358353,
        -0.10477370768785477,
        -0.05366262421011925,
        -0.07658500224351883,
        -0.08936743438243866,
        0.03582135587930679,
        -0.010748936794698238,
        -0.008719968609511852,
        0.14553052186965942,
        -0.17112214863300323,
        0.26863858103752136,
        -0.09524842351675034,
        0.0079760467633605,
        0.15556620061397552,
        0.08214050531387329,
        0.16880691051483154,
        0.28384554386138916,
        -0.08621059358119965,
        0.12284615635871887,
        -0.2841336727142334,
        -0.008935948833823204,
        0.09542591869831085,
        -0.0624556839466095,
        0.13322792947292328,
        0.07103447616100311,
        -0.17030219733715057,
        0.09021037071943283,
        0.08077960461378098,
        0.12783387303352356,
        0.1392069011926651,
        -0.18327990174293518,
        -0.09040011465549469,
        0.05612892284989357,
        0.07843496650457382,
        0.14813682436943054,
        0.03318631276488304,
        -0.10908593982458115,
        0.008767928928136826,
        -0.3659614026546478,
        -0.07526316493749619,
        -0.0474030040204525,
        -0.16858890652656555,
        -0.16548076272010803,
        -0.07904195040464401,
        -0.11974282562732697,
        0.03583735600113869,
        0.18660405278205872,
        -0.13136407732963562,
        -0.13109366595745087,
        0.03440282493829727,
        0.052735038101673126,
        -0.04581315442919731,
        -0.00995413213968277,
        0.023985812440514565,
        -0.03220488876104355,
        0.13812504708766937,
        0.04387611150741577,
        0.2699631154537201,
        0.00472809374332428,
        0.06805341690778732,
        -0.047038059681653976,
        0.05883593484759331,
        0.07284287363290787,
        0.09421854466199875,
        -0.13280415534973145,
        -0.12510371208190918,
        0.03685923293232918,
        -0.13850387930870056,
        -0.03147292882204056,
        -0.04786980152130127,
        -0.07158700376749039,
        0.11128365993499756,
        -0.064765065908432,
        0.19736069440841675,
        0.09345971792936325,
        0.010620415210723877,
        0.1419695019721985,
        0.06616749614477158,
        -0.07598470896482468,
        0.05368639901280403,
        0.061415668576955795,
        -0.10596776753664017,
        -0.04612123593688011,
        -0.06330271065235138,
        -0.19370406866073608,
        -0.07446540892124176,
        -0.03474863991141319,
        0.1385262906551361,
        0.013920858502388,
        0.18896259367465973,
        -0.05939735844731331,
        -0.01946917176246643,
        -0.31159526109695435,
        0.10119780898094177,
        0.08703380823135376,
        0.3249429166316986,
        -0.06917890161275864,
        0.001406554481945932,
        -0.13194286823272705,
        0.06624298542737961,
        0.012913468293845654,
        -0.12018541246652603,
        0.05285315215587616,
        0.07201399654150009,
        0.15835125744342804,
        -0.13686221837997437,
        0.08719847351312637,
        0.08831897377967834,
        -0.11273639649152756,
        -0.012387766502797604,
        -0.3527050316333771,
        0.04003152251243591,
        0.08992968499660492,
        -0.08928269147872925,
        -0.07428617775440216,
        -0.33472704887390137,
        -0.2549506723880768,
        -0.08408217132091522,
        0.184913769364357,
        0.194675013422966,
        0.06637018918991089,
        -0.11310926079750061,
        -0.13370902836322784,
        -0.01439674012362957,
        0.035558488219976425,
        0.09396321326494217,
        -0.11174499243497849,
        -0.18826498091220856,
        -0.01961098425090313,
        0.038744304329156876,
        0.1692575365304947,
        -0.01086927205324173,
        -0.006411009002476931,
        -0.11337423324584961,
        -0.23916704952716827,
        0.017663296312093735,
        0.17344625294208527,
        -0.040541499853134155,
        0.13096946477890015,
        0.0900406762957573,
        -0.025458887219429016,
        0.0849488154053688,
        -0.040746476501226425,
        0.0577847920358181,
        0.12081031501293182,
        0.16959667205810547,
        -0.024336136877536774,
        -0.057535320520401,
        0.0441569909453392,
        0.09996474534273148,
        0.08798482269048691,
        0.06109599769115448,
        0.06943092495203018,
        -0.04972105100750923,
        -0.29415661096572876,
        0.11647748947143555,
        0.228916198015213,
        -0.4046871066093445,
        0.11487595736980438,
        -0.5806939005851746,
        -0.22958409786224365,
        -0.240041121840477,
        0.6387613415718079,
        -0.7361077666282654,
        -0.5082639455795288,
        -0.760082483291626,
        0.22015239298343658,
        -0.6350292563438416,
        0.2296869456768036,
        -0.4699490964412689,
        -0.14878036081790924,
        -0.1887872964143753,
        0.05493459850549698,
        0.293252557516098,
        0.07221926003694534,
        0.006942547857761383,
        -0.07922584563493729,
        -0.06486570090055466,
        -0.16381776332855225,
        -0.14963610470294952,
        0.25940194725990295,
        0.10513405501842499,
        0.17701338231563568,
        0.11607169359922409,
        -0.07920584082603455,
        0.025896606966853142,
        0.23037470877170563,
        0.12870219349861145,
        -0.2022719383239746,
        -0.26988404989242554,
        -0.24731233716011047,
        0.20489326119422913,
        -0.15737536549568176,
        -0.05601700767874718,
        0.010871433652937412,
        0.019777875393629074,
        0.0074904849752783775,
        0.07906157523393631,
        0.10210924595594406,
        -0.007379712536931038,
        0.22187882661819458,
        0.11779879778623581,
        -0.13670074939727783,
        -0.16907170414924622,
        0.04893200099468231,
        0.16826419532299042,
        -0.014309925958514214,
        -0.006044852547347546,
        -0.004531079437583685,
        -0.03821806237101555,
        0.08278914541006088,
        -0.015624020248651505,
        -0.1843625158071518,
        -0.2258380502462387,
        0.01041205134242773,
        0.07473035156726837,
        0.1065458133816719,
        -0.0023810542188584805,
        0.12267708033323288,
        0.11777161806821823,
        -0.045936889946460724,
        -0.13385914266109467,
        -0.0435674712061882,
        0.04634959623217583,
        -0.03818051517009735,
        0.025918059051036835,
        -0.11768895387649536,
        0.1229243203997612,
        0.05497046560049057,
        0.3596649467945099,
        0.004658383317291737,
        -0.00018531885871198028,
        -0.01575164869427681,
        0.002942244755104184,
        0.23624594509601593,
        -0.009255372919142246,
        -0.15059658885002136,
        -0.062223292887210846,
        0.123460553586483,
        -0.005741816479712725,
        -0.09316905587911606,
        0.28384554386138916,
        0.16315409541130066,
        -0.10446637123823166,
        -0.1128624752163887,
        0.14989958703517914,
        0.0301973819732666,
        -0.11783982813358307,
        -0.14259958267211914,
        -0.19225361943244934,
        -0.1945503205060959,
        -0.06503961235284805,
        -0.4268488585948944,
        -0.03261682391166687,
        -0.00772341201081872,
        -0.3021726906299591,
        -0.1316344439983368,
        0.028495902195572853,
        0.05142712593078613,
        0.13831287622451782,
        -0.10544739663600922,
        0.00717927934601903,
        -0.20449982583522797,
        -0.0961962416768074,
        0.13533344864845276,
        -0.034753601998090744,
        -0.04709922894835472,
        -0.1233002170920372,
        0.32116690278053284,
        -0.19209010899066925,
        0.10580219328403473,
        0.02128523774445057,
        -0.08926010876893997,
        -0.17256607115268707,
        0.11014153063297272,
        -0.017465220764279366,
        -0.05487145483493805,
        0.17714747786521912,
        -0.04931558296084404,
        0.08692112565040588,
        -0.28853631019592285,
        0.3183382749557495,
        0.03452838957309723,
        0.04594070464372635,
        -0.12846294045448303,
        0.06977741420269012,
        -0.02622823789715767,
        -0.09956716746091843,
        -0.08189161121845245,
        0.06746765226125717,
        -0.012495345436036587,
        0.16374915838241577,
        -0.14387495815753937,
        0.047755904495716095,
        -0.07643386721611023,
        -0.007426056545227766,
        0.0712059959769249,
        0.01423332653939724,
        -0.08889886736869812,
        0.06397289037704468,
        -0.17412438988685608,
        -0.06531409919261932,
        -0.105925552546978,
        -0.14469057321548462,
        0.09432856738567352,
        -0.09665791690349579,
        -0.005085431970655918,
        0.019827578216791153,
        0.23736688494682312,
        0.19889788329601288,
        -0.208579421043396,
        0.255099892616272,
        -0.1251331865787506,
        0.17996275424957275,
        -0.04279711842536926,
        -0.03138819336891174,
        -0.04743194207549095,
        0.11013384908437729,
        0.12108563631772995,
        -0.1823609173297882,
        0.11581121385097504,
        -0.042212095111608505,
        -0.09703218191862106,
        -0.056177057325839996,
        0.15529221296310425,
        0.18129174411296844,
        0.19595754146575928,
        -0.01691148802638054,
        0.14516474306583405,
        -0.09832991659641266,
        -0.08436329662799835,
        -0.10206381231546402,
        -0.002611392643302679,
        0.11195554584264755,
        0.1107293963432312,
        -0.017081372439861298,
        -0.1080705001950264,
        -0.05227113515138626,
        0.2722766101360321,
        0.23873665928840637,
        -0.2900787591934204,
        0.06450020521879196,
        0.12120776623487473,
        0.02845565602183342,
        -0.11723850667476654,
        0.09046947956085205,
        0.13867777585983276,
        0.23513822257518768,
        -0.2774122357368469,
        -0.10523320734500885,
        -0.17263732850551605,
        0.08169987797737122,
        0.08076941967010498,
        0.2419106662273407,
        -0.2857254445552826,
        0.2797170877456665,
        0.17465955018997192,
        -0.10453636944293976,
        0.021630730479955673,
        -0.12093695998191833,
        -0.023382684215903282,
        -0.11563308537006378,
        -0.22075559198856354,
        -0.23416300117969513,
        -0.07182635366916656,
        0.24015241861343384,
        0.04682188108563423,
        -0.019820114597678185,
        -0.16254012286663055,
        0.048270586878061295,
        -0.047829266637563705,
        -0.10391832143068314,
        -0.2829146683216095,
        -0.25597551465034485,
        0.19757550954818726,
        -0.1988282948732376,
        0.1501946747303009,
        0.05426719784736633,
        0.16273090243339539,
        0.032224420458078384,
        -0.07134950160980225,
        0.2838553488254547,
        -0.1569088101387024,
        0.05511483922600746,
        0.02510802261531353,
        0.00010966887202812359,
        0.10765611380338669,
        0.29222434759140015,
        0.02315460704267025,
        -0.02536294050514698,
        0.15558010339736938,
        0.17208780348300934,
        0.050785697996616364,
        0.002328315982595086,
        0.04752008616924286,
        0.34979674220085144,
        -0.11566223949193954,
        -0.15439291298389435,
        -0.1154574379324913,
        -0.15945371985435486,
        0.2244694083929062,
        0.09151600301265717,
        -0.11375123262405396,
        0.17114530503749847,
        -0.13162994384765625,
        0.20363157987594604,
        -0.3023163080215454,
        0.22905661165714264,
        0.2139422595500946,
        0.04752552509307861,
        0.13016824424266815,
        -0.2557598054409027,
        -0.0031538449693471193,
        0.1199440062046051,
        -0.04862399399280548,
        0.1278817504644394,
        -0.08821843564510345,
        0.16206921637058258,
        0.10768891870975494,
        -0.09633363038301468,
        0.16022534668445587,
        0.2141849249601364,
        -0.2555393874645233,
        0.2987270951271057,
        -0.24848802387714386,
        -0.10770443081855774,
        -0.10340926796197891,
        -0.004201959352940321,
        -0.020934469997882843,
        -0.037050846964120865,
        -0.08474118262529373,
        0.02090500108897686,
        0.08159888535737991,
        0.16697175800800323,
        0.11760276556015015,
        -0.0019733894150704145,
        0.021122731268405914,
        -0.14331763982772827,
        0.042763739824295044,
        -0.17191694676876068,
        -0.11560164391994476,
        -0.06007549166679382,
        0.04586303234100342,
        0.016914797946810722,
        0.03415922820568085,
        0.01191993523389101,
        -0.2268069088459015,
        -0.15715044736862183,
        0.013574323616921902,
        -0.036990322172641754,
        0.03266013413667679,
        -0.1303485482931137,
        -0.09256003797054291,
        -0.13329637050628662,
        0.07332813739776611,
        -0.03878505527973175,
        -0.08654177933931351,
        0.11976303905248642,
        0.17199568450450897,
        -0.06526811420917511,
        -0.020195791497826576,
        0.059746358543634415,
        0.09118176251649857,
        0.24138204753398895,
        -0.02171587571501732,
        -0.20198920369148254,
        -0.11645621806383133,
        0.1852872520685196,
        -0.08624735474586487,
        0.10280849784612656,
        0.07667011022567749,
        -0.028527699410915375,
        -0.22344085574150085,
        0.06295815110206604,
        -0.0816827267408371,
        -0.18921977281570435,
        -0.006407482083886862,
        -0.09024083614349365,
        -0.1770409345626831,
        -0.02201559953391552,
        0.07651658356189728,
        -0.21454881131649017,
        0.18226854503154755,
        -0.035364266484975815,
        0.1512662023305893,
        0.03658906742930412,
        -0.3081873059272766,
        0.06346417218446732,
        -0.09604936838150024,
        -0.04231679067015648,
        -0.10749901831150055,
        -0.050076499581336975,
        -0.06327497214078903,
        0.0032315042335540056,
        0.03867168352007866,
        0.07041922956705093,
        0.0775500014424324,
        0.15685750544071198,
        0.15645357966423035,
        -0.021990543231368065,
        -0.2594299912452698,
        -0.09539105743169785,
        0.15401048958301544,
        -0.07418078184127808,
        0.10368552803993225,
        0.07726657390594482,
        0.049663346260786057,
        -0.05905565619468689,
        0.07838580012321472,
        -0.07214854657649994,
        0.07219691574573517,
        -0.06082858890295029,
        0.2180784046649933,
        -0.0006209685234352946,
        0.029382813721895218,
        -0.20864862203598022,
        -0.24423085153102875,
        0.15346971154212952,
        0.23743170499801636,
        0.06745041906833649,
        0.28735533356666565,
        -0.017869731411337852,
        0.0958847627043724,
        0.02323298156261444,
        -0.2701987624168396,
        -0.010036659426987171,
        0.006863407790660858,
        -0.06455051153898239,
        -0.023020964115858078,
        0.11133366823196411,
        -0.18760907649993896,
        -0.08292839676141739,
        -0.1045108437538147,
        -0.0206605177372694,
        0.04957954213023186,
        0.22565346956253052,
        -0.10856477171182632,
        -0.10127853602170944,
        0.17122229933738708,
        0.0451027974486351,
        -0.0005713573191314936,
        0.128153458237648,
        -0.14937332272529602,
        -0.14925268292427063,
        0.2073858380317688,
        0.024945907294750214,
        0.05955188348889351,
        -0.10638236999511719,
        -0.03982775658369064,
        0.1816452145576477,
        -0.10504888743162155,
        -0.15313300490379333,
        0.04075390845537186,
        0.010132381692528725,
        0.11237040907144547,
        0.02572917565703392,
        0.026563500985503197,
        0.11901534348726273,
        -0.09306563436985016,
        -0.22688080370426178,
        0.18526585400104523,
        -0.057172346860170364,
        0.04183167219161987,
        0.11930481344461441,
        0.17242294549942017,
        -0.11983580887317657,
        0.16572605073451996,
        -0.07288448512554169,
        0.018115531653165817,
        -0.025324944406747818,
        0.05095849186182022,
        -0.03355032578110695,
        -0.06364922225475311,
        0.13857831060886383,
        0.343641072511673,
        -0.05717212334275246,
        0.15715612471103668,
        0.16501103341579437,
        -0.0985901951789856,
        0.11399912089109421,
        -0.11083956807851791,
        0.1516096442937851,
        0.12930871546268463,
        -0.23784922063350677,
        0.28584930300712585,
        0.21330146491527557,
        -0.0780109167098999,
        -0.10254782438278198,
        0.10818728059530258,
        -0.05093131959438324,
        0.07056796550750732,
        0.08547399938106537,
        0.0789320096373558,
        0.1550711989402771,
        -0.08227658271789551,
        0.17894285917282104,
        -0.07702562212944031,
        -0.029839782044291496,
        0.019262347370386124,
        0.020088158547878265,
        0.022365137934684753,
        -0.004651312250643969,
        -0.03709139674901962,
        0.05637659877538681,
        0.09881123900413513,
        0.016031412407755852,
        -0.1326121985912323,
        -0.19601371884346008,
        0.24452757835388184,
        0.04532951861619949,
        0.034214578568935394,
        -0.012672294862568378,
        0.15413321554660797,
        -0.18092083930969238,
        -0.05701833218336105,
        -0.25270143151283264,
        0.19298087060451508,
        -0.07242483645677567,
        0.1349794566631317,
        0.1956329196691513,
        -0.14430077373981476,
        -0.024801842868328094,
        0.2648691236972809,
        -0.1745654046535492,
        0.07670791447162628,
        0.336320161819458,
        -0.12634997069835663,
        0.17976753413677216,
        -0.13880428671836853,
        0.016615990549325943,
        0.0917634665966034,
        -0.08754532784223557,
        0.15062494575977325,
        0.009286226704716682,
        0.09692973643541336,
        -0.21227049827575684,
        -0.048494137823581696,
        -0.06432937830686569,
        0.13760940730571747,
        0.13902021944522858,
        0.08706389367580414,
        -0.03057275339961052,
        -0.1767221987247467,
        -0.021708887070417404,
        0.2776626944541931,
        -0.1713111847639084,
        -0.061065156012773514,
        0.03527752682566643,
        -0.025892024859786034,
        -0.001023507327772677,
        0.1479298323392868,
        0.11943958699703217,
        -0.1472027599811554,
        -0.15170498192310333,
        0.02829195372760296,
        0.027243737131357193,
        -0.28751805424690247,
        0.16077618300914764,
        -0.11573518812656403,
        -0.06205115467309952,
        0.043330296874046326,
        0.07628930360078812,
        0.04167492687702179,
        0.13921786844730377,
        -0.24170731008052826,
        -0.0332612544298172,
        -0.15677766501903534,
        -0.08052730560302734,
        0.23114515841007233,
        -0.07702693343162537,
        -0.16262242197990417,
        0.1499948352575302,
        -0.17531949281692505,
        -0.24907276034355164,
        0.00970276165753603,
        0.03343984857201576,
        0.04256083071231842,
        -0.11652683466672897,
        0.12104696780443192,
        -0.026056237518787384,
        -0.06691833585500717,
        -0.010572953149676323,
        0.03665004298090935,
        7.837676821509376e-05,
        -0.18022529780864716,
        0.2753389775753021,
        -0.1314031332731247,
        0.05441977083683014,
        -0.06835940480232239,
        -0.00263877771794796,
        -0.018366724252700806,
        -8.210987289203331e-05,
        -0.2369769811630249,
        0.11920708417892456,
        0.00676589272916317,
        0.035647813230752945,
        0.09741721302270889,
        -0.057654350996017456,
        -0.11219070106744766,
        0.08756636083126068,
        -0.0794878676533699,
        0.15465036034584045,
        0.1159883365035057,
        -0.17396508157253265,
        0.16406476497650146,
        0.04621770605444908,
        0.10083035379648209,
        -0.0384647436439991,
        -0.07314684987068176,
        -0.1596137136220932,
        -0.09685330092906952,
        -0.15091289579868317,
        0.15595681965351105,
        -0.0901276096701622,
        0.21340180933475494,
        0.06468469649553299,
        -0.06610337644815445,
        -0.010082659311592579,
        0.19783273339271545,
        -0.2177666425704956,
        -0.0007698138942942023,
        0.03821714594960213,
        -0.10884877294301987,
        0.06916757673025131,
        -0.05120287090539932,
        0.13070084154605865,
        -0.03164516016840935,
        0.12163500487804413,
        0.12099429965019226,
        -0.03806636855006218,
        -0.053118642419576645,
        -0.0495922677218914,
        0.05214369669556618,
        0.21146747469902039,
        -0.09696197509765625,
        -0.02609093487262726,
        0.12383215129375458,
        -0.037133827805519104,
        -0.06878458708524704,
        -0.022195331752300262,
        0.11799205094575882,
        -0.014941798523068428,
        -0.07611119002103806,
        -0.06239788979291916,
        -0.014785172417759895,
        -0.12097447365522385,
        0.09414652734994888,
        0.04991525784134865,
        0.0661545917391777,
        -0.010434961877763271,
        0.004384866915643215,
        0.030657486990094185,
        0.13192617893218994,
        -0.1362370103597641,
        -0.19562798738479614,
        -0.06000985577702522,
        -0.011785752139985561,
        -0.0909651517868042,
        0.1969701647758484,
        -0.013875369913876057,
        -0.08582955598831177,
        -0.0036597459111362696,
        -0.10364309698343277,
        -0.08065221458673477,
        -0.1254313439130783,
        -0.16327457129955292,
        -0.02410454861819744,
        -0.1332710236310959,
        0.14135102927684784,
        0.037718266248703,
        -0.14505906403064728,
        -0.06224476918578148,
        -0.4860589802265167,
        0.06237393245100975,
        -0.1428833305835724,
        -0.05136837437748909,
        -0.05695587396621704,
        -0.1109195426106453,
        -0.13969546556472778,
        0.09231791645288467,
        -0.22016485035419464,
        0.18962103128433228,
        0.17071884870529175,
        0.16848735511302948,
        -0.10742155462503433,
        0.16959287226200104,
        0.016201457008719444,
        -0.02540838159620762,
        -0.0802677720785141,
        0.055617742240428925,
        -0.025038983672857285,
        0.1262073963880539,
        0.06454239040613174,
        0.09900938719511032,
        -0.0007701419526711106,
        0.00799283105880022,
        -0.039284929633140564,
        -0.0067448983900249004,
        0.02785860374569893,
        -0.2395961731672287,
        0.2584933638572693,
        0.09810422360897064,
        0.015319537371397018,
        0.009784889407455921,
        -0.06971757858991623,
        -0.16736546158790588,
        0.05721954256296158,
        -0.16547925770282745,
        0.21210716664791107,
        -0.23244722187519073,
        -0.007967120967805386,
        0.14142003655433655,
        -0.0656556561589241,
        -0.1477731168270111,
        0.1736275553703308,
        -0.028280451893806458,
        0.07460566610097885,
        0.035306286066770554,
        -0.12560629844665527,
        -0.02034720405936241,
        0.07079154253005981,
        -0.03864261135458946,
        0.15437671542167664,
        -0.08195636421442032,
        -0.1087631806731224,
        -0.0024532016832381487,
        -0.13541771471500397,
        -0.20666642487049103,
        -0.025289645418524742,
        0.05030139908194542,
        0.0460897758603096,
        -0.051289528608322144,
        0.0219509769231081,
        -0.01663098856806755,
        -0.15526819229125977,
        0.024168891832232475,
        0.3235352635383606,
        0.11414400488138199,
        -0.028790006414055824,
        -0.00010566117998678237,
        -0.006508751306682825,
        -0.09888924658298492,
        -0.0975528433918953,
        -0.07014323770999908,
        0.10417782515287399,
        -0.08062157779932022,
        -0.06362137943506241,
        0.027082381770014763,
        -0.3579304814338684,
        0.08011128753423691,
        0.09531558305025101,
        0.057211972773075104,
        0.14162199199199677,
        -0.124408058822155,
        0.005405876785516739,
        0.12525394558906555,
        0.046521592885255814,
        0.062317173928022385,
        -0.2729588449001312,
        0.017852168530225754,
        0.2958156168460846,
        0.004829720593988895,
        -0.15852107107639313,
        0.27651849389076233,
        -0.12183118611574173,
        0.006261973176151514,
        0.12681004405021667,
        0.08145897835493088,
        0.25004348158836365,
        0.14114736020565033,
        0.12444386631250381,
        0.015343082137405872,
        0.07933475822210312,
        0.15882906317710876,
        0.05766276270151138,
        0.007080916780978441,
        -0.1630910038948059,
        0.013506090268492699,
        0.025607982650399208,
        0.16975310444831848,
        0.16506603360176086,
        0.009404653683304787,
        0.09636488556861877,
        -0.1453542709350586,
        -0.08314799517393112,
        -0.21503666043281555,
        -0.08153330534696579,
        -0.08584561198949814,
        -0.01441737450659275,
        -0.06798653304576874,
        0.19782334566116333,
        0.11652790755033493,
        -0.02854795753955841,
        0.06833190470933914,
        -0.08894114941358566,
        0.1924884021282196,
        -0.062098078429698944,
        -0.03016810677945614,
        -0.25970953702926636,
        -0.15480907261371613,
        -0.0971660166978836,
        0.09385591745376587,
        -0.03175453096628189,
        0.134644016623497,
        -0.03727065771818161,
        0.02433222346007824,
        -0.18108627200126648,
        -0.20956355333328247,
        0.0825142040848732,
        -0.13918866217136383,
        -0.02862660028040409,
        -0.04187316447496414,
        -0.08919775485992432,
        -0.10190457850694656,
        -0.21377858519554138,
        -0.11538641154766083,
        -0.20520666241645813,
        0.08422888070344925,
        -0.20264428853988647,
        -0.012556195259094238,
        -0.01951714977622032,
        -0.1768340766429901,
        0.1113148033618927,
        0.06756886094808578,
        0.19195744395256042,
        -0.002386802341789007,
        0.010602477006614208,
        0.017912715673446655,
        0.08485826849937439,
        0.14374332129955292,
        0.17577998340129852,
        0.03400709480047226,
        -0.06942298263311386,
        0.31799253821372986,
        0.0935058444738388,
        -0.1361800730228424,
        0.07368744909763336,
        -0.02431797981262207,
        0.0630979835987091,
        -0.18166309595108032,
        0.09084554761648178,
        0.16481401026248932,
        -0.2709577977657318,
        0.004777273628860712,
        0.23751702904701233,
        -0.19603700935840607,
        -0.032884858548641205,
        0.0034837631974369287,
        0.16565613448619843,
        -0.030721576884388924,
        0.016723735257983208,
        -0.0404166541993618,
        0.16081176698207855,
        0.002372286980971694,
        0.28493252396583557,
        0.030829017981886864,
        -0.2921944856643677,
        0.24537283182144165,
        0.20300455391407013,
        -0.028616134077310562,
        0.1746951788663864,
        0.1660929024219513,
        -0.21395252645015717,
        0.07968957722187042,
        -0.23965127766132355,
        0.02545558474957943,
        -0.11937560886144638,
        -0.04603198170661926,
        -0.20278897881507874,
        -0.033249542117118835,
        0.09058501571416855,
        0.032647546380758286,
        0.21457238495349884,
        -0.014043756760656834,
        -0.2785011827945709,
        -0.11816693842411041,
        0.16275018453598022,
        0.06888595968484879,
        0.18213297426700592,
        -0.16622795164585114,
        -0.11723466217517853,
        0.12171913683414459,
        0.03965813294053078,
        -0.12098675966262817,
        -0.007327097002416849,
        -0.12403956800699234,
        0.0325373150408268,
        -0.05186435207724571,
        0.026017749682068825,
        0.3239958584308624,
        0.06378045678138733,
        0.12480693310499191,
        0.10016956925392151,
        -0.25895532965660095,
        -0.1846042275428772,
        0.037086181342601776,
        -0.0694846585392952,
        -0.14641208946704865,
        0.10223983973264694,
        -0.07429829239845276,
        -0.05679968744516373,
        -0.24929262697696686,
        -0.013095996342599392,
        0.035472121089696884,
        -0.37795835733413696,
        0.05416213721036911,
        0.11278162896633148,
        -0.059535350650548935,
        0.14880940318107605,
        0.02536078914999962,
        -0.22437025606632233,
        0.20568332076072693,
        -0.2146734744310379,
        -0.03998923301696777,
        0.20304711163043976,
        -0.17432750761508942,
        0.052314016968011856,
        -0.1314474493265152,
        0.019014226272702217,
        -0.1511460691690445,
        0.17183104157447815,
        -0.01572113297879696,
        0.08786692470312119,
        -0.1206350326538086,
        -0.04691920801997185,
        -0.27208974957466125,
        -0.04010775685310364,
        -0.030807701870799065,
        0.1635269969701767,
        -0.029732326045632362,
        0.053979601711034775,
        0.1245407909154892,
        0.04028221592307091,
        -0.11783207207918167,
        0.0036068365443497896,
        0.01356353610754013,
        -0.138875350356102,
        0.03159230947494507,
        -0.13488128781318665,
        0.15121282637119293,
        -0.3352817893028259,
        0.02221292071044445,
        0.034775346517562866,
        0.008615536615252495,
        0.10359577089548111,
        -0.059423286467790604,
        0.03801471367478371,
        0.04446820169687271,
        -0.053596463054418564,
        0.16076324880123138,
        -0.11395233869552612,
        -0.06319910287857056,
        0.15077835321426392,
        0.12643231451511383,
        -0.20998433232307434,
        0.13223180174827576,
        -0.17083092033863068,
        -0.07260838896036148,
        0.1657814085483551,
        -0.006061597727239132,
        0.023484136909246445,
        0.11105239391326904,
        -0.1628190577030182,
        0.10049876570701599,
        0.057976651936769485,
        0.16209225356578827,
        0.04278421774506569,
        0.08035958558320999,
        0.01150338351726532,
        0.1711476743221283,
        -0.23464807868003845,
        0.015476244501769543,
        0.16419082880020142,
        0.09148402512073517,
        -0.04614356905221939,
        -0.15894216299057007,
        -0.1801130622625351,
        0.05919945612549782,
        -0.17664732038974762,
        0.018194787204265594,
        -0.0012736428761854768,
        -0.0007894778973422945,
        0.11831547319889069,
        -0.006096899509429932,
        0.03222992643713951,
        0.06374804675579071,
        0.1067858636379242,
        0.07499471306800842,
        0.2325177639722824,
        -0.08647725731134415,
        -0.08599879592657089,
        0.026266930624842644,
        -0.15096770226955414,
        0.013715858571231365,
        0.0405854694545269,
        0.15770427882671356,
        0.07701580226421356,
        -0.07127015292644501,
        -0.01844288781285286,
        -0.08491630852222443,
        -0.18875184655189514,
        -0.16124309599399567,
        0.004604065790772438,
        -0.03891487792134285,
        0.04611482843756676,
        0.11621641367673874,
        -0.04199298471212387,
        -0.15796880424022675,
        -0.25888147950172424,
        0.03198239207267761,
        -0.1956435889005661,
        -0.16255047917366028,
        0.0736612007021904,
        -0.15275780856609344,
        0.013662895187735558,
        0.19633495807647705,
        0.25378358364105225,
        0.061856817454099655,
        -0.07172051072120667,
        -0.18758752942085266,
        -0.11867368966341019,
        0.02920473925769329,
        0.19147786498069763,
        -0.13875824213027954,
        -0.13671952486038208,
        0.10077015310525894,
        -0.018590407446026802,
        -0.05935872346162796,
        -0.1439417451620102,
        0.13539990782737732,
        -0.014368871226906776,
        -0.24186228215694427,
        -0.21819008886814117,
        0.10800094157457352,
        -0.10290558636188507,
        0.12156064808368683,
        -0.006928541231900454,
        -0.18414513766765594,
        0.14923515915870667,
        -0.1523686945438385,
        0.08226463198661804,
        0.19954024255275726,
        0.04813746362924576,
        -0.014940905384719372,
        -0.08738332986831665,
        0.07806117832660675,
        0.2655086815357208,
        0.009455879218876362,
        -0.021486543118953705,
        -0.19557684659957886,
        -0.2462298721075058,
        -0.09213534742593765,
        0.13223284482955933,
        -0.11733381450176239,
        -0.07533518224954605,
        0.22266153991222382,
        0.106816865503788,
        -0.1992984116077423,
        -0.23013849556446075,
        0.15947937965393066,
        0.098142609000206,
        -0.17547421157360077,
        -0.022588156163692474,
        0.006420371122658253,
        0.01571156084537506,
        -0.048166483640670776,
        0.23010939359664917,
        0.21823330223560333,
        -0.08081028610467911,
        0.03348122164607048,
        0.07378317415714264,
        -0.09756674617528915,
        0.1617288738489151,
        -0.02547495998442173,
        0.06651759147644043,
        0.1729377955198288,
        0.1307414174079895,
        0.028868263587355614,
        -0.1343938708305359,
        -0.03782781586050987,
        0.06603957712650299,
        -0.10032092779874802,
        0.111820288002491,
        0.02197982184588909,
        -0.11344975978136063,
        0.24257713556289673,
        -0.02204742468893528,
        -0.07341387122869492,
        -0.19407330453395844,
        -0.06503940373659134,
        -0.051696956157684326,
        0.010242372751235962,
        -0.0825202688574791,
        -0.07177672535181046,
        -0.1133236214518547,
        -0.13965316116809845,
        0.2310446798801422,
        0.020453864708542824,
        -0.18753688037395477,
        0.223488450050354,
        -0.26253122091293335,
        -0.05460495501756668,
        0.15294049680233002,
        -0.1100391075015068,
        0.2289997935295105,
        -0.20172980427742004,
        -0.0006062743486836553,
        -0.05462777242064476,
        -0.25661367177963257,
        0.13059210777282715,
        0.06151539087295532,
        0.04346879944205284,
        0.029537614434957504,
        -0.04486770182847977,
        0.035909853875637054,
        0.029354462400078773,
        -0.09380386769771576,
        -0.037441615015268326,
        0.09044875204563141,
        -0.02527645044028759,
        0.0747133195400238,
        0.03502250462770462,
        -0.19484110176563263,
        -0.044992595911026,
        -0.004463238641619682,
        0.004971508402377367,
        -0.1782740354537964,
        -0.4211619794368744,
        0.5808772444725037,
        0.20761209726333618,
        -0.23035022616386414,
        -0.06896286457777023,
        -0.08559306710958481,
        -0.026391733437776566,
        0.503435492515564,
        -0.5311769247055054,
        0.6818684935569763,
        0.5072681903839111,
        0.16399556398391724,
        -0.28032419085502625,
        0.046061817556619644,
        -0.4817366898059845,
        0.201560378074646,
        -0.053775254637002945,
        -0.1095152348279953,
        -0.3030725419521332,
        0.18657000362873077,
        0.0916205421090126,
        0.2657809853553772,
        0.15834330022335052,
        0.12111491709947586,
        0.21932223439216614,
        0.04699452966451645,
        0.09678949415683746,
        -0.15143048763275146,
        0.08770430833101273,
        -0.17793485522270203,
        0.1572790890932083,
        0.3775455355644226,
        -0.17127655446529388,
        0.09635530412197113,
        -0.13169722259044647,
        0.06485533714294434,
        0.07079115509986877,
        0.11678777635097504,
        -0.28522229194641113,
        -0.34562912583351135,
        0.18628297746181488,
        -0.043330464512109756,
        0.11736022680997849,
        0.14255373179912567,
        0.4447444975376129,
        0.13100676238536835,
        -0.1719934493303299,
        0.18030430376529694,
        -0.23740166425704956,
        0.10786754637956619,
        -0.2696382403373718,
        0.2502266466617584,
        -0.04393194243311882,
        0.14909547567367554,
        -0.3323892652988434,
        -0.15846656262874603,
        0.2318345457315445,
        -0.12335140258073807,
        0.289593368768692,
        0.1859285980463028,
        0.006907360162585974,
        -0.15400008857250214,
        0.04392548277974129,
        0.4015257954597473,
        -0.049597807228565216,
        0.10228580981492996,
        0.019885359331965446,
        -0.11319809406995773,
        -0.01732623763382435,
        -0.15465761721134186,
        0.15113143622875214,
        0.15969203412532806,
        -0.01743226684629917,
        0.043631263077259064,
        0.3174774944782257,
        0.1968865692615509,
        0.2102804034948349,
        0.17758490145206451,
        -0.14885146915912628,
        0.0461529903113842,
        -0.09071291983127594,
        0.30868402123451233,
        0.06830406934022903,
        -0.053826238960027695,
        -0.0019907408859580755,
        0.0023974981158971786,
        -0.0749564915895462,
        0.2229139655828476,
        -0.21667985618114471,
        -0.15624400973320007,
        0.041249830275774,
        -0.24803707003593445,
        -0.2299899458885193,
        0.00875818356871605,
        -0.3824525475502014,
        -0.14032301306724548,
        -0.14694257080554962,
        -0.03254276141524315,
        0.014467115513980389,
        -0.1352570503950119,
        -0.07879327237606049,
        0.19241945445537567,
        0.03583597019314766,
        -0.06780458241701126,
        -0.16476111114025116,
        -0.06877914816141129,
        0.017810165882110596,
        0.07194650173187256,
        0.059219345450401306,
        0.1355009824037552,
        -0.04541512951254845,
        0.10174716264009476,
        0.026604756712913513,
        -0.0606108196079731,
        0.07584268599748611,
        0.2287692427635193,
        -0.14004023373126984,
        0.1922258883714676,
        0.010643434710800648,
        -0.20189356803894043,
        0.12878890335559845,
        0.20152701437473297,
        -0.05463019385933876,
        0.20955848693847656,
        0.17024379968643188,
        0.2345050424337387,
        0.15079322457313538,
        0.21257993578910828,
        -0.09631609916687012,
        -0.22015750408172607,
        -0.23864097893238068,
        0.1885388344526291,
        -0.11241945624351501,
        0.03370121866464615,
        -0.15192434191703796,
        0.1950548142194748,
        0.05550484359264374,
        -0.05994622781872749,
        0.20264393091201782,
        0.13455624878406525,
        0.03156431391835213,
        0.09170424938201904,
        0.05019942298531532,
        -0.1895977407693863,
        0.3359229266643524,
        -0.2288903146982193,
        0.20399753749370575,
        0.15937882661819458,
        -0.07051625102758408,
        -0.2582298517227173,
        0.1321280151605606,
        -0.22670547664165497,
        -0.10242730379104614,
        -0.1936984360218048,
        -0.012237866409122944,
        -0.2429707944393158,
        -0.07720918208360672,
        0.09606476128101349,
        0.19176146388053894,
        0.05847578123211861,
        -0.03797483071684837,
        -0.2299870252609253,
        0.23212496936321259,
        -0.11524724960327148,
        0.21285876631736755,
        -0.17221195995807648,
        0.05396106094121933,
        -0.17949412763118744,
        -0.131196528673172,
        0.08715963363647461,
        -0.16602924466133118,
        -0.12217516452074051,
        -0.039175886660814285,
        0.15223588049411774,
        -0.14257928729057312,
        0.34373757243156433,
        -0.1169307604432106,
        -0.2724018692970276,
        -0.32300829887390137,
        0.24915875494480133,
        -0.22217494249343872,
        0.053576573729515076,
        -0.13356727361679077,
        0.4347256124019623,
        0.06225050240755081,
        -0.331013023853302,
        0.0945107638835907,
        0.16495373845100403,
        -0.25765228271484375,
        0.07599593698978424,
        0.31144559383392334,
        0.17267511785030365,
        0.006533373612910509,
        -0.10260803252458572,
        0.014050592668354511,
        -0.0869404748082161,
        0.12086817622184753,
        0.30034342408180237,
        0.12258999794721603,
        -0.23458193242549896,
        -0.1195160299539566,
        -0.22933335602283478,
        0.20011895895004272,
        -0.17547625303268433,
        -0.11065410077571869,
        0.05783410742878914,
        0.1380031853914261,
        -0.22590714693069458,
        -0.11654352396726608,
        -0.07136114686727524,
        -0.05699770897626877,
        0.08940676599740982,
        -0.024506451562047005,
        -0.09705805778503418,
        -0.23751722276210785,
        0.15848392248153687,
        0.0229785293340683,
        -0.05196988210082054,
        0.11271025240421295,
        0.009035252965986729,
        0.09139198064804077,
        -0.001199957332573831,
        -0.20045839250087738,
        -0.10301949828863144,
        0.29003268480300903,
        -0.2068004161119461,
        -0.012083826586604118,
        -0.0035711161326617002,
        -0.23572874069213867,
        0.2602061927318573,
        -0.1361212432384491,
        -0.024713391438126564,
        0.07606518268585205,
        0.169298455119133,
        -0.2411985993385315,
        -0.051762621849775314,
        0.11807236820459366,
        -0.15640734136104584,
        -0.016640257090330124,
        -0.06715089082717896,
        0.1428878903388977,
        0.1164674237370491,
        0.0964873880147934,
        -0.18594571948051453,
        -0.02037179470062256,
        0.1925716996192932,
        -0.14974066615104675,
        -0.05516795441508293,
        0.16858811676502228,
        0.16007162630558014,
        0.28472599387168884,
        -0.12114487588405609,
        0.21567080914974213,
        -0.02625262178480625,
        -0.2710449695587158,
        -0.023032808676362038,
        -0.10655415803194046,
        -0.020061170682311058,
        -0.16096100211143494,
        -0.21051065623760223,
        0.02431102655827999,
        -0.030765879899263382,
        -0.14953050017356873,
        -0.18285402655601501,
        0.07031542807817459,
        0.08850228041410446,
        0.1815938800573349,
        -0.20058274269104004,
        0.03400181233882904,
        0.00929173268377781,
        -0.07733364403247833,
        -0.011562483385205269,
        -0.005633308086544275,
        0.04189768433570862,
        0.05392131581902504,
        -0.03733561560511589,
        0.12350206077098846,
        0.05868781358003616,
        0.0022266479209065437,
        -0.14649617671966553,
        -0.11733963340520859,
        0.015622840262949467,
        0.032469242811203,
        0.1363292783498764,
        0.12766999006271362,
        0.04548833146691322,
        -0.03157418593764305,
        0.07377183437347412,
        -0.1598772555589676,
        0.15793465077877045,
        0.16552719473838806,
        -0.0380408801138401,
        0.12894396483898163,
        0.05942276865243912,
        -0.04046320170164108,
        0.10070685297250748,
        -0.11948821693658829,
        0.018755456432700157,
        0.31053099036216736,
        0.07456646859645844,
        -0.20249667763710022,
        -0.18739581108093262,
        0.33890053629875183,
        0.030142275616526604,
        -0.03369765728712082,
        0.15646375715732574,
        -0.0796545222401619,
        -0.1891004741191864,
        -0.037321723997592926,
        -0.050877317786216736,
        -0.05318692326545715,
        -0.11343767493963242,
        -0.21172788739204407,
        0.20548993349075317,
        0.07661507278680801,
        0.021029144525527954,
        -0.2399049699306488,
        -0.06771134585142136,
        0.012834468856453896,
        0.37434932589530945,
        0.0493742860853672,
        -0.25297126173973083,
        0.09683310240507126,
        -0.16195793449878693,
        0.1859365999698639,
        0.09027601778507233,
        -0.035298123955726624,
        0.042485855519771576,
        0.20406712591648102,
        -0.003363181371241808,
        -0.33045998215675354,
        -0.1942119598388672,
        0.12991030514240265,
        -0.1763450652360916,
        -0.15207511186599731,
        -0.04178702086210251,
        0.25503605604171753,
        0.181284561753273,
        -0.03386935591697693,
        0.08985056728124619,
        0.21061334013938904,
        0.06037142872810364,
        -0.03243635222315788,
        0.1508944034576416,
        -0.1329830288887024,
        0.21928127110004425,
        0.09057352691888809,
        -0.011224153451621532,
        -0.1707955300807953,
        0.15883716940879822,
        -0.059489939361810684,
        -0.03375658765435219,
        -0.4347425103187561,
        -0.06665732711553574,
        0.21308571100234985,
        -0.0384223535656929,
        0.15926671028137207,
        -0.27155452966690063,
        -0.04235734045505524,
        0.2334936112165451,
        0.2667580246925354,
        0.05777326598763466,
        0.037081167101860046,
        0.03930840268731117,
        -0.14233645796775818,
        -0.06888856738805771,
        0.17807604372501373,
        -0.10331195592880249,
        -0.03958176076412201,
        0.1169765517115593,
        -0.09958648681640625,
        -0.19332608580589294,
        0.11055125296115875,
        -0.05280434340238571,
        -0.24650658667087555,
        0.2340250164270401,
        -0.12702958285808563,
        0.1312624216079712,
        0.18429866433143616,
        0.26388096809387207,
        0.10086192935705185,
        0.11389123648405075,
        0.24609903991222382,
        -0.11738842725753784,
        -0.10592570900917053,
        -0.02562950737774372,
        0.17405684292316437,
        -0.0018745907582342625,
        -0.06478097289800644,
        -0.16137243807315826,
        0.012035833671689034,
        0.04946855455636978,
        -0.03883367031812668,
        0.01256471499800682,
        0.12704148888587952,
        0.07869300246238708,
        -0.030587857589125633,
        0.052737537771463394,
