{
    "version": "0.5.0",
    "architecture": "WaveNet",
    "config": {
        "layers": [
            {
                "input_size": 1,
                "condition_size": 1,
                "head_size": 8,
                "channels": 16,
                "kernel_size": 3,
                "dilations": [
                    1,
                    2,
                    4,
                    8,
                    16,
                    32,
                    64,
                    128,
                    256,
                    512
                ],
                "activation": "Tanh",
                "gated": false,
                "head_bias": false
            },
            {
                "input_size": 16,
                "condition_size": 1,
                "head_size": 1,
                "channels": 8,
                "kernel_size": 3,
                "dilations": [
                    1,
                    2,
                    4,
                    8,
                    16,
                    32,
                    64,
                    128,
                    256,
                    512
                ],
                "activation": "Tanh",
                "gated": false,
                "head_bias": true
            }
        ],
        "head": null,
        "head_scale": 0.02
    },
    "weights": [
        -0.0008222185424529016,
        0.24500223994255066,
        -0.27119287848472595,
        -0.631950855255127,
        -0.016663355752825737,
        0.009655197151005268,
        -0.002463018987327814,
        0.8193488717079163,
        -0.005406003445386887,
        0.07406151294708252,
        -0.1568620502948761,
        -0.025965407490730286,
        -0.9105890393257141,
        -0.42076942324638367,
        -0.15414781868457794,
        -0.009106745943427086,
        0.0864860936999321,
        0.09366820007562637,
        -0.11100573092699051,
        -0.12228826433420181,
        -0.09097759425640106,
        0.21087121963500977,
        0.04839159548282623,
        0.2696751654148102,
        -0.08240201324224472,
        0.08225585520267487,
        0.2876422703266144,
        -0.21858397126197815,
        -0.049771249294281006,
        0.07303448021411896,
        -0.14826130867004395,
        0.06697655469179153,
        -0.19242939352989197,
        0.01396577525883913,
        -0.005588008090853691,
        -0.012200451456010342,
        -0.039229609072208405,
        0.05546989664435387,
        -0.09604087471961975,
        0.15348969399929047,
        0.02995006926357746,
        -0.03737450763583183,
        -0.08915170282125473,
        -0.16019085049629211,
        -0.20698803663253784,
        0.051300399005413055,
        0.12949791550636292,
        0.20588426291942596,
        -0.18205128610134125,
        0.08478840440511703,
        0.25475066900253296,
        0.09007873386144638,
        0.12828165292739868,
        0.18135085701942444,
        0.015289543196558952,
        -0.017022501677274704,
        0.18208830058574677,
        -0.19525490701198578,
        -0.05200154334306717,
        0.05899954214692116,
        -0.023521434515714645,
        0.09273871034383774,
        0.006052596028894186,
        -0.058442872017621994,
        -0.036567654460668564,
        -0.07618623971939087,
        -0.20844227075576782,
        0.16455808281898499,
        0.07755322009325027,
        0.16365723311901093,
        -0.24615907669067383,
        -0.04508069157600403,
        0.017487753182649612,
        -0.023447314277291298,
        0.1352764517068863,
        0.09628919512033463,
        -0.056683361530303955,
        -0.0928175151348114,
        -0.010382239706814289,
        -0.018810581415891647,
        -0.14413493871688843,
        0.19297653436660767,
        0.07056238502264023,
        -0.1562213897705078,
        0.047062911093235016,
        0.12083873152732849,
        -0.03348946198821068,
        -0.03549029305577278,
        0.005191490985453129,
        -0.0653667002916336,
        -0.03717554360628128,
        0.17435280978679657,
        0.0758214071393013,
        0.07635814696550369,
        -0.26349377632141113,
        -0.07480888068675995,
        0.05019686371088028,
        -0.09172391146421432,
        -0.11318019032478333,
        -0.10028579086065292,
        -0.01017261203378439,
        0.10611368715763092,
        -0.09329598397016525,
        -0.1748024970293045,
        -0.1262912154197693,
        -0.029162846505641937,
        -0.230705127120018,
        -0.09419441968202591,
        -0.03584148734807968,
        -0.12629897892475128,
        -0.10534834861755371,
        -0.012961424887180328,
        -0.026431173086166382,
        0.15936201810836792,
        0.20439709722995758,
        -0.1666736900806427,
        0.09146924316883087,
        -0.22582115232944489,
        0.037067487835884094,
        -0.11793828010559082,
        0.25250861048698425,
        0.04642275720834732,
        -0.21377621591091156,
        0.3001329004764557,
        -0.0779217779636383,
        -0.1751166582107544,
        0.19083347916603088,
        -0.10366938263177872,
        0.03449343889951706,
        -0.311506062746048,
        0.02558157593011856,
        -0.024713991209864616,
        -0.0766637772321701,
        -0.04423663020133972,
        0.2501300573348999,
        -0.247491717338562,
        0.050946105271577835,
        -0.04660097137093544,
        0.23418408632278442,
        0.014357994310557842,
        0.22516687214374542,
        -0.17270442843437195,
        0.20445039868354797,
        -0.11655189096927643,
        0.13107402622699738,
        -0.06997331231832504,
        -0.06389310210943222,
        0.16540317237377167,
        -0.038084760308265686,
        -0.25908908247947693,
        0.09377622604370117,
        -0.08459505438804626,
        -0.16957734525203705,
        0.30770835280418396,
        0.13357505202293396,
        -0.25436490774154663,
        0.3255372941493988,
        -0.059405066072940826,
        -0.1145041361451149,
        0.18342925608158112,
        -0.02558121457695961,
        -0.048646435141563416,
        -0.13553276658058167,
        -0.17660218477249146,
        -0.05503105744719505,
        0.1777552217245102,
        -0.0032783171627670527,
        0.0951215922832489,
        -0.2859933078289032,
        0.04816998541355133,
        0.16582350432872772,
        -0.2392251193523407,
        0.1660163849592209,
        0.06881083548069,
        -0.2835927903652191,
        0.03563699871301651,
        -0.05734030902385712,
        0.03234943747520447,
        0.1133408322930336,
        -0.09686906635761261,
        -0.07127122581005096,
        -0.08963324129581451,
        0.06223636865615845,
        0.22204649448394775,
        0.02669573202729225,
        -0.011409317143261433,
        -0.18441958725452423,
        -0.05421445518732071,
        -0.12332511693239212,
        0.2732112407684326,
        0.15326997637748718,
        0.11854243278503418,
        -0.2948268949985504,
        0.05769956111907959,
        -0.06802477687597275,
        -0.23774446547031403,
        -0.023300355300307274,
        0.09106709808111191,
        -0.26590391993522644,
        0.05529681220650673,
        0.04452042281627655,
        -0.08406292647123337,
        -0.07049518823623657,
        -0.0799638032913208,
        -0.2618943750858307,
        0.21844437718391418,
        0.0453067347407341,
        0.06292304396629333,
        0.05490129813551903,
        0.06109727919101715,
        0.029949117451906204,
        -0.03698365390300751,
        -0.15184031426906586,
        0.07109694182872772,
        0.03679601103067398,
        0.21248839795589447,
        -0.1837259978055954,
        -0.05789778381586075,
        0.3029094934463501,
        -0.21751166880130768,
        -0.013795069418847561,
        0.27935588359832764,
        -0.047468189150094986,
        -0.030960319563746452,
        -0.2759518325328827,
        0.11858857423067093,
        -0.0639956071972847,
        0.12256941944360733,
        0.06636591255664825,
        -0.04010983183979988,
        -0.18796752393245697,
        0.22000481188297272,
        -0.018659379333257675,
        0.17772211134433746,
        -0.021716147661209106,
        -0.06843589246273041,
        -0.06758696585893631,
        0.03173522651195526,
        -0.07206234335899353,
        0.1944066733121872,
        -0.07894057780504227,
        0.15316979587078094,
        0.14953899383544922,
        -0.050473496317863464,
        0.09562429040670395,
        0.05143296718597412,
        0.006625272333621979,
        -0.10177036374807358,
        0.18530194461345673,
        -0.12276354432106018,
        -0.08107023686170578,
        0.1722569614648819,
        0.005823794286698103,
        -0.04807579517364502,
        0.04004897177219391,
        -0.16129210591316223,
        -0.16768044233322144,
        0.030042581260204315,
        0.03974296897649765,
        -0.11888295412063599,
        0.017224520444869995,
        -0.12704305350780487,
        0.07501714676618576,
        -0.009754206985235214,
        0.23170898854732513,
        -0.026856282725930214,
        -0.15171056985855103,
        0.2596009075641632,
        0.12938086688518524,
        -0.05053735896945,
        0.11480030417442322,
        -0.059470899403095245,
        -0.055174149572849274,
        -0.13680638372898102,
        -0.01456142496317625,
        -0.11013482511043549,
        0.2208021730184555,
        -0.11536932736635208,
        0.09712976217269897,
        -0.1779731959104538,
        0.0312340147793293,
        -0.12326417863368988,
        0.09464738517999649,
        0.07113763689994812,
        0.09545505791902542,
        -0.1119246631860733,
        -0.007115051615983248,
        -0.04039907455444336,
        0.20154528319835663,
        -0.030721435323357582,
        -0.21984288096427917,
        0.194917231798172,
        0.06471054255962372,
        -0.1176629289984703,
        0.18352186679840088,
        -0.07069067656993866,
        -0.010644305497407913,
        0.10312166064977646,
        0.08756520599126816,
        -0.140229731798172,
        0.13977715373039246,
        0.03816451132297516,
        -0.14931142330169678,
        0.25312480330467224,
        0.03048570640385151,
        -0.13051307201385498,
        0.07573072612285614,
        0.030569463968276978,
        0.19802118837833405,
        -0.2476649135351181,
        -0.11694131791591644,
        -0.1888950765132904,
        0.24110229313373566,
        -0.029080098494887352,
        -0.10227111726999283,
        0.32457101345062256,
        -0.031739242374897,
        -0.10487351566553116,
        0.2790965735912323,
        -0.003201351035386324,
        0.11530253291130066,
        -0.16444775462150574,
        -0.09372656792402267,
        -0.06618340313434601,
        0.09810604155063629,
        0.10733046382665634,
        0.2450908124446869,
        -0.21006110310554504,
        0.10477069020271301,
        -0.11085470020771027,
        0.08431721478700638,
        -0.1878184974193573,
        0.2452581822872162,
        -0.16921940445899963,
        -0.04648391529917717,
        -0.06300181895494461,
        0.36670824885368347,
        0.12632262706756592,
        -0.051718924194574356,
        0.2723919451236725,
        -0.013447212055325508,
        -0.21245446801185608,
        0.34442880749702454,
        0.10345246642827988,
        -0.2412073165178299,
        0.35474810004234314,
        0.11080759018659592,
        -0.0506342388689518,
        0.14032919704914093,
        0.06900518387556076,
        -0.157547265291214,
        0.34349358081817627,
        0.015438477508723736,
        0.04363357648253441,
        0.03699443116784096,
        0.10372312366962433,
        0.14626550674438477,
        0.012641150504350662,
        -0.16542139649391174,
        -0.18121008574962616,
        -0.06566639244556427,
        -0.19442571699619293,
        -0.3279912769794464,
        0.16399911046028137,
        0.05729072913527489,
        -0.021051988005638123,
        0.18383261561393738,
        -0.08726498484611511,
        0.06005915626883507,
        -0.06092430651187897,
        -0.06715593487024307,
        0.062884122133255,
        -0.07323800027370453,
        -0.016417719423770905,
        0.0765940397977829,
        -0.13039833307266235,
        0.08926596492528915,
        -0.003877765266224742,
        0.14518415927886963,
        0.12149972468614578,
        0.28666627407073975,
        -0.12364912778139114,
        0.04246347025036812,
        -0.04669826477766037,
        0.12851855158805847,
        0.0653095692396164,
        -0.14749638736248016,
        0.10098949074745178,
        -0.1079525351524353,
        -0.14897969365119934,
        0.06193926930427551,
        -0.08649303764104843,
        -0.2906131148338318,
        -0.03185303136706352,
        -0.1405603587627411,
        -0.08370106667280197,
        0.16829995810985565,
        -0.09727643430233002,
        -0.2884121537208557,
        0.1291234791278839,
        0.12139561027288437,
        0.05276087298989296,
        0.08257289230823517,
        0.013888310641050339,
        0.12452031672000885,
        -0.13963083922863007,
        0.2431022822856903,
        0.0374586321413517,
        -0.03047821670770645,
        0.21367378532886505,
        -0.1508602797985077,
        0.004804450552910566,
        0.21581825613975525,
        -0.034667275846004486,
        -0.033116117119789124,
        -0.11445777118206024,
        -0.02951095439493656,
        -0.1414666324853897,
        0.030971858650445938,
        0.06925646960735321,
        -0.05242130905389786,
        -0.22490133345127106,
        0.07818014174699783,
        0.04437755048274994,
        0.12518449127674103,
        -0.13047756254673004,
        0.12809418141841888,
        -0.22625206410884857,
        -0.023221585899591446,
        -0.010280508548021317,
        0.02279146946966648,
        -0.0008432766189798713,
        0.16774792969226837,
        0.1067298874258995,
        -0.1535360962152481,
        -0.0205033328384161,
        0.1652471125125885,
        -0.18178582191467285,
        0.09456261247396469,
        -0.003444887464866042,
        -0.20683901011943817,
        -0.11386678367853165,
        0.08746086061000824,
        0.039255864918231964,
        -0.09849964082241058,
        0.17071639001369476,
        -0.15728376805782318,
        0.05593185871839523,
        0.04524208977818489,
        -0.09705143421888351,
        0.21307741105556488,
        0.10578430444002151,
        0.13965396583080292,
        0.007625392638146877,
        -0.12865737080574036,
        0.11674606800079346,
        0.060061294585466385,
        0.036666352301836014,
        -0.1073853000998497,
        0.020642485469579697,
        -0.1729913353919983,
        -0.07542496174573898,
        0.08652587980031967,
        -0.09183048456907272,
        0.05958262458443642,
        0.005547091364860535,
        0.09068320691585541,
        -0.01281740702688694,
        0.04142225533723831,
        -0.011252196505665779,
        0.05368660390377045,
        0.08170745521783829,
        0.07900499552488327,
        -0.018149714916944504,
        0.14054039120674133,
        -0.1256258189678192,
        -0.1351647526025772,
        -0.006564626470208168,
        -0.09876064211130142,
        0.0850963220000267,
        -0.023622995242476463,
        -0.09318598359823227,
        -0.1254984438419342,
        0.15416979789733887,
        -0.049330879002809525,
        0.11933794617652893,
        0.14861205220222473,
        0.04852999001741409,
        0.010769163258373737,
        0.01787421479821205,
        -0.05965156480669975,
        0.016665831208229065,
        0.12949736416339874,
        -0.06035365164279938,
        0.17509916424751282,
        0.15442083775997162,
        -0.15512549877166748,
        -0.1536620855331421,
        0.025148209184408188,
        0.1939590573310852,
        0.016310637816786766,
        0.015690594911575317,
        -0.016466457396745682,
        -0.09003256261348724,
        0.17246347665786743,
        -0.1511029452085495,
        -0.12073463946580887,
        0.13922742009162903,
        -0.08351127058267593,
        -0.06938973069190979,
        0.04204479977488518,
        0.1625988632440567,
        0.09941764920949936,
        -0.0783938616514206,
        0.09473720192909241,
        0.06576699018478394,
        0.006260053254663944,
        0.08723123371601105,
        0.25263679027557373,
        -0.09499630331993103,
        -0.0014593044761568308,
        -0.12341266870498657,
        0.08196166157722473,
        -0.07316317409276962,
        0.032079003751277924,
        -0.18644002079963684,
        0.08946727216243744,
        -0.170841783285141,
        0.10886885970830917,
        -0.17882436513900757,
        -0.04813849925994873,
        0.16413909196853638,
        -0.18623533844947815,
        -0.28808093070983887,
        -0.03218013793230057,
        -0.07328935712575912,
        -0.2002859264612198,
        -0.01548321358859539,
        -0.09687037020921707,
        -0.10495200008153915,
        0.020127031952142715,
        -0.008024078793823719,
        -0.13633818924427032,
        0.027115685865283012,
        0.12274760007858276,
        0.20299501717090607,
        -0.15025264024734497,
        0.10183236002922058,
        -0.1555120348930359,
        0.13538974523544312,
        -0.2169124186038971,
        -0.029228171333670616,
        0.15328826010227203,
        -0.19809553027153015,
        0.1304360181093216,
        -0.003867078572511673,
        -0.10282310843467712,
        0.05199640244245529,
        0.056996602565050125,
        0.038743797689676285,
        -0.2014310508966446,
        -0.005939221475273371,
        -0.05982530862092972,
        0.06724607944488525,
        -0.04661357030272484,
        0.245347261428833,
        -0.13535772264003754,
        -0.03628091886639595,
        0.0536271333694458,
        0.07235465943813324,
        -0.061257362365722656,
        0.1709737628698349,
        -0.12780706584453583,
        -0.07971222698688507,
        -0.1074935793876648,
        0.2150457799434662,
        -0.04884105920791626,
        -0.19749273359775543,
        0.16439685225486755,
        0.16015389561653137,
        -0.1502567082643509,
        -0.016959786415100098,
        -0.12100803852081299,
        -0.06563807278871536,
        0.09254307299852371,
        -0.06283064931631088,
        -0.06437761336565018,
        0.15212221443653107,
        0.11269127577543259,
        0.026862747967243195,
        0.10347767919301987,
        -0.09287966042757034,
        -0.18987253308296204,
        0.08726242929697037,
        0.04124344512820244,
        0.04024107754230499,
        -0.132481649518013,
        0.07680631428956985,
        0.14040154218673706,
        0.11871125549077988,
        -0.09105526655912399,
        -0.02641298435628414,
        -0.08726700395345688,
        0.19176819920539856,
        -0.043822526931762695,
        -0.06024222820997238,
        0.13787035644054413,
        -0.05647595226764679,
        -0.050980910658836365,
        -0.054415732622146606,
        -0.10510756820440292,
        -0.19151577353477478,
        0.019482983276247978,
        -0.09413419663906097,
        0.03707011789083481,
        0.07039860635995865,
        0.07750982791185379,
        0.014606188051402569,
        0.16820932924747467,
        -0.008835334330797195,
        -0.08555132895708084,
        0.06495463103055954,
        0.06482783704996109,
        -0.1223950982093811,
        0.030078085139393806,
        -0.0965908095240593,
        0.11229381710290909,
        0.028183216229081154,
        -0.10260260105133057,
        0.00380447949282825,
        0.14458727836608887,
        0.06343723833560944,
        0.05614001303911209,
        0.06975072622299194,
        0.07162483036518097,
        -0.033479057252407074,
        -0.009534880518913269,
        -0.05586346238851547,
        -0.03767981007695198,
        0.21156272292137146,
        -0.134148970246315,
        -0.012894714251160622,
        -0.10735054314136505,
        0.11192744225263596,
        -0.127955824136734,
        0.22596968710422516,
        -0.18911631405353546,
        0.14621633291244507,
        -0.20821642875671387,
        -0.14973607659339905,
        0.10905512422323227,
        -0.15166279673576355,
        0.04287596419453621,
        -0.07849401235580444,
        -0.22902436554431915,
        -0.0015053442912176251,
        0.028610192239284515,
        0.26917415857315063,
        -0.02752389945089817,
        0.21390897035598755,
        0.049861930310726166,
        0.08553259819746017,
        0.0740073099732399,
        -0.02067403681576252,
        -0.03418046608567238,
        0.1302383989095688,
        -0.18015971779823303,
        0.20092330873012543,
        -0.06692969053983688,
        0.2197382152080536,
        -0.23674780130386353,
        0.011087821796536446,
        -0.11895839869976044,
        -0.057751841843128204,
        0.07046959549188614,
        0.017636911943554878,
        -0.13785724341869354,
        0.026906242594122887,
        0.009075121954083443,
        -0.14842474460601807,
        0.16027723252773285,
        -0.1836278885602951,
        -0.11062455177307129,
        0.025968974456191063,
        -0.025691138580441475,
        0.1365436464548111,
        0.15190736949443817,
        -0.059019871056079865,
        0.05632055550813675,
        -0.009609992615878582,
        -0.1175810769200325,
        -0.09668023139238358,
        0.06494169682264328,
        0.1364733725786209,
        0.03589649125933647,
        -0.09212212264537811,
        0.10932701081037521,
        -0.09885785728693008,
        0.06282349675893784,
        0.02568385936319828,
        -0.0639585629105568,
        0.08028928190469742,
        -0.1398075670003891,
        0.029326682910323143,
        -0.10642644762992859,
        0.03034818544983864,
        -0.07081406563520432,
        -0.042739175260066986,
        -0.133154034614563,
        0.08463588356971741,
        -0.04620342701673508,
        -0.07460165023803711,
        -0.07899845391511917,
        -0.08494441211223602,
        0.08956246823072433,
        -0.03184148669242859,
        -0.007898935116827488,
        0.05525678023695946,
        0.09095549583435059,
        0.13692006468772888,
        0.1043550968170166,
        -0.06720173358917236,
        0.04757389426231384,
        -0.03310564160346985,
        -0.07243086397647858,
        0.06369853764772415,
        0.1428588628768921,
        -0.10697568207979202,
        0.1176098957657814,
        -0.06965693086385727,
        -0.0197006743401289,
        0.14538444578647614,
        -0.03340468928217888,
        0.005900034215301275,
        -0.05855746939778328,
        0.11436397582292557,
        -0.0036544334143400192,
        -0.08708508312702179,
        0.07889352738857269,
        -0.07891558855772018,
        -0.0929722860455513,
        -0.015528131276369095,
        0.10068736225366592,
        -0.05192519724369049,
        0.10282455384731293,
        0.09986282885074615,
        0.07224690914154053,
        -0.03930879384279251,
        -0.04311363399028778,
        -0.06071031093597412,
        -0.1253744214773178,
        0.01529241818934679,
        0.10805069655179977,
        0.1274859458208084,
        0.07999839633703232,
        0.04247860237956047,
        0.013985108584165573,
        0.13274702429771423,
        -0.036214929074048996,
        -0.14050009846687317,
        -0.015187283977866173,
        0.07189879566431046,
        -0.15649424493312836,
        0.1747341752052307,
        0.09080612659454346,
        -0.09645771980285645,
        -0.07061958312988281,
        0.08872314542531967,
        -0.10362260788679123,
        -0.027417927980422974,
        0.07111140340566635,
        -0.09577441960573196,
        0.05639772117137909,
        0.05199320986866951,
        0.1303422600030899,
        -0.11500102281570435,
        0.12213492393493652,
        -0.053229350596666336,
        0.11514946818351746,
        -0.16295014321804047,
        -0.11336161196231842,
        0.15495584905147552,
        0.09466371685266495,
        0.07596491277217865,
        -0.15690302848815918,
        -0.17879877984523773,
        -0.09476657956838608,
        -0.16673977673053741,
        -0.005115679930895567,
        0.1292901486158371,
        -0.011334001086652279,
        0.0498432032763958,
        0.007066952530294657,
        0.09242700785398483,
        -0.0955590009689331,
        -0.03685203567147255,
        -0.04058613255620003,
        -0.022915741428732872,
        -0.05046556517481804,
        -0.04015299305319786,
        0.5084407925605774,
        -0.39219069480895996,
        0.5845333337783813,
        -0.5332263112068176,
        0.08515025675296783,
        0.6955220103263855,
        0.7851160764694214,
        -0.6096757650375366,
        0.163330078125,
        0.06547431647777557,
        -0.5297055840492249,
        -0.35963547229766846,
        0.2225794792175293,
        -0.607232928276062,
        0.15147146582603455,
        0.3819626271724701,
        -0.056990496814250946,
        0.20413252711296082,
        -0.030539024621248245,
        0.14763596653938293,
        0.2801191508769989,
        -0.12305343896150589,
        0.1022532731294632,
        0.013160370290279388,
        0.004510990809649229,
        0.001894086948595941,
        0.05566691607236862,
        0.08040733635425568,
        -0.006404581945389509,
        -0.035525161772966385,
        0.12465045601129532,
        -0.016090625897049904,
        -0.1306339055299759,
        -0.059894733130931854,
        -0.22242848575115204,
        0.007160481996834278,
        0.08653261512517929,
        -0.11215417832136154,
        -0.07555297017097473,
        0.04971642792224884,
        -0.03259697183966637,
        0.13992413878440857,
        -0.10138745605945587,
        -0.3198474645614624,
        0.17202286422252655,
        -0.13335543870925903,
        0.09784983843564987,
        0.002766386605799198,
        0.05226850509643555,
        0.057911135256290436,
        0.20083285868167877,
        0.15025177597999573,
        -0.2470497488975525,
        -0.045138198882341385,
        0.26634839177131653,
        -0.27434903383255005,
        0.04505610838532448,
        -0.0877244621515274,
        0.2541407644748688,
        -0.09537161141633987,
        0.02879168465733528,
        -0.053604789078235626,
        0.2704733908176422,
        0.05966956168413162,
        0.2620990574359894,
        -0.15805239975452423,
        0.006171325221657753,
        -0.2793520390987396,
        -0.09887435287237167,
        0.30348214507102966,
        0.04457632079720497,
        -0.04134434461593628,
        -0.16957247257232666,
        0.05697087571024895,
        0.0028582115191966295,
        -0.02714673988521099,
        0.11045719683170319,
        0.1403014361858368,
        -0.14227841794490814,
        -0.021001171320676804,
        -0.217875674366951,
        -0.1906513124704361,
        -0.14472596347332,
        0.11125736683607101,
        0.20688968896865845,
        0.24692507088184357,
        0.2315565049648285,
        0.006615125108510256,
        0.07749859988689423,
        0.21916818618774414,
        -0.13754594326019287,
        0.264323353767395,
        -0.0012273581232875586,
        0.04264252260327339,
        -0.17125621438026428,
        0.046927310526371,
        -0.2820928990840912,
        -0.013511504046618938,
        0.0870937779545784,
        0.07202217727899551,
        0.17877700924873352,
        0.1227494329214096,
        0.22667549550533295,
        0.09785327315330505,
        0.11373908817768097,
        -0.06478942930698395,
        -0.19002118706703186,
        -0.16918368637561798,
        0.0005205593188293278,
        -0.07172338664531708,
        0.12398530542850494,
        0.02162119373679161,
        -0.010536329820752144,
        0.09876684844493866,
        0.24975265562534332,
        0.20537999272346497,
        -0.2204309105873108,
        -0.3152683973312378,
        0.07865406572818756,
        -0.00648545753210783,
        0.08920547366142273,
        -0.1266782134771347,
        -0.25198376178741455,
        0.15537026524543762,
        0.044148724526166916,
        -0.1439356505870819,
        0.023875897750258446,
        -0.0024169536773115396,
        0.12033144384622574,
        0.04608120769262314,
        0.3150285482406616,
        -0.15719637274742126,
        -0.2516631484031677,
        0.07923773676156998,
        0.31226208806037903,
        0.1795634925365448,
        0.07105965912342072,
        -0.13919156789779663,
        0.2678370773792267,
        -0.13758274912834167,
        0.10425057262182236,
        -0.06957520544528961,
        -0.010374234989285469,
        0.12245222926139832,
        -0.015042247250676155,
        0.07163941860198975,
        -0.27447372674942017,
        -0.2794150114059448,
        0.07818862050771713,
        -0.04237654060125351,
        -0.1746671348810196,
        0.03600967675447464,
        -0.2693318724632263,
        -0.1427096724510193,
        0.2601209580898285,
        0.22428184747695923,
        -0.0383429229259491,
        0.06042782589793205,
        0.2049844115972519,
        -0.006062424276024103,
        -0.20918655395507812,
        -0.09742195904254913,
        0.11511209607124329,
        -0.09799720346927643,
        -0.13632147014141083,
        -0.1567404568195343,
        0.07847801595926285,
        -0.17421506345272064,
        0.042148251086473465,
        0.1934027075767517,
        -0.042766306549310684,
        0.1155516728758812,
        -0.036161430180072784,
        0.10175208002328873,
        -0.2433452308177948,
        -0.035946451127529144,
        0.21203303337097168,
        0.22952404618263245,
        -0.2345331311225891,
        0.09342781454324722,
        -0.10809290409088135,
        -0.08840253204107285,
        0.04565989971160889,
        -0.10944494605064392,
        0.059718456119298935,
        -0.12032397091388702,
        -0.1534709334373474,
        0.025953009724617004,
        -0.0441938154399395,
        0.12416312098503113,
        -0.07189460843801498,
        0.16898590326309204,
        -0.08157499134540558,
        -0.02530982345342636,
        0.12036764621734619,
        -0.05769098177552223,
        -0.004389138892292976,
        -0.08261644095182419,
        -0.11421533674001694,
        0.013408225029706955,
        0.12028587609529495,
        -0.08586136251688004,
        -0.07293777167797089,
        -0.24924050271511078,
        -0.029271192848682404,
        -0.03674345090985298,
        -0.12496771663427353,
        -0.18408608436584473,
        0.17902548611164093,
        -0.03641058877110481,
        0.013898598030209541,
        0.05443016067147255,
        0.10396508872509003,
        -0.041696786880493164,
        -0.08460800349712372,
        -0.041535861790180206,
        0.25294432044029236,
        -0.15433116257190704,
        -0.17263056337833405,
        -0.2654641270637512,
        0.12260517477989197,
        -0.2775833010673523,
        0.049640052020549774,
        0.12339702248573303,
        0.17175404727458954,
        -0.21817030012607574,
        0.03618223965167999,
        0.1235046237707138,
        -0.18503433465957642,
        0.31897103786468506,
        0.2937237024307251,
        -0.06757218390703201,
        0.1486472189426422,
        -0.08350665867328644,
        0.08335257321596146,
        -0.164211705327034,
        -0.06458843499422073,
        -0.19302621483802795,
        -0.24585850536823273,
        0.1991533786058426,
        -0.09510281682014465,
        0.25461113452911377,
        -0.03620467334985733,
        -0.11968784034252167,
        0.002464497461915016,
        0.05745106190443039,
        0.1983000785112381,
        0.12826533615589142,
        -0.19236615300178528,
        0.10786257684230804,
        -0.010207968764007092,
        0.10735050588846207,
        0.02798030525445938,
        0.2124967873096466,
        -0.09937164187431335,
        -0.01205272413790226,
        0.13688313961029053,
        0.04215390607714653,
        0.0843857079744339,
        -0.059175387024879456,
        -0.09156720340251923,
        0.07695358991622925,
        -0.07219202816486359,
        0.17437200248241425,
        0.013830605894327164,
        -0.06528734415769577,
        -0.14326457679271698,
        -0.07326927036046982,
        -0.0374058298766613,
        0.025671079754829407,
        0.14273157715797424,
        -0.04172358289361,
        0.09838781505823135,
        -0.09807131439447403,
        0.1367030143737793,
        -0.1657630354166031,
        -0.11647322028875351,
        -0.05369090288877487,
        0.11403443664312363,
        0.016288597136735916,
        0.013389934785664082,
        -0.06354690343141556,
        0.05573710799217224,
        -0.011007959954440594,
        -0.01580219902098179,
        0.06411435455083847,
        0.03555455803871155,
        -0.002106377389281988,
        -0.054914794862270355,
        -0.05709048733115196,
        -0.10951700806617737,
        0.10690808296203613,
        -0.03727618604898453,
        0.18884868919849396,
        0.03645374998450279,
        -0.054748620837926865,
        0.01791875809431076,
        -0.16171176731586456,
        0.043422844260931015,
        -0.10118695348501205,
        -0.07889007776975632,
        -0.04367624968290329,
        -0.012185185216367245,
        0.10773663967847824,
        -0.24725331366062164,
        0.2760641276836395,
        -0.05498861148953438,
        -0.06100684404373169,
        0.1533237248659134,
        0.1497306376695633,
        -0.21618510782718658,
        -0.060826487839221954,
        -0.03495285287499428,
        0.20867572724819183,
        -0.27497532963752747,
        -0.1037951409816742,
        -0.047859929502010345,
        -0.04021772742271423,
        -0.12160592526197433,
        0.19320841133594513,
        -0.03386927396059036,
        -0.15967236459255219,
        -0.19748978316783905,
        -0.2386074662208557,
        -0.2295038402080536,
        0.10367950052022934,
        -0.10416501015424728,
        -0.15101805329322815,
        -0.00552121177315712,
        -0.17115488648414612,
        -0.06231459602713585,
        0.041632771492004395,
        -0.12315839529037476,
        0.18114131689071655,
        0.010147917084395885,
        -0.0800560861825943,
        -0.034407712519168854,
        0.010000274516642094,
        0.17782846093177795,
        -0.07567912340164185,
        -0.04587939754128456,
        0.03888116404414177,
        -0.10182574391365051,
        0.01211162656545639,
        0.1789567470550537,
        -0.19813072681427002,
        0.048947252333164215,
        -0.03578097000718117,
        0.07537499070167542,
        -0.11129162460565567,
        0.08249880373477936,
        -0.09094491600990295,
        -0.04898584634065628,
        -0.05861145630478859,
        0.12963999807834625,
        -0.08392564952373505,
        -0.08031061291694641,
        0.3138740062713623,
        0.02993919886648655,
        -0.1722733974456787,
        -0.12344080209732056,
        -0.04553893953561783,
        0.02540425769984722,
        0.11182121932506561,
        0.03446829319000244,
        -0.2385362982749939,
        0.008377640508115292,
        0.03181713446974754,
        0.22070807218551636,
        -0.05722494423389435,
        -0.012168808840215206,
        0.15456622838974,
        -0.2025754749774933,
        -0.031860411167144775,
        0.26181092858314514,
        -0.020944368094205856,
        0.07668286561965942,
        0.11018245667219162,
        -0.12172792106866837,
        -0.046676620841026306,
        -0.10722284764051437,
        0.024270251393318176,
        0.24599602818489075,
        -0.1199541985988617,
        0.022606678307056427,
        -0.22165000438690186,
        0.12357895821332932,
        0.12864519655704498,
        0.17887495458126068,
        -0.21708375215530396,
        -0.19220174849033356,
        0.09082028269767761,
        0.012468686327338219,
        0.10951139032840729,
        -0.06827718019485474,
        0.043616846203804016,
        0.047108836472034454,
        -0.11844757944345474,
        0.13603857159614563,
        -0.05604802072048187,
        0.25464996695518494,
        -0.05412490665912628,
        0.11256713420152664,
        -0.09966698288917542,
        -0.16861027479171753,
        -0.059969060122966766,
        0.09213441610336304,
        0.014384554699063301,
        0.07663033157587051,
        -0.28309762477874756,
        0.19057758152484894,
        -0.08440560847520828,
        0.14057539403438568,
        -0.24902063608169556,
        -0.11990173161029816,
        -0.29095107316970825,
        0.21622538566589355,
        0.0755188912153244,
        0.09045561403036118,
        0.2443452626466751,
        0.09324878454208374,
        -0.0550592765212059,
        0.09696745872497559,
        -0.05113539472222328,
        0.057417549192905426,
        0.14276744425296783,
        -0.06096580624580383,
        0.030093375593423843,
        0.24976210296154022,
        -0.014165643602609634,
        0.24041402339935303,
        0.19891251623630524,
        -0.047282103449106216,
        -0.044912561774253845,
        0.0342140756547451,
        -0.18522050976753235,
        0.09944608807563782,
        0.06640882045030594,
        0.11335131525993347,
        -0.1794280707836151,
        -0.2605800926685333,
        0.09504608064889908,
        0.05340300500392914,
        -0.18464456498622894,
        -0.0361676849424839,
        -0.08387232571840286,
        -0.11727769672870636,
        -0.00411536218598485,
        0.10818816721439362,
        0.005314142443239689,
        0.01804754137992859,
        0.09207820892333984,
        0.07186976075172424,
        -0.22952894866466522,
        0.014611620455980301,
        0.23653483390808105,
        0.07516995817422867,
        -0.1723414659500122,
        0.007928663864731789,
        0.205541729927063,
        -0.09504662454128265,
        0.1361653059720993,
        -0.006932473741471767,
        -0.17446011304855347,
        -0.1935180127620697,
        0.00463419733569026,
        0.07393792271614075,
        0.06307464838027954,
        0.12859584391117096,
        0.0446198470890522,
        -0.3075908422470093,
        0.11463065445423126,
        -0.16057990491390228,
        -0.18923357129096985,
        0.09936113655567169,
        -0.07893752306699753,
        0.1430915743112564,
        0.08828932046890259,
        0.12593954801559448,
        0.12364818155765533,
        -0.02260381169617176,
        -0.11228491365909576,
        0.09631599485874176,
        0.029685843735933304,
        0.25087547302246094,
        -0.1376323401927948,
        -0.20241408050060272,
        -0.056589722633361816,
        -0.09726762771606445,
        -0.0847577229142189,
        0.004375418182462454,
        0.20644064247608185,
        -0.04438279569149017,
        -0.03779713809490204,
        0.01309503149241209,
        -0.11475928127765656,
        0.09513650834560394,
        -0.1733991950750351,
        0.10383517295122147,
        -0.13826996088027954,
        -0.09060981869697571,
        -0.13109448552131653,
        0.13558198511600494,
        0.029195129871368408,
        0.11922456324100494,
        -0.06928175687789917,
        0.08632756024599075,
        -0.13747747242450714,
        -0.15863627195358276,
        -0.08608963340520859,
        0.17237578332424164,
        -0.06729811429977417,
        0.06143870949745178,
        -0.06349875777959824,
        0.18847306072711945,
        0.3177846670150757,
        -0.06126764789223671,
        -0.16828659176826477,
        0.14119048416614532,
        0.07515668123960495,
        0.10680394619703293,
        0.13346430659294128,
        0.05293582007288933,
        -0.3229237496852875,
        0.044096607714891434,
        0.1891278773546219,
        0.022092536091804504,
        0.049370333552360535,
        0.0061636376194655895,
        -0.041340406984090805,
        -0.24815945327281952,
        -0.2672363519668579,
        0.15038134157657623,
        0.20512168109416962,
        0.1681058406829834,
        -0.13177643716335297,
        -0.08300503343343735,
        0.07801433652639389,
        0.12227688729763031,
        -0.10767999291419983,
        -0.04715222120285034,
        0.0960981696844101,
        -0.0648697167634964,
        0.12140292674303055,
        -0.13627780973911285,
        0.16677580773830414,
        0.03954990580677986,
        -0.17331147193908691,
        0.12531118094921112,
        0.020516498014330864,
        -0.16691988706588745,
        0.39897096157073975,
        0.20298351347446442,
        0.2920200228691101,
        -0.26163920760154724,
        0.13057859241962433,
        -0.07126322388648987,
        0.23284906148910522,
        0.054101794958114624,
        0.07423263788223267,
        -0.21177837252616882,
        0.11837972700595856,
        -0.17737609148025513,
        -0.17114457488059998,
        0.18099930882453918,
        0.08677898347377777,
        -0.262220561504364,
        -0.015813201665878296,
        -0.24207545816898346,
        -0.1843128353357315,
        0.0488748662173748,
        0.09864301979541779,
        -0.09845699369907379,
        -0.15342436730861664,
        -0.07878996431827545,
        0.12445967644453049,
        -0.03022368624806404,
        0.100472092628479,
        0.03046600893139839,
        0.1634969860315323,
        0.09827671200037003,
        -0.005990549921989441,
        -0.10743217170238495,
        -0.0002598439750727266,
        0.08664293587207794,
        0.05213343724608421,
        -0.020798416808247566,
        -0.042226310819387436,
        -0.07452404499053955,
        0.0985029935836792,
        -0.07034709304571152,
        0.16709642112255096,
        0.132905513048172,
        0.050702884793281555,
        0.14161306619644165,
        -0.06951319426298141,
        0.0808393806219101,
        0.18057382106781006,
        0.23275914788246155,
        -0.08193685859441757,
        -0.05438922718167305,
        -0.12611308693885803,
        -0.13872477412223816,
        0.0970434918999672,
        0.09748020768165588,
        -0.065638467669487,
        -0.016678594052791595,
        -0.17526622116565704,
        0.18104921281337738,
        -0.06322785466909409,
        0.008536643348634243,
        -0.008913280442357063,
        -0.10017522424459457,
        0.04900475591421127,
        0.22808486223220825,
        -0.06423991173505783,
        0.0432986281812191,
        -0.11613766103982925,
        -0.242609441280365,
        0.10569560527801514,
        -0.20174983143806458,
        -0.03740590065717697,
        0.009216181002557278,
        -0.0719880536198616,
        -0.19263212382793427,
        0.08367400616407394,
        0.1568065881729126,
        0.04991353303194046,
        -0.05965032801032066,
        0.01951737515628338,
        0.010245134122669697,
        0.07755687832832336,
        0.03891604393720627,
        -0.08205917477607727,
        -0.011044729501008987,
        -0.22313345968723297,
        0.0064407410100102425,
        -0.10789532214403152,
        -0.35631686449050903,
        0.19972588121891022,
        -0.12181321531534195,
        0.044170867651700974,
        -0.04146779701113701,
        -0.09311886876821518,
        0.09291680157184601,
        0.2190168797969818,
        -0.17379502952098846,
        0.02999958209693432,
        -0.013061434030532837,
        -0.027718601748347282,
        0.023127933964133263,
        0.15581956505775452,
        0.01424995344132185,
        -0.08157798647880554,
        0.0019487682729959488,
        0.003742148634046316,
        0.02821456268429756,
        -0.004352463874965906,
        -0.024026861414313316,
        -0.1506505012512207,
        -0.1632259488105774,
        0.1314520686864853,
        0.008682839572429657,
        -0.09475339949131012,
        0.014455370604991913,
        -0.12854892015457153,
        0.18798433244228363,
        0.00251951115205884,
        -0.18109659850597382,
        0.07749371230602264,
        0.1427861899137497,
        -0.009527210146188736,
        0.23893624544143677,
        0.13015995919704437,
        -0.026258939877152443,
        -0.22275912761688232,
        -0.18774761259555817,
        -0.307975709438324,
        0.08012187480926514,
        -0.03300131484866142,
        0.24914616346359253,
        0.11082974821329117,
        -0.044500868767499924,
        0.07646160572767258,
        0.06358762830495834,
        0.04724372550845146,
        0.22788383066654205,
        -0.07365386188030243,
        0.1111898124217987,
        -0.05545566976070404,
        0.07124407589435577,
        -0.008821330033242702,
        -0.02966878190636635,
        -0.2630922198295593,
        -0.10898013412952423,
        -0.00284114689566195,
        0.003180143190547824,
        -0.1165221557021141,
        0.284822553396225,
        0.011930723674595356,
        0.15952284634113312,
        -0.08662955462932587,
        0.052481040358543396,
        -0.11487260460853577,
        -0.12355861812829971,
        -0.08204259723424911,
        -0.05123705044388771,
        0.2717534005641937,
        0.038912296295166016,
        0.06593428552150726,
        0.02879885956645012,
        -0.05708921700716019,
        -0.07625813782215118,
        -0.060375019907951355,
        0.10458942502737045,
        -0.008061902597546577,
        0.3405853807926178,
        -0.07045847177505493,
        -0.1507049947977066,
        -0.107203409075737,
        0.10987908393144608,
        0.13939616084098816,
        -0.014269735664129257,
        -0.18924519419670105,
        0.1051984578371048,
        0.23933041095733643,
        0.00758761540055275,
        -0.11113236844539642,
        -0.19072449207305908,
        -0.05327170714735985,
        0.15617921948432922,
        -0.1646614819765091,
        0.24152398109436035,
        0.13175427913665771,
        -0.07090585678815842,
        0.07940509170293808,
        -0.10593127459287643,
        0.18107302486896515,
        0.015091996639966965,
        -0.08707742393016815,
        0.15171964466571808,
        0.03401672840118408,
        -0.10385938733816147,
        0.24384088814258575,
        -0.02879214845597744,
        0.18531018495559692,
        -0.1630345731973648,
        -0.026562124490737915,
        -0.15699394047260284,
        0.09747925400733948,
        -0.3275153636932373,
        0.09346374124288559,
        0.008340447209775448,
        0.0030294645112007856,
        -0.09610826522111893,
        -0.2860157787799835,
        -0.1453114151954651,
        -0.0007600403041578829,
        -0.22930225729942322,
        -0.06692720949649811,
        0.053198497742414474,
        -0.02276223711669445,
        0.20823490619659424,
        -0.21913231909275055,
        -0.08794210851192474,
        0.07674994319677353,
        0.09021337330341339,
        -0.07577746361494064,
        -0.1410079002380371,
        0.15364167094230652,
        -0.17523853480815887,
        0.015483804978430271,
        0.030901452526450157,
        0.10147619247436523,
        -0.03817063570022583,
        0.03686346113681793,
        0.024937527254223824,
        -0.17023633420467377,
        0.061114758253097534,
        -0.06200573220849037,
        -0.0006222681258805096,
        0.06052703037858009,
        -0.2594987154006958,
        0.06704992800951004,
        -0.05148373171687126,
        -0.09678465127944946,
        -0.09647201001644135,
        0.05082453042268753,
        0.13091754913330078,
        0.24481558799743652,
        0.14797362685203552,
        0.05665096640586853,
        -0.06246471032500267,
        0.09612977504730225,
        0.013959181495010853,
        -0.0026058657094836235,
        -0.15090516209602356,
        -0.0965212732553482,
        -0.004172091837972403,
        -0.015273199416697025,
        0.07193051278591156,
        0.09052994102239609,
        -0.02645115554332733,
        -0.18346500396728516,
        -0.13006171584129333,
        0.02255145087838173,
        0.12872019410133362,
        -0.034961264580488205,
        -0.1435888707637787,
        0.00528140040114522,
        -0.09660237282514572,
        0.09325863420963287,
        -0.29695600271224976,
        0.023224975913763046,
        -0.14146384596824646,
        -0.07436268031597137,
        0.05439287796616554,
        -0.0009027628693729639,
        -0.08589798957109451,
        0.07214260846376419,
        0.042134594172239304,
        0.11786144226789474,
        -0.2102978378534317,
        0.04926266893744469,
        -0.16538870334625244,
        -0.03079237788915634,
        -0.011476526036858559,
        -0.09136748313903809,
        0.015090879052877426,
        -0.011937635019421577,
        -0.24714849889278412,
        -0.008110017515718937,
        0.14672698080539703,
        0.00210141041316092,
        -0.03621450811624527,
        -0.05769779533147812,
        0.13371093571186066,
        0.29807567596435547,
        0.24092896282672882,
        0.03843660280108452,
        0.08251556009054184,
        -0.19064471125602722,
        -0.1705196499824524,
        -0.1271851807832718,
        0.1111428439617157,
        -0.1326008290052414,
        -0.1354166716337204,
        -0.010359194129705429,
        0.039928436279296875,
        -0.06936449557542801,
        0.032012443989515305,
        0.005517021752893925,
        -0.2653460204601288,
        -0.14307604730129242,
        0.1380503922700882,
        0.07862262427806854,
        0.02690819464623928,
        -0.005227792542427778,
        0.04927521198987961,
        -0.10887689888477325,
        -0.5445719361305237,
        0.04367842897772789,
        0.05602620914578438,
        0.011672784574329853,
        -0.007932252250611782,
        0.226790651679039,
        -0.0927974283695221,
        -0.021109232679009438,
        0.012548818252980709,
        -0.07759999483823776,
        0.2861558198928833,
        0.0728701800107956,
        -0.006650561932474375,
        0.03614991530776024,
        0.07699078321456909,
        -0.12913180887699127,
        0.12517806887626648,
        -0.03858153149485588,
        -0.17464648187160492,
        -0.07002972811460495,
        -0.2692166566848755,
        0.21112269163131714,
        -0.028365125879645348,
        -0.09480735659599304,
        0.07657754421234131,
        -0.208953857421875,
        -0.21530774235725403,
        0.20789411664009094,
        -0.08504816144704819,
        0.2760378420352936,
        0.05758897587656975,
        -0.03955718129873276,
        -0.026020139455795288,
        0.016123803332448006,
        0.13482952117919922,
        0.23431280255317688,
        -0.1306166797876358,
        0.06989762932062149,
        -0.2429456114768982,
        -0.19335469603538513,
        0.18157106637954712,
        -0.032802823930978775,
        -0.04459802433848381,
        0.056471776217222214,
        -0.05523522198200226,
        -0.18332694470882416,
        0.2005721479654312,
        0.025943124666810036,
        0.11328727006912231,
        -0.01670021563768387,
        0.017558347433805466,
        0.008692217990756035,
        -0.006708753760904074,
        -0.1414746791124344,
        -0.019520210102200508,
        0.07773049175739288,
        0.0441092811524868,
        0.2116980254650116,
        -0.044413499534130096,
        -0.04999087005853653,
        -0.0526791587471962,
        -0.09584859013557434,
        -0.06809771806001663,
        -0.004344466608017683,
        -0.005462298635393381,
        0.02009831741452217,
        0.09265293180942535,
        -0.1431933045387268,
        0.28109726309776306,
        -0.1273675262928009,
        -0.01811579242348671,
        0.10818847268819809,
        0.09046807885169983,
        0.17798148095607758,
        0.251142293214798,
        -0.06957940757274628,
        0.10725581645965576,
        -0.24550896883010864,
        -0.02442356012761593,
        0.026635196059942245,
        -0.03409234806895256,
        0.022716332226991653,
        0.031043285503983498,
        -0.16944889724254608,
        0.07856722176074982,
        0.0700317844748497,
        0.12577851116657257,
        0.07101086527109146,
        -0.19907714426517487,
        -0.11066024750471115,
        0.053467102348804474,
        0.05810587480664253,
        0.15643200278282166,
        -0.001211012015119195,
        -0.0900682732462883,
        0.0023294200655072927,
        -0.35735777020454407,
        -0.07817915081977844,
        -0.03227529674768448,
        -0.0213554035872221,
        -0.13508130609989166,
        -0.10674221068620682,
        -0.13831168413162231,
        0.019589772447943687,
        0.2066323161125183,
        -0.10881181806325912,
        -0.13749860227108002,
        0.039928335696458817,
        0.0490112267434597,
        -0.025750497356057167,
        -0.05394124984741211,
        0.062104981392621994,
        0.010733511298894882,
        0.123661570250988,
        0.10590893030166626,
        0.2468806654214859,
        0.1461777538061142,
        0.004342937842011452,
        -0.030300671234726906,
        0.06638401746749878,
        0.03564847260713577,
        -0.04325516149401665,
        0.0768243819475174,
        -0.17522534728050232,
        0.026403307914733887,
        -0.24181988835334778,
        0.021179767325520515,
        -0.03786618262529373,
        -0.05954365432262421,
        0.1351534128189087,
        0.003579823300242424,
        0.04626349359750748,
        0.1230020672082901,
        0.0021535104606300592,
        0.20295049250125885,
        0.1489986926317215,
        0.043199338018894196,
        -0.016836341470479965,
        0.07100304961204529,
        -0.10559515655040741,
        -0.02827833592891693,
        -0.04099570959806442,
        -0.16898271441459656,
        -0.08690746128559113,
        -0.02278127521276474,
        0.08106766641139984,
        0.021733734756708145,
        0.04393923655152321,
        -0.03342293202877045,
        -0.01196031179279089,
        -0.30661484599113464,
        0.09388074278831482,
        0.055328257381916046,
        0.28367945551872253,
        -0.06813785433769226,
        0.11217742413282394,
        -0.0454961396753788,
        0.06893116235733032,
        -0.018726009875535965,
        -0.0731465071439743,
        -0.004247228614985943,
        -0.042547501623630524,
        0.06845443695783615,
        -0.23789967596530914,
        0.1678227335214615,
        -0.05385058745741844,
        0.009233595803380013,
        0.12264880537986755,
        -0.16782894730567932,
        -0.0879034698009491,
        0.22348666191101074,
        -0.08477416634559631,
        -0.037218283861875534,
        -0.34355196356773376,
        -0.13828976452350616,
        -0.16364166140556335,
        0.269417405128479,
        0.07501458376646042,
        0.20422975718975067,
        -0.24209913611412048,
        -0.0626790001988411,
        0.09460766613483429,
        0.07447349280118942,
        0.21826423704624176,
        -0.03415760397911072,
        -0.29015684127807617,
        0.011589089408516884,
        0.009422541595995426,
        0.1524391919374466,
        0.00471613509580493,
        -0.0804005116224289,
        -0.0647459551692009,
        -0.1850416362285614,
        -0.08709405362606049,
        0.02761477418243885,
        0.020739516243338585,
        0.12325140833854675,
        0.09022939205169678,
        -0.02620578370988369,
        0.09062778949737549,
        -0.048830918967723846,
        0.059919554740190506,
        0.11888481676578522,
        0.1516048163175583,
        -0.022636091336607933,
        -0.055539943277835846,
        -0.009067615494132042,
        0.07678356766700745,
        0.1013215035200119,
        0.0678061917424202,
        0.066057488322258,
        -0.06317560374736786,
        -0.2882133722305298,
        0.10903608053922653,
        0.22586332261562347,
        -0.394944429397583,
        0.10658639669418335,
        -0.5636870861053467,
        -0.2612832486629486,
        -0.26710596680641174,
        0.6488642692565918,
        -0.6953237652778625,
        -0.5514540672302246,
        -0.7944197058677673,
        0.243168905377388,
        -0.6535652279853821,
        0.2198789417743683,
        -0.5050550699234009,
        -0.07569095492362976,
        -0.1613755226135254,
        -0.007909064181149006,
        0.22464902698993683,
        0.11066430062055588,
        0.021868309006094933,
        -0.1317073106765747,
        -0.04348983243107796,
        -0.14309294521808624,
        -0.14023613929748535,
        0.21632878482341766,
        0.10117090493440628,
        0.14755624532699585,
        0.07277631759643555,
        -0.08129412680864334,
        -0.007921993732452393,
        0.2076108306646347,
        0.08831422030925751,
        -0.2325693964958191,
        -0.13291189074516296,
        -0.2703015208244324,
        0.1848900020122528,
        -0.1437416672706604,
        -0.05195857211947441,
        0.061132241040468216,
        -0.06776208430528641,
        0.09980399161577225,
        0.12028598040342331,
        0.06832978874444962,
        0.04219989851117134,
        0.19758105278015137,
        0.007860038429498672,
        -0.1750572919845581,
        -0.18257446587085724,
        0.11117445677518845,
        0.18527479469776154,
        -0.006158990785479546,
        -0.00737389363348484,
        -0.0352787971496582,
        -0.05470997095108032,
        0.1424807608127594,
        -0.02283584512770176,
        -0.24964387714862823,
        -0.22682958841323853,
        0.045359935611486435,
        0.049744557589292526,
        0.1266343742609024,
        -0.015480165369808674,
        0.11677346378564835,
        0.16087497770786285,
        -0.05013806372880936,
        -0.1787123829126358,
        -0.03844696283340454,
        -0.012226121500134468,
        -0.06258382648229599,
        -0.03376822918653488,
        -0.04295146465301514,
        0.058739759027957916,
        0.028471652418375015,
        0.3519349992275238,
        0.025543082505464554,
        -0.0232471264898777,
        0.046226199716329575,
        0.046815648674964905,
        0.30202096700668335,
        0.04471828043460846,
        -0.26753517985343933,
        -0.1343802809715271,
        0.11540096998214722,
        -0.00793362408876419,
        -0.09458906203508377,
        0.2646477222442627,
        0.14938747882843018,
        -0.14544272422790527,
        -0.1440259963274002,
        0.16741709411144257,
        -0.023228144273161888,
        -0.10214999318122864,
        -0.017513304948806763,
        -0.20469392836093903,
        -0.1338879019021988,
        -0.06746207922697067,
        -0.34519898891448975,
        -0.03055671975016594,
        0.07093748450279236,
        -0.27665627002716064,
        -0.07334434986114502,
        -0.0016724640736356378,
        0.0188435185700655,
        0.18767735362052917,
        -0.016369197517633438,
        -0.024194950237870216,
        -0.18219657242298126,
        -0.09273599088191986,
        0.12264727056026459,
        -0.016109852120280266,
        -0.029892414808273315,
        -0.13026946783065796,
        0.29456689953804016,
        -0.2509205639362335,
        0.12270483374595642,
        0.035852547734975815,
        -0.1451081782579422,
        -0.1935446858406067,
        0.18234975636005402,
        0.011118557304143906,
        -0.13837206363677979,
        0.172205850481987,
        -0.05096137523651123,
        0.0391378290951252,
        -0.08541455119848251,
        0.26384103298187256,
        0.016249634325504303,
        0.01027099508792162,
        -0.11676129698753357,
        0.13718894124031067,
        -0.007187466137111187,
        -0.10741235315799713,
        -0.11812739074230194,
        0.055978477001190186,
        0.0047484817914664745,
        0.1257263869047165,
        -0.19395340979099274,
        0.012432551011443138,
        -0.053445205092430115,
        -0.03683333843946457,
        0.14264287054538727,
        -0.00631518941372633,
        -0.08978964388370514,
        0.045191287994384766,
        -0.1311037391424179,
        -0.06439977884292603,
        -0.06898907572031021,
        -0.11362017691135406,
        0.07191833108663559,
        -0.16494843363761902,
        0.02244720794260502,
        -0.00417520385235548,
        0.2178718000650406,
        0.12486759573221207,
        -0.14653505384922028,
        0.21204839646816254,
        0.02353351190686226,
        0.31483158469200134,
        -0.0960015133023262,
        -0.01122790202498436,
        -0.1203605905175209,
        0.1148080825805664,
        0.10564935207366943,
        -0.15264174342155457,
        0.05307049676775932,
        0.020289547741413116,
        -0.0943017229437828,
        -0.03940638527274132,
        0.17508967220783234,
        0.20745626091957092,
        0.19824643433094025,
        -0.03478320315480232,
        0.022502370178699493,
        -0.1296701431274414,
        -0.06215262413024902,
        -0.12211041152477264,
        0.01598096638917923,
        0.1451091468334198,
        0.10712059587240219,
        0.0073615554720163345,
        -0.04678988456726074,
        -0.05205051228404045,
        0.19640812277793884,
        0.2775334417819977,
        -0.2452847957611084,
        0.07145807892084122,
        0.1193985864520073,
        0.062263116240501404,
        -0.11393197625875473,
        0.08869859576225281,
        0.17872077226638794,
        0.24772506952285767,
        -0.30898958444595337,
        -0.09075577557086945,
        -0.18163545429706573,
        0.05281165987253189,
        0.09380487352609634,
        0.2313460111618042,
        -0.25727158784866333,
        0.25121572613716125,
        0.17657771706581116,
        -0.06429000943899155,
        -0.03545248508453369,
        -0.06818422675132751,
        -0.0009231179719790816,
        -0.16765832901000977,
        -0.18996773660182953,
        -0.27207180857658386,
        -0.054345037788152695,
        0.2633790075778961,
        0.07351520657539368,
        0.04997818544507027,
        -0.16383548080921173,
        -0.010947907343506813,
        -0.005614745430648327,
        -0.0770726278424263,
        -0.30094027519226074,
        -0.2894701659679413,
        0.2558882236480713,
        -0.22750163078308105,
        0.23660096526145935,
        0.04447527229785919,
        0.16238434612751007,
        0.05265749245882034,
        -0.08600857853889465,
        0.25499773025512695,
        -0.17710527777671814,
        0.03244534134864807,
        0.0468987375497818,
        0.004917972721159458,
        0.09412100166082382,
        0.2632806897163391,
        0.054510779678821564,
        -0.010478191077709198,
        0.14724867045879364,
        0.18455925583839417,
        0.0010885709198191762,
        -0.027832284569740295,
        -0.015750927850604057,
        0.3279574513435364,
        0.00014704480418004096,
        -0.13383319973945618,
        -0.05061072111129761,
        -0.19165778160095215,
        0.20516014099121094,
        0.05008842423558235,
        -0.034649983048439026,
        0.11763893812894821,
        -0.16501355171203613,
        0.19283950328826904,
        -0.28263598680496216,
        0.20921985805034637,
        0.1669301986694336,
        0.10319291800260544,
        0.17760777473449707,
        -0.21101820468902588,
        -0.03623757138848305,
        0.04290978983044624,
        -0.0941140279173851,
        0.15131811797618866,
        -0.08764998614788055,
        0.18051712214946747,
        0.13547393679618835,
        -0.09552185982465744,
        0.15341030061244965,
        0.2373965084552765,
        -0.27533063292503357,
        0.2882002592086792,
        -0.23161500692367554,
        -0.14043109118938446,
        -0.10343672335147858,
        -0.0011250943643972278,
        -0.005623024422675371,
        -0.01491154171526432,
        -0.10599996149539948,
        -0.0013815938727930188,
        0.07213961333036423,
        0.16939784586429596,
        0.1282445192337036,
        0.028899071738123894,
        0.03204822167754173,
        -0.1416536420583725,
        0.043004151433706284,
        -0.2154848724603653,
        -0.1279193013906479,
        -0.047149907797575,
        0.09535247087478638,
        -0.0201732125133276,
        0.006038924679160118,
        -0.055532414466142654,
        -0.2311811000108719,
        -0.21105685830116272,
        0.05226751044392586,
        -0.04872304946184158,
        0.044208817183971405,
        -0.13329561054706573,
        -0.11582984775304794,
        -0.13624028861522675,
        0.014512165449559689,
        -0.05632200837135315,
        -0.1647523045539856,
        0.10838404297828674,
        0.11489713937044144,
        -0.035735875368118286,
        0.03251762315630913,
        0.0252500232309103,
        0.14308777451515198,
        0.2419378012418747,
        0.028743337839841843,
        -0.2002817988395691,
        -0.15563935041427612,
        0.14285100996494293,
        -0.08406238257884979,
        0.1360446959733963,
        -0.012474105693399906,
        -0.08975670486688614,
        -0.21987512707710266,
        0.06461498141288757,
        -0.028271427378058434,
        -0.22768735885620117,
        -0.005574218463152647,
        -0.11291013658046722,
        -0.16609005630016327,
        -0.04578077420592308,
        0.11841527372598648,
        -0.19927021861076355,
        0.1469077616930008,
        -0.07837281376123428,
        0.14373667538166046,
        0.04426046833395958,
        -0.28934982419013977,
        0.00915554165840149,
        -0.13498404622077942,
        -0.13961191475391388,
        -0.0878332182765007,
        -0.08004970848560333,
        -0.020418697968125343,
        -0.013398252427577972,
        0.06507629156112671,
        0.08155947923660278,
        0.10263100266456604,
        0.2241211086511612,
        0.1489463597536087,
        -0.026167787611484528,
        -0.23351754248142242,
        -0.10151495039463043,
        0.14875337481498718,
        -0.10978689044713974,
        0.07306084036827087,
        0.03749213367700577,
        0.047332752496004105,
        -0.14875897765159607,
        0.08861631900072098,
        -0.030924897640943527,
        0.09140480309724808,
        -0.07452961057424545,
        0.1949007213115692,
        0.008288216777145863,
        0.04054246097803116,
        -0.2204897403717041,
        -0.2421639859676361,
        0.09895597398281097,
        0.2551596760749817,
        0.03464476391673088,
        0.290434867143631,
        0.002613868098706007,
        0.08548533916473389,
        -0.014818765223026276,
        -0.26720669865608215,
        -0.015824444591999054,
        0.0017847296549007297,
        -0.06452000141143799,
        -0.06527428328990936,
        0.10881773382425308,
        -0.131779745221138,
        -0.07093832641839981,
        -0.09159478545188904,
        -0.026300828903913498,
        0.031115714460611343,
        0.2926587760448456,
        -0.1506197452545166,
        -0.04289482533931732,
        0.14274540543556213,
        -0.0006105040083639324,
        0.016803639009594917,
        0.15604440867900848,
        -0.1166357770562172,
        -0.18610011041164398,
        0.17647655308246613,
        0.054946694523096085,
        0.033021990209817886,
        -0.12288685142993927,
        -0.02560579776763916,
        0.17035198211669922,
        -0.0911899134516716,
        -0.19887791574001312,
        0.10329609364271164,
        0.044480402022600174,
        0.13905645906925201,
        0.011662083677947521,
        -0.020075133070349693,
        0.14868293702602386,
        -0.09415068477392197,
        -0.16673806309700012,
        0.18897296488285065,
        -0.06911719590425491,
        0.053544510155916214,
        0.1427728235721588,
        0.209390789270401,
        -0.16069462895393372,
        0.1663733422756195,
        -0.12157764285802841,
        0.006589396856725216,
        -0.046292562037706375,
        0.046608854085206985,
        -0.011092733591794968,
        -0.09089688211679459,
        0.11181899905204773,
        0.3153298497200012,
        -0.07451926916837692,
        0.1527397334575653,
        0.1580522209405899,
        -0.07859063893556595,
        0.0845208466053009,
        -0.11038074642419815,
        0.17691344022750854,
        0.07168276607990265,
        -0.25417831540107727,
        0.16728639602661133,
        0.19772860407829285,
        -0.08754023164510727,
        -0.09035784751176834,
        0.14258790016174316,
        -0.04830857738852501,
        0.09286145865917206,
        0.09842614084482193,
        0.05119757726788521,
        0.21359673142433167,
        -0.09095753729343414,
        0.1421477496623993,
        -0.07239196449518204,
        -0.010767064057290554,
        0.030987683683633804,
        -0.049785882234573364,
        0.06265419721603394,
        -0.00872531533241272,
        -0.04945913329720497,
        0.013362633064389229,
        0.0799131840467453,
        0.030400751158595085,
        -0.19863377511501312,
        -0.14046534895896912,
        0.23560723662376404,
        0.039470333606004715,
        0.03729991987347603,
        -0.019251229241490364,
        0.15210536122322083,
        -0.1950947642326355,
        0.008824726566672325,
        -0.23986756801605225,
        0.14320936799049377,
        -0.056368790566921234,
        0.13417869806289673,
        0.19617226719856262,
        -0.15008220076560974,
        0.028666634112596512,
        0.23066717386245728,
        -0.1725507378578186,
        0.06533405929803848,
        0.3211841583251953,
        -0.0987798199057579,
        0.22247055172920227,
        -0.1209632009267807,
        -0.029337892308831215,
        0.06797527521848679,
        -0.006135944277048111,
        0.08330123871564865,
        0.05226284638047218,
        0.10205596685409546,
        -0.17324241995811462,
        -0.020311394706368446,
        -0.10971982032060623,
        0.1327754110097885,
        0.12769800424575806,
        0.09840324521064758,
        -0.06659511476755142,
        -0.17352710664272308,
        -0.023562204092741013,
        0.2381642460823059,
        -0.16456466913223267,
        -0.08939330279827118,
        0.1063716784119606,
        -0.03355970233678818,
        0.043539661914110184,
        0.11510492116212845,
        0.12000715732574463,
        -0.06297698616981506,
        -0.17931492626667023,
        0.03981194272637367,
        0.031879033893346786,
        -0.26441729068756104,
        0.14678631722927094,
        -0.1052255928516388,
        -0.10923433303833008,
        0.025839850306510925,
        0.14518581330776215,
        0.005414486397057772,
        0.1371174454689026,
        -0.22513090074062347,
        -0.04015538841485977,
        -0.1313244104385376,
        -0.10233864188194275,
        0.23414593935012817,
        -0.07648050785064697,
        -0.1655421406030655,
        0.16591876745224,
        -0.1309695541858673,
        -0.24297326803207397,
        0.0009299855446442962,
        0.06385064870119095,
        0.028999419882893562,
        -0.19944262504577637,
        0.12395293265581131,
        -0.0636497288942337,
        -0.05430320277810097,
        -0.01998502016067505,
        0.05621366947889328,
        -0.00025480124168097973,
        -0.20042501389980316,
        0.19936363399028778,
        -0.14967723190784454,
        0.0008908027084544301,
        -0.10794271528720856,
        0.030134446918964386,
        -0.007825958542525768,
        0.011760300025343895,
        -0.19659145176410675,
        0.14226576685905457,
        0.04159678518772125,
        -0.033810004591941833,
        0.11552990227937698,
        -0.1375923454761505,
        -0.0916808471083641,
        0.06987585872411728,
        -0.11914138495922089,
        0.17575280368328094,
        0.15082240104675293,
        -0.16925346851348877,
        0.12562215328216553,
        0.05963396281003952,
        0.106259785592556,
        -0.024967923760414124,
        -0.09004423022270203,
        -0.1565445363521576,
        0.1315673291683197,
        -0.09345174580812454,
        0.12262213975191116,
        -0.09347084164619446,
        0.18067729473114014,
        0.08167780190706253,
        -0.06447973847389221,
        0.007934318855404854,
        0.18022215366363525,
        -0.22715266048908234,
        -0.015903007239103317,
        0.05649612843990326,
        -0.07017180323600769,
        0.15641257166862488,
        -0.0066748978570103645,
        0.10719741880893707,
        -0.042008765041828156,
        0.22896072268486023,
        0.032193947583436966,
        0.027417052537202835,
        -0.05966790392994881,
        -0.09149645268917084,
        0.05953218787908554,
        0.17996123433113098,
        -0.11115455627441406,
        -0.07884140312671661,
        0.10546094179153442,
        -0.024174878373742104,
        -0.05135902017354965,
        -0.05946936458349228,
        0.10372356325387955,
        -0.035993609577417374,
        -0.048487789928913116,
        -0.09429028630256653,
        -0.04392889514565468,
        -0.1183154433965683,
        0.1202862337231636,
        0.035309046506881714,
        0.01994466595351696,
        0.07077669352293015,
        0.08593802899122238,
        0.06863859295845032,
        0.16868829727172852,
        -0.1309531033039093,
        -0.1706833392381668,
        -0.037930168211460114,
        0.02158781699836254,
        -0.2099500596523285,
        0.1964605301618576,
        -0.08344512432813644,
        -0.07837392389774323,
        -0.0480351522564888,
        -0.0788409560918808,
        -0.0437345877289772,
        -0.13147301971912384,
        -0.17574913799762726,
        -0.026411110535264015,
        -0.17008493840694427,
        0.1834433525800705,
        0.009348023682832718,
        -0.15658961236476898,
        -0.0882193073630333,
        -0.4240168035030365,
        0.16515344381332397,
        -0.1092476099729538,
        -0.17847922444343567,
        -0.09434063732624054,
        -0.244503453373909,
        -0.09274929761886597,
        0.1449902355670929,
        -0.16460229456424713,
        0.19474542140960693,
        0.07438976317644119,
        0.21068400144577026,
        -0.07984429597854614,
        0.23391689360141754,
        0.013647353276610374,
        -0.12585745751857758,
        -0.09723655879497528,
        0.057273633778095245,
        0.004203908145427704,
        0.051783762872219086,
        0.06682594120502472,
        0.027441496029496193,
        0.07223628461360931,
        -0.000602853309828788,
        -0.14417918026447296,
        0.07670135051012039,
        0.020493440330028534,
        -0.13931789994239807,
        0.28397834300994873,
        0.06244340538978577,
        -0.058197200298309326,
        0.046334221959114075,
        -0.03757339343428612,
        -0.1927727460861206,
        0.1300426423549652,
        -0.11601541191339493,
        0.15392093360424042,
        -0.24072037637233734,
        -0.00790564063936472,
        0.10760149359703064,
        -0.13150325417518616,
        -0.12456171959638596,
        0.17439235746860504,
        -0.046980809420347214,
        0.08502571284770966,
        0.010205158032476902,
        -0.10845711082220078,
        0.02865082584321499,
        0.015878120437264442,
        -0.012037911452353,
        0.09509371966123581,
        0.02226812019944191,
        -0.1313726305961609,
        0.05151016637682915,
        -0.1534425914287567,
        -0.15496402978897095,
        0.007756139151751995,
        0.04840044304728508,
        0.015950987115502357,
        -0.02520010806620121,
        -0.0073425970040261745,
        -0.06186468154191971,
        -0.14605650305747986,
        0.034219175577163696,
        0.31555497646331787,
        0.0826692059636116,
        -0.02845154143869877,
        0.07476195693016052,
        -0.0553109347820282,
        -0.10244804620742798,
        -0.10608028620481491,
        -0.02936425432562828,
        0.0683322623372078,
        -0.14296618103981018,
        -0.025535516440868378,
        0.01856052689254284,
        -0.3488944470882416,
        0.050639405846595764,
        0.09782703220844269,
        0.0976429209113121,
        0.16156725585460663,
        -0.044797591865062714,
        -0.04473130404949188,
        0.15530365705490112,
        0.06139691174030304,
        0.07599170506000519,
        -0.23846638202667236,
        0.07426859438419342,
        0.3091720640659332,
        -0.07954603433609009,
        -0.15106065571308136,
        0.2912919819355011,
        -0.09044144302606583,
        0.05460786074399948,
        0.12612739205360413,
        0.05695531889796257,
        0.2317173033952713,
        0.1423763632774353,
        0.08520112186670303,
        0.05830942094326019,
        0.1484336256980896,
        0.10039950907230377,
        0.02837592549622059,
        -0.026878878474235535,
        -0.16904301941394806,
        0.07486700266599655,
        0.019786398857831955,
        0.16283835470676422,
        0.19919036328792572,
        0.02419442869722843,
        0.07244423776865005,
        -0.1182149201631546,
        -0.06548409909009933,
        -0.21160882711410522,
        -0.07262210547924042,
        -0.0687573254108429,
        0.004927743226289749,
        -0.009041649289429188,
        0.13072989881038666,
        0.06890732049942017,
        -0.02616078034043312,
        0.0532066784799099,
        -0.05445801094174385,
        0.1813744604587555,
        -0.06051507592201233,
        -0.020392276346683502,
        -0.23126530647277832,
        -0.15478816628456116,
        -0.07056326419115067,
        0.12649689614772797,
        -0.053600162267684937,
        0.11992224305868149,
        -0.007742923218756914,
        -0.01771254651248455,
        -0.19310370087623596,
        -0.19978901743888855,
        0.09381883591413498,
        -0.1605760008096695,
        0.006431804038584232,
        -0.05650034546852112,
        -0.08471683412790298,
        -0.08044199645519257,
        -0.2145884782075882,
        -0.1720258742570877,
        -0.20764116942882538,
        0.17036864161491394,
        -0.16651391983032227,
        -0.15353964269161224,
        -0.04033639281988144,
        -0.13649186491966248,
        0.10289175063371658,
        0.02122694067656994,
        0.23207561671733856,
        0.006857631728053093,
        0.04455528035759926,
        -0.0035866829566657543,
        0.06712350994348526,
        0.17862407863140106,
        0.14087313413619995,
        -0.0023970811162143946,
        -0.07271397113800049,
        0.29534080624580383,
        0.09263114631175995,
        -0.23085430264472961,
        0.10754936188459396,
        0.04672008007764816,
        0.03494693338871002,
        -0.16641275584697723,
        0.05354313179850578,
        0.21744324266910553,
        -0.31991949677467346,
        0.05458342283964157,
        0.24385620653629303,
        -0.19381670653820038,
        -0.031204255297780037,
        -0.017818991094827652,
        0.17958149313926697,
        -0.07086168229579926,
        0.03798194229602814,
        -0.08605919033288956,
        0.13034687936306,
        -0.03230233117938042,
        0.2674240171909332,
        0.028656790032982826,
        -0.30108198523521423,
        0.22077122330665588,
        0.1838291734457016,
        -0.0365828275680542,
        0.1621471643447876,
        0.13569508492946625,
        -0.21761609613895416,
        0.054404813796281815,
        -0.23736189305782318,
        0.06717784702777863,
        -0.18307405710220337,
        -0.0769813135266304,
        -0.23932218551635742,
        -0.059089209884405136,
        0.08972939848899841,
        -0.02881130389869213,
        0.1609816998243332,
        0.004320792853832245,
        -0.22783848643302917,
        -0.0011379888746887445,
        0.170710027217865,
        0.15145522356033325,
        0.1480930894613266,
        -0.11232581734657288,
        -0.03594949468970299,
        0.1404084861278534,
        0.027018586173653603,
        -0.1447729468345642,
        0.02360164187848568,
        -0.10515139251947403,
        0.00898110680282116,
        -0.02987605892121792,
        -0.018036575987935066,
        0.26555556058883667,
        0.06105935946106911,
        0.060602810233831406,
        0.11952085793018341,
        -0.2340826839208603,
        -0.13802571594715118,
        0.07883705943822861,
        -0.033101849257946014,
        -0.2563720643520355,
        0.07620760053396225,
        -0.17888331413269043,
        0.04631548002362251,
        -0.2710171043872833,
        0.006745009683072567,
        0.07681089639663696,
        -0.2781860828399658,
        0.11583741009235382,
        0.19866064190864563,
        -0.09224368631839752,
        0.1161782443523407,
        0.08787257224321365,
        -0.17468872666358948,
        0.17948207259178162,
        -0.18017469346523285,
        0.14853185415267944,
        0.23362381756305695,
        -0.17730700969696045,
        -0.012600339017808437,
        -0.13837862014770508,
        0.04418658837676048,
        -0.10970134288072586,
        0.252299040555954,
        -0.0896216556429863,
        0.11367052048444748,
        -0.14040543138980865,
        -0.024014800786972046,
        -0.3434202969074249,
        -0.012337406165897846,
        -0.016411611810326576,
        0.13515806198120117,
        -0.03011886402964592,
        0.09369470179080963,
        0.18612276017665863,
        0.06141035631299019,
        0.013014009222388268,
        0.001586124999448657,
        0.022828003391623497,
        -0.12256892025470734,
        0.010105103254318237,
        -0.1321447640657425,
        0.16189810633659363,
        -0.33915841579437256,
        0.00018454976088833064,
        0.035561252385377884,
        -0.02363205887377262,
        0.07341167330741882,
        0.0594574399292469,
        -0.05380575358867645,
        0.03949563950300217,
        -0.07416360080242157,
        0.2016369104385376,
        -0.07949858158826828,
        -0.031429924070835114,
        0.15925633907318115,
        0.09950487315654755,
        -0.23527489602565765,
        0.15108855068683624,
        -0.12440497428178787,
        -0.0595732219517231,
        0.11969256401062012,
        -0.022368835285305977,
        0.07839599251747131,
        0.07246483117341995,
        -0.16825325787067413,
        0.10535154491662979,
        0.0894932970404625,
        0.08710969984531403,
        0.098309725522995,
        0.009957782924175262,
        -0.012277903035283089,
        0.17975656688213348,
        -0.1920468807220459,
        0.05105331540107727,
        0.15702876448631287,
        0.11606591194868088,
        -0.07177702337503433,
        -0.13370315730571747,
        -0.1625116765499115,
        0.082013800740242,
        -0.1426161825656891,
        -0.02524304948747158,
        0.08901533484458923,
        0.008296829648315907,
        0.05519229546189308,
        -0.04687483236193657,
        0.014092760160565376,
        0.09775999188423157,
        0.10591839998960495,
        0.045588668435811996,
        0.2452874481678009,
        -0.0465376041829586,
        -0.0741882175207138,
        0.00496228551492095,
        -0.12267006933689117,
        -0.055740512907505035,
        0.009138911962509155,
        0.08698082715272903,
        0.09570840001106262,
        -0.08671186119318008,
        -0.03598035126924515,
        -0.0700557604432106,
        -0.1839214414358139,
        -0.09548747539520264,
        0.047510262578725815,
        -0.06745095551013947,
        0.023699624463915825,
        0.14273348450660706,
        -0.048062313348054886,
        -0.1699243187904358,
        -0.26614755392074585,
        0.09195095300674438,
        -0.13690203428268433,
        -0.19582770764827728,
        -0.0773484855890274,
        -0.13660939037799835,
        0.006490697152912617,
        0.13647662103176117,
        0.21483440697193146,
        -0.002516923937946558,
        0.09761375188827515,
        -0.11168988794088364,
        -0.15055513381958008,
        -0.036333829164505005,
        0.2216249257326126,
        -0.1166624203324318,
        -0.09898261725902557,
        0.09010551124811172,
        -0.055534571409225464,
        -0.060370028018951416,
        -0.19660744071006775,
        0.11570660769939423,
        -0.0345587320625782,
        -0.2006436437368393,
        -0.13867756724357605,
        0.018755272030830383,
        -0.13613246381282806,
        0.08552336692810059,
        -0.08875907957553864,
        -0.143305703997612,
        0.17314413189888,
        -0.16248315572738647,
        0.07367605715990067,
        0.21009370684623718,
        -0.00806716550141573,
        -0.06554168462753296,
        -0.11674398183822632,
        0.12118688225746155,
        0.2427939772605896,
        -0.011732333339750767,
        0.11284239590167999,
        -0.12978868186473846,
        -0.26910021901130676,
        -0.048108190298080444,
        0.09659275412559509,
        -0.12566500902175903,
        -0.074289970099926,
        0.2098780870437622,
        0.06251777708530426,
        -0.23729537427425385,
        -0.18600447475910187,
        0.1352013498544693,
        0.08650769293308258,
        -0.2584805488586426,
        -0.03888918459415436,
        0.04301575571298599,
        0.01134280115365982,
        -0.05461515858769417,
        0.15258926153182983,
        0.22900786995887756,
        -0.06499253958463669,
        0.011210463009774685,
        0.09385674446821213,
        -0.0862378254532814,
        0.14256544411182404,
        -0.020784107968211174,
        0.10618764162063599,
        0.25538262724876404,
        0.08769438415765762,
        0.0708581730723381,
        -0.09730751812458038,
        -0.01048812735825777,
        0.08963914960622787,
        -0.06996705383062363,
        0.12303417921066284,
        0.017505649477243423,
        -0.10556970536708832,
        0.23743188381195068,
        -0.0060584633611142635,
        -0.07294845581054688,
        -0.18172599375247955,
        -0.06654693931341171,
        -0.1023247092962265,
        0.04400276765227318,
        -0.07547405362129211,
        -0.0666431337594986,
        -0.11751797050237656,
        -0.13438446819782257,
        0.20890526473522186,
        0.01425262726843357,
        -0.18643997609615326,
        0.24498356878757477,
        -0.24950185418128967,
        -0.07958640903234482,
        0.13870099186897278,
        -0.08474578708410263,
        0.23903734982013702,
        -0.172003835439682,
        0.022067224606871605,
        -0.03832848742604256,
        -0.1722467690706253,
        0.14547158777713776,
        0.040316760540008545,
        0.0414242260158062,
        0.04111938923597336,
        -0.01298525184392929,
        0.044765815138816833,
        0.030466217547655106,
        -0.07098914682865143,
        -0.011724883690476418,
        0.1111597865819931,
        -0.008489376865327358,
        0.08587648719549179,
        0.027235230430960655,
        -0.20812664926052094,
        -0.0162313561886549,
        -0.007383218966424465,
        0.018081732094287872,
        -0.17158235609531403,
        -0.4062008559703827,
        0.6159908175468445,
        0.21108216047286987,
        -0.2669065594673157,
        -0.08971471339464188,
        -0.11787036061286926,
        -0.06165514886379242,
        0.5056855082511902,
        -0.5318490862846375,
        0.7234010100364685,
        0.5101815462112427,
        0.15641118586063385,
        -0.2872573435306549,
        0.09530425816774368,
        -0.5159813761711121,
        0.30694904923439026,
        -0.10416272282600403,
        -0.12277691066265106,
        -0.3997061550617218,
        0.22783789038658142,
        0.059303056448698044,
        0.35074862837791443,
        0.10742273181676865,
        0.030014898627996445,
        0.27943655848503113,
        -0.03237443417310715,
        0.09861493855714798,
        -0.14579887688159943,
        0.18842503428459167,
        -0.1561824232339859,
        0.12260694056749344,
        0.41097527742385864,
        -0.19299057126045227,
        0.10946344584226608,
        -0.05487896129488945,
        0.05717094615101814,
        0.0884166732430458,
        0.1676805466413498,
        -0.253903329372406,
        -0.40653735399246216,
        0.16632287204265594,
        -0.021951377391815186,
        0.030868172645568848,
        0.13393829762935638,
        0.43194693326950073,
        0.16948051750659943,
        -0.2101379781961441,
        0.1643892079591751,
        -0.2691621780395508,
        0.16222593188285828,
        -0.2523391842842102,
        0.2711355686187744,
        -0.11365758627653122,
        0.08860001713037491,
        -0.3153829574584961,
        -0.05949626490473747,
        0.241041362285614,
        -0.127664715051651,
        0.24044735729694366,
        0.2140789031982422,
        -0.02666391059756279,
        -0.1350136548280716,
        0.05546277016401291,
        0.40537750720977783,
        0.022175008431077003,
        0.09287814795970917,
        0.028594620525836945,
        -0.13307331502437592,
        -0.03895293548703194,
        -0.1376773864030838,
        0.19414076209068298,
        0.21180734038352966,
        -0.0365043543279171,
        0.12918440997600555,
        0.2471480816602707,
        0.17527270317077637,
        0.0867663323879242,
        0.1380540430545807,
        -0.20195387303829193,
        0.02366679161787033,
        -0.14569202065467834,
        0.2655114233493805,
        -0.040725577622652054,
        0.04788422957062721,
        -0.11005460470914841,
        0.18245449662208557,
        -0.04912751168012619,
        0.22036251425743103,
        -0.08135607838630676,
        -0.11336113512516022,
        0.05210497975349426,
        -0.23650053143501282,
        -0.14147353172302246,
        0.06471021473407745,
        -0.27391600608825684,
        -0.1472669392824173,
        -0.10953450202941895,
        -0.05752916634082794,
        0.01503160409629345,
        -0.09642395377159119,
        -0.048892151564359665,
        0.22728870809078217,
        0.055467598140239716,
        -0.10994778573513031,
        -0.1700972020626068,
        -0.034581560641527176,
        0.056201618164777756,
        0.05565504729747772,
        0.02803555317223072,
        0.204962357878685,
        0.005044884514063597,
        0.08340270817279816,
        0.010540631599724293,
        -0.04026104509830475,
        0.058011118322610855,
        0.19146127998828888,
        -0.12675991654396057,
        0.09311559796333313,
        0.005796755198389292,
        -0.22825810313224792,
        0.09948834031820297,
        0.19886861741542816,
        -0.02132278122007847,
        0.16060781478881836,
        0.10760141164064407,
        0.21904213726520538,
        0.14562749862670898,
        0.16689686477184296,
        -0.07819167524576187,
        -0.21796874701976776,
        -0.2395470142364502,
        0.17794367671012878,
        -0.10651980340480804,
        0.02719305083155632,
        -0.15895166993141174,
        0.2210249900817871,
        0.021824419498443604,
        -0.040649160742759705,
        0.13848693668842316,
        0.1133882999420166,
        -0.006895239464938641,
        0.10782753676176071,
        0.005599754396826029,
        -0.20017848908901215,
        0.361973375082016,
        -0.2208566963672638,
        0.23589101433753967,
        0.17237579822540283,
        0.008054987527430058,
        -0.3019448220729828,
        0.13835497200489044,
        -0.21612519025802612,
        -0.09998265653848648,
        -0.1786874681711197,
        -0.011180909350514412,
        -0.24508501589298248,
        -0.08858321607112885,
        0.08271154761314392,
        0.22225157916545868,
        0.011718200519680977,
        -0.07062825560569763,
        -0.19579507410526276,
        0.20467522740364075,
        0.040784191340208054,
        0.18926364183425903,
        -0.1803099662065506,
        -0.04386674240231514,
        -0.2282966673374176,
        -0.09297214448451996,
        0.08647965639829636,
        -0.14816859364509583,
        -0.0909833237528801,
        0.015041313134133816,
        0.12271250784397125,
        -0.03955143317580223,
        0.37116143107414246,
        -0.13500480353832245,
        -0.23489709198474884,
        -0.2951621115207672,
        0.20174643397331238,
        -0.1849956214427948,
        0.08329720795154572,
        -0.10014748573303223,
        0.4266958236694336,
        0.06584658473730087,
        -0.3137216866016388,
        0.039589773863554,
        0.15621349215507507,
        -0.26425376534461975,
        0.12509512901306152,
        0.30051764845848083,
        0.2189360409975052,
        -0.0025127131957560778,
        -0.09647975862026215,
        0.01520631369203329,
        -0.07654758542776108,
        0.09752419590950012,
        0.2568729817867279,
        0.11453448981046677,
        -0.17226773500442505,
        -0.14616025984287262,
        -0.20460671186447144,
        0.1905553638935089,
        -0.248439222574234,
        -0.1841888278722763,
        -0.009078501723706722,
        0.12394286692142487,
        -0.2629238963127136,
        -0.04881282523274422,
        -0.11377154290676117,
        -0.004552747122943401,
        0.06570547074079514,
        0.02318659797310829,
        -0.18022415041923523,
        -0.22144362330436707,
        0.1173982322216034,
        -0.04071173444390297,
        -0.08993924409151077,
        0.05136256292462349,
        -0.02149256318807602,
        0.023821694776415825,
        0.04192317649722099,
        -0.16849425435066223,
        -0.06463392078876495,
        0.23099380731582642,
        -0.20091208815574646,
        -0.005806773900985718,
        0.0314156748354435,
        -0.23546111583709717,
        0.2748260796070099,
        -0.139744833111763,
        -0.06669320911169052,
        0.08192212879657745,
        0.13458627462387085,
        -0.19367457926273346,
        0.03225614130496979,
        0.14250345528125763,
        -0.09843157231807709,
        -0.008151765912771225,
        -0.08995335549116135,
        0.17114707827568054,
        0.10220120847225189,
        0.12645383179187775,
        -0.1506427377462387,
        -0.07001489400863647,
        0.14536318182945251,
        -0.11620527505874634,
        -0.045622777193784714,
        0.1528213769197464,
        0.18227382004261017,
        0.2821739912033081,
        -0.15768764913082123,
        0.17480748891830444,
        -0.02748686634004116,
        -0.2583847939968109,
        -0.10240011662244797,
        -0.09060968458652496,
        -0.017910607159137726,
        -0.13382454216480255,
        -0.2511303424835205,
        0.05537111684679985,
        -0.03430429846048355,
        -0.1635807305574417,
        -0.1281399428844452,
        0.04611720144748688,
        0.2000187486410141,
        0.16174472868442535,
        -0.22808270156383514,
        -0.05057472735643387,
        -0.08182579278945923,
        -0.09887021780014038,
        -0.019140901044011116,
        -0.00491006625816226,
        0.07436930388212204,
        0.07394210994243622,
        -0.03303486853837967,
        0.12258076667785645,
        0.03505801036953926,
        0.00027266782126389444,
        -0.1494724005460739,
        -0.08344318717718124,
        0.02945292927324772,
        0.026866691187024117,
        0.14644621312618256,
        0.07657133042812347,
        0.048224616795778275,
        -0.023031262680888176,
        -0.003494878066703677,
        -0.15672805905342102,
        0.10908442735671997,
        0.039101675152778625,
        -0.09789210557937622,
        0.08603231608867645,
        0.04051356390118599,
        -0.02709016762673855,
        0.04724498093128204,
        -0.159561887383461,
        0.028781527653336525,
        0.3095371425151825,
        0.036574605852365494,
        -0.14249195158481598,
        -0.06817734986543655,
        0.28815901279449463,
        0.029504792764782906,
        -0.0481116957962513,
        0.09847558289766312,
        -0.09155775606632233,
        -0.28725171089172363,
        -0.01008000411093235,
        -0.030754460021853447,
        -0.08276393264532089,
        -0.10922595113515854,
        -0.14871370792388916,
        0.32811176776885986,
        0.05525629222393036,
        -0.10088920593261719,
        -0.21947921812534332,
        -0.07636599987745285,
        0.0260643158107996,
        0.33931389451026917,
        0.0430670827627182,
        -0.20141197741031647,
        0.10599374026060104,
        -0.19648902118206024,
        0.2089613825082779,
        0.07106371968984604,
        -0.01567714288830757,
        -0.01403232291340828,
        0.1934944987297058,
        -0.05471253767609596,
        -0.24806347489356995,
        -0.19527798891067505,
        0.1435513198375702,
        -0.14315149188041687,
        -0.06012164428830147,
        -0.014132070355117321,
        0.2885582149028778,
        0.21155594289302826,
        0.03592758998274803,
        0.22790610790252686,
        0.20672786235809326,
        0.0811212807893753,
        -0.14077211916446686,
        0.1519457846879959,
        -0.08378332108259201,
        0.16827429831027985,
        0.07283823192119598,
        0.02658599428832531,
        0.0055761937983334064,
        0.2861335575580597,
        -0.13797742128372192,
        0.0189247764647007,
        -0.3603951930999756,
        -0.056606244295835495,
        0.09987768530845642,
        0.0002933369542006403,
        0.11155257374048233,
        -0.3050893247127533,
        -0.00988924503326416,
        0.1354721635580063,
        0.23084083199501038,
        -0.021582895889878273,
        0.0013349909568205476,
        0.05894940719008446,
        0.05710835009813309,
        -0.08541791886091232,
        0.16605906188488007,
        -0.15950468182563782,
        -0.03543708100914955,
        0.1349831521511078,
        -0.13963617384433746,
        -0.17078858613967896,
        0.10460375994443893,
        -0.06411797553300858,
        -0.22505927085876465,
        0.2447175234556198,
        -0.10452762246131897,
        0.11571818590164185,
        0.20148739218711853,
        0.17842139303684235,
        0.015133010223507881,
        0.11238771677017212,
        0.14953094720840454,
        -0.08645922690629959,
        -0.09030357003211975,
        0.000818215194158256,
        0.1901223212480545,
        -0.020222114399075508,
        -0.1136515662074089,
        -0.17465829849243164,
        0.008712142705917358,
        0.03916595131158829,
        -0.05083981901407242,
        0.004029428120702505,
        0.11007637530565262,
        0.13172577321529388,
        0.0019126784754917026,
        0.032242875546216965,
        -0.06626942753791809,
