{
    "version": "0.5.0",
    "architecture": "WaveNet",
    "config": {
        "layers": [
            {
                "input_size": 1,
                "condition_size": 1,
                "head_size": 8,
                "channels": 16,
                "kernel_size": 3,
                "dilations": [
                    1,
                    2,
                    4,
                    8,
                    16,
                    32,
                    64,
                    128,
                    256,
                    512
                ],
                "activation": "Tanh",
                "gated": false,
                "head_bias": false
            },
            {
                "input_size": 16,
                "condition_size": 1,
                "head_size": 1,
                "channels": 8,
                "kernel_size": 3,
                "dilations": [
                    1,
                    2,
                    4,
                    8,
                    16,
                    32,
                    64,
                    128,
                    256,
                    512
                ],
                "activation": "Tanh",
                "gated": false,
                "head_bias": true
            }
        ],
        "head": null,
        "head_scale": 0.02
    },
    "weights": [
        -0.0041323392651975155,
        0.4768838882446289,
        -0.6235247254371643,
        -0.6315432190895081,
        0.00044040620559826493,
        -0.0014408319257199764,
        -0.0039970348589122295,
        0.7751685976982117,
        -0.00020891803433187306,
        0.05860360339283943,
        -0.20784036815166473,
        0.0034442089963704348,
        -0.8541752696037292,
        -0.5673543810844421,
        -0.2621932327747345,
        -0.00013057433534413576,
        0.07479595392942429,
        0.10438286513090134,
        -0.17439919710159302,
        -0.11883998662233353,
        -0.10504136979579926,
        0.20045024156570435,
        0.03219488635659218,
        0.2717595398426056,
        -0.0917496457695961,
        0.079038105905056,
        0.297902375459671,
        -0.20759235322475433,
        -0.046005140990018845,
        0.067644864320755,
        -0.14890561997890472,
        0.03118346631526947,
        -0.2151380032300949,
        -0.0024549178779125214,
        0.07492534071207047,
        0.052200350910425186,
        0.017380008473992348,
        0.058165207505226135,
        -0.1062154620885849,
        0.14108820259571075,
        -0.008537652902305126,
        -0.024358198046684265,
        -0.14488041400909424,
        -0.14153032004833221,
        -0.2065950483083725,
        0.054563283920288086,
        0.12280666828155518,
        0.21719692647457123,
        -0.17138983309268951,
        0.0264316126704216,
        0.14471866190433502,
        0.01119033619761467,
        0.1254000961780548,
        0.1916530728340149,
        0.028031963855028152,
        -0.022817617282271385,
        0.19242767989635468,
        -0.18662665784358978,
        -0.05829015001654625,
        0.06943686306476593,
        -0.023454083129763603,
        0.07814346998929977,
        -0.013399498537182808,
        -0.08596932888031006,
        0.10358938574790955,
        0.024728603661060333,
        -0.13533072173595428,
        0.15355506539344788,
        0.05666447430849075,
        0.16265010833740234,
        -0.2276633381843567,
        -0.0186709426343441,
        0.029439136385917664,
        -0.001683340989984572,
        0.15982088446617126,
        0.10496101528406143,
        0.0025498908944427967,
        -0.06051604822278023,
        0.05759799852967262,
        -0.08920948952436447,
        -0.1849231719970703,
        0.1114559918642044,
        -0.03158533200621605,
        -0.18250080943107605,
        0.08973453938961029,
        0.09570520371198654,
        -0.06098911166191101,
        -0.04602731019258499,
        0.04086269438266754,
        -0.03955433890223503,
        0.01808309741318226,
        0.16080360114574432,
        0.06267967075109482,
        0.07303580641746521,
        -0.2513717710971832,
        -0.055347610265016556,
        0.05224904417991638,
        -0.06023970991373062,
        -0.13476723432540894,
        -0.06161182373762131,
        0.014918954111635685,
        0.13386917114257812,
        -0.0826232060790062,
        -0.1565399467945099,
        -0.10277967154979706,
        -0.025032149627804756,
        -0.22298942506313324,
        -0.0796789675951004,
        -0.03536248952150345,
        -0.023521175608038902,
        -0.020611697807908058,
        0.04672815278172493,
        -0.04211997240781784,
        0.153771311044693,
        0.1266859471797943,
        -0.09245078265666962,
        0.11218103766441345,
        -0.15472501516342163,
        -0.01711571216583252,
        -0.12158242613077164,
        0.20458783209323883,
        -0.028990518301725388,
        -0.22851160168647766,
        0.22459159791469574,
        -0.08750763535499573,
        -0.09639065712690353,
        0.16589441895484924,
        -0.06351498514413834,
        -0.012337404303252697,
        -0.2271355390548706,
        -0.011615446768701077,
        0.03231961280107498,
        -0.008976311422884464,
        0.03032008558511734,
        0.26248300075531006,
        -0.17185696959495544,
        0.1274987757205963,
        0.03707069158554077,
        0.2812245488166809,
        0.06370799243450165,
        0.2203264683485031,
        -0.12032517045736313,
        0.13574840128421783,
        -0.12939022481441498,
        0.061923474073410034,
        -0.10728870332241058,
        0.017980167642235756,
        0.07978961616754532,
        -0.11287142336368561,
        -0.27262645959854126,
        0.017790699377655983,
        -0.15662610530853271,
        -0.18448008596897125,
        0.23739856481552124,
        0.06550046056509018,
        -0.26926982402801514,
        0.2644076645374298,
        -0.059434570372104645,
        -0.02801021747291088,
        0.12290050089359283,
        -0.027436478063464165,
        -0.0698539987206459,
        -0.1927141398191452,
        -0.17937308549880981,
        -0.002463903045281768,
        0.08706043660640717,
        -0.007781855762004852,
        0.037648770958185196,
        -0.2099638730287552,
        0.0481373593211174,
        0.1087992787361145,
        -0.14173538982868195,
        0.21842525899410248,
        0.08947691321372986,
        -0.15212032198905945,
        -0.012381094507873058,
        -0.0652947947382927,
        -0.0548226498067379,
        0.07257643342018127,
        -0.22481653094291687,
        -0.12509337067604065,
        -0.09039338678121567,
        0.1182798519730568,
        0.12088756263256073,
        0.09012487530708313,
        0.028823401778936386,
        -0.11234617978334427,
        -0.06783914566040039,
        -0.09012296050786972,
        0.1693788468837738,
        0.15984873473644257,
        0.0716514065861702,
        -0.19328594207763672,
        0.09171336889266968,
        -0.07045678049325943,
        -0.1035703793168068,
        -0.02435990236699581,
        0.03350241109728813,
        -0.16717703640460968,
        0.05392910912632942,
        -0.012360413558781147,
        0.009803376160562038,
        -0.057754021137952805,
        -0.1207280233502388,
        -0.16801849007606506,
        0.2974679172039032,
        0.08847178518772125,
        0.21092207729816437,
        -0.002290315693244338,
        -0.016217049211263657,
        -0.09264907985925674,
        -0.09034349769353867,
        -0.155100479722023,
        0.06339743733406067,
        0.07191455364227295,
        0.2009013444185257,
        -0.1956256479024887,
        -0.0038312908727675676,
        0.30147647857666016,
        -0.20594090223312378,
        0.011629672721028328,
        0.23868568241596222,
        -0.05973150208592415,
        -0.07621324062347412,
        -0.25918319821357727,
        0.11336322128772736,
        0.012748786248266697,
        0.11121250689029694,
        -0.023532692342996597,
        -0.09497594833374023,
        -0.1860671490430832,
        0.20652246475219727,
        0.01622150093317032,
        0.2257523238658905,
        -0.014499200507998466,
        -0.10010421276092529,
        -0.05072002857923508,
        0.04044672101736069,
        -0.024050693958997726,
        0.19101083278656006,
        -0.07371031492948532,
        0.13612644374370575,
        0.04415444657206535,
        -0.09164471924304962,
        0.15046128630638123,
        0.05007164552807808,
        0.019934404641389847,
        -0.05037480220198631,
        0.18408210575580597,
        -0.11538806557655334,
        -0.030638108029961586,
        0.17488685250282288,
        0.00988350436091423,
        -0.016851196065545082,
        0.01068378146737814,
        -0.15411287546157837,
        -0.11933297663927078,
        0.07536022365093231,
        0.050291091203689575,
        -0.06272540986537933,
        0.059017378836870193,
        -0.10567294806241989,
        0.03355380892753601,
        -0.03974904865026474,
        0.22760407626628876,
        -0.09104537963867188,
        -0.19342954456806183,
        0.2253466248512268,
        0.09571776539087296,
        -0.03223324194550514,
        0.06056104227900505,
        0.0024203916545957327,
        -0.05683096870779991,
        -0.031142957508563995,
        -0.03840461000800133,
        -0.10346173495054245,
        0.2508317232131958,
        -0.04927468299865723,
        0.13950149714946747,
        -0.1408601850271225,
        0.023396437987685204,
        -0.1295679807662964,
        0.05232628807425499,
        0.10043425112962723,
        0.1093321144580841,
        -0.10447242856025696,
        -0.058140479028224945,
        -0.07456193119287491,
        0.17949724197387695,
        -0.042684998363256454,
        -0.13667014241218567,
        0.11524108797311783,
        -0.0013591815950348973,
        -0.1608211100101471,
        0.14636234939098358,
        -0.12906107306480408,
        -0.05039817839860916,
        0.07728889584541321,
        0.04000423848628998,
        -0.1744217574596405,
        0.12902693450450897,
        -0.004811508115381002,
        -0.1253259778022766,
        0.16224154829978943,
        0.0039028911851346493,
        -0.13914811611175537,
        -0.019701365381479263,
        0.1957148015499115,
        0.32517075538635254,
        -0.08817710727453232,
        -0.2610052525997162,
        -0.2982426881790161,
        0.10569330304861069,
        -0.19300112128257751,
        -0.22097526490688324,
        0.16354547441005707,
        -0.09273233264684677,
        -0.10945629328489304,
        0.21451830863952637,
        0.0008736748131923378,
        0.0787326917052269,
        -0.1269310563802719,
        -0.20707842707633972,
        -0.14657554030418396,
        0.10266558825969696,
        0.26987263560295105,
        0.361044704914093,
        -0.049132514744997025,
        0.1104324460029602,
        -0.10377062112092972,
        0.10076341032981873,
        -0.04995647072792053,
        0.3404046297073364,
        -0.03286752477288246,
        -0.2046632468700409,
        -0.17929759621620178,
        0.2118631899356842,
        0.12277393788099289,
        0.03077067993581295,
        0.23716801404953003,
        -0.17608045041561127,
        -0.32950612902641296,
        0.18305864930152893,
        -0.05703581124544144,
        -0.36007311940193176,
        0.19862474501132965,
        -0.04805975779891014,
        -0.17118842899799347,
        -0.008856474421918392,
        0.07775189727544785,
        -0.07421006262302399,
        0.3252536654472351,
        -0.04124666005373001,
        0.023489775136113167,
        0.06903029978275299,
        0.15970255434513092,
        0.12319793552160263,
        0.04273289442062378,
        -0.2071978896856308,
        -0.14714714884757996,
        -0.0809740498661995,
        -0.250068724155426,
        -0.29973888397216797,
        0.13333837687969208,
        0.009645640850067139,
        0.020764514803886414,
        0.14838357269763947,
        0.004459593910723925,
        0.06147092580795288,
        0.019570697098970413,
        -0.13032078742980957,
        0.048636965453624725,
        -0.04794643074274063,
        0.03989642485976219,
        0.04786403477191925,
        -0.09880521148443222,
        0.017771339043974876,
        -0.05082675442099571,
        0.06561598181724548,
        0.15989939868450165,
        0.24789029359817505,
        -0.10738907754421234,
        -0.010593932121992111,
        -0.019953252747654915,
        0.09887178987264633,
        0.08019471913576126,
        -0.015689633786678314,
        0.13362427055835724,
        -0.16325870156288147,
        -0.11984921246767044,
        0.031034693121910095,
        -0.13964122533798218,
        -0.2625470757484436,
        -0.05958858132362366,
        -0.19397272169589996,
        -0.05969500541687012,
        0.1420101672410965,
        -0.09197863191366196,
        -0.19106438755989075,
        0.1472451239824295,
        0.08869403600692749,
        0.02394978515803814,
        0.01052201446145773,
        0.12201320379972458,
        0.20199164748191833,
        -0.19355513155460358,
        0.13990625739097595,
        -0.03888663649559021,
        0.022163745015859604,
        0.08443930745124817,
        -0.23548248410224915,
        0.056457675993442535,
        0.11969325691461563,
        -0.07169418036937714,
        -0.04247448220849037,
        -0.025037886574864388,
        0.006378720980137587,
        -0.09496763348579407,
        -0.015446593053638935,
        0.0658927708864212,
        -0.08968234062194824,
        -0.08936916291713715,
        0.16509294509887695,
        -0.00666033523157239,
        0.14243251085281372,
        -0.13772569596767426,
        0.15000973641872406,
        -0.15847118198871613,
        0.028232697397470474,
        -0.07511826604604721,
        -0.0727115347981453,
        -0.06871078908443451,
        0.22881047427654266,
        0.060642872005701065,
        -0.09967537224292755,
        0.039104677736759186,
        0.029720038175582886,
        -0.2693592309951782,
        0.14489491283893585,
        -0.12522269785404205,
        -0.289411336183548,
        -0.0596696101129055,
        -0.0041885036043822765,
        -0.02842729724943638,
        -0.03860991820693016,
        0.12507830560207367,
        -0.13598096370697021,
        0.11718332767486572,
        0.020893797278404236,
        -0.12803462147712708,
        0.25539326667785645,
        0.10131377726793289,
        0.217239111661911,
        -0.006913409568369389,
        -0.12712250649929047,
        0.04040771722793579,
        0.07813675701618195,
        0.03786679357290268,
        -0.19917458295822144,
        0.03229394927620888,
        -0.16437919437885284,
        -0.11483808606863022,
        0.08352121710777283,
        -0.09347892552614212,
        0.08405476063489914,
        -0.009204504080116749,
        0.12731727957725525,
        0.0029715888667851686,
        0.029529042541980743,
        -0.010987312532961369,
        0.14989280700683594,
        0.07254407554864883,
        0.04052666574716568,
        -0.09694091230630875,
        0.12744776904582977,
        -0.14634497463703156,
        -0.08130456507205963,
        -0.038194626569747925,
        -0.09183266758918762,
        0.008168536238372326,
        -0.008087257854640484,
        -0.0786832869052887,
        -0.15864498913288116,
        0.1339346319437027,
        -0.050098907202482224,
        0.022982221096754074,
        0.15713465213775635,
        0.050893545150756836,
        -0.07691346853971481,
        0.03001537173986435,
        -0.045462753623723984,
        -0.04498522728681564,
        0.15792793035507202,
        -0.015835830941796303,
        0.14429372549057007,
        0.1689552366733551,
        -0.19923508167266846,
        -0.15151463449001312,
        -0.01856117881834507,
        0.2808407247066498,
        0.021200142800807953,
        0.06946812570095062,
        -0.08383046090602875,
        -0.07805255055427551,
        0.1401192843914032,
        -0.23688536882400513,
        -0.11926067620515823,
        0.08416281640529633,
        -0.10265830904245377,
        -0.014886670745909214,
        0.06372474879026413,
        0.22752554714679718,
        0.10702760517597198,
        -0.026041967794299126,
        0.023418273776769638,
        0.05984162539243698,
        0.05684801563620567,
        0.17181453108787537,
        0.2492457926273346,
        -0.040291886776685715,
        -0.04667241498827934,
        -0.14199110865592957,
        0.06425981968641281,
        -0.01352290902286768,
        0.011760403402149677,
        -0.15647582709789276,
        0.01145405974239111,
        -0.16525723040103912,
        0.06200108304619789,
        -0.23436741530895233,
        -0.017070738598704338,
        0.1456093043088913,
        -0.2711191773414612,
        -0.2855004668235779,
        -0.08712402731180191,
        -0.15681102871894836,
        -0.19900672137737274,
        -0.06699497997760773,
        -0.18137475848197937,
        -0.10931653529405594,
        -0.02876495011150837,
        -0.012421594932675362,
        -0.042895134538412094,
        0.05921202525496483,
        0.08599554747343063,
        0.14875252544879913,
        0.03727449104189873,
        -0.004250521305948496,
        -0.07811892032623291,
        0.13583752512931824,
        -0.12916643917560577,
        -0.1158796101808548,
        0.14472061395645142,
        -0.08630125224590302,
        0.045242879539728165,
        -0.013012880459427834,
        0.027347680181264877,
        -0.014405885711312294,
        0.1393796056509018,
        -0.02980341948568821,
        -0.0984492227435112,
        -0.11777705699205399,
        -0.13840925693511963,
        -0.06077609956264496,
        -0.05085669457912445,
        0.13239307701587677,
        -0.0506901741027832,
        -0.022150689736008644,
        0.10877842456102371,
        0.00021475154790095985,
        0.07167273759841919,
        0.05006137117743492,
        -0.07737790793180466,
        -0.1153479814529419,
        0.008671156130731106,
        0.1477745622396469,
        -0.03805021196603775,
        -0.05230243131518364,
        0.07517917454242706,
        0.2530515491962433,
        -0.03900271654129028,
        -0.10277383029460907,
        -0.13534122705459595,
        0.04163018986582756,
        0.007543214596807957,
        -0.07360780239105225,
        0.050545476377010345,
        0.08522622287273407,
        0.1262976974248886,
        0.13324934244155884,
        -0.059035543352365494,
        -0.08536946773529053,
        -0.14452868700027466,
        0.0977785512804985,
        0.054099977016448975,
        0.04614588990807533,
        -0.10303930938243866,
        0.06110071390867233,
        0.14135704934597015,
        0.10047151148319244,
        -0.06153029203414917,
        -0.037806782871484756,
        -0.12271454930305481,
        0.20959679782390594,
        -0.006003938149660826,
        -0.07168321311473846,
        0.17388610541820526,
        -0.09958618134260178,
        -0.05570186302065849,
        -0.10494773089885712,
        -0.11436277627944946,
        -0.2750202417373657,
        0.05478508397936821,
        -0.08230240643024445,
        0.07184020429849625,
        0.05172073096036911,
        0.14355534315109253,
        0.04246119409799576,
        0.2648499608039856,
        -0.026198534294962883,
        -0.060458242893218994,
        0.04008149728178978,
        0.06762859225273132,
        -0.15278160572052002,
        0.0484868623316288,
        -0.06648112833499908,
        0.10418306291103363,
        0.07798951864242554,
        -0.11592089384794235,
        -0.031779903918504715,
        0.16181360185146332,
        0.05486860126256943,
        0.02269268035888672,
        0.08609822392463684,
        0.07492770999670029,
        -0.057089678943157196,
        0.015216096304357052,
        -0.009882978163659573,
        -0.04409882426261902,
        0.250088095664978,
        -0.028479699045419693,
        0.040226612240076065,
        -0.023851623758673668,
        0.05743470788002014,
        -0.12105852365493774,
        0.253374308347702,
        -0.12710916996002197,
        0.14878670871257782,
        -0.22547204792499542,
        -0.07771939784288406,
        0.11067742854356766,
        -0.17234154045581818,
        0.11609766632318497,
        -0.0820523202419281,
        -0.21583561599254608,
        -0.08407771587371826,
        0.0053619034588336945,
        0.22161032259464264,
        0.013809199444949627,
        0.15444758534431458,
        0.039854153990745544,
        0.010545216500759125,
        0.07129620015621185,
        -0.0008310639532282948,
        0.01035267487168312,
        0.14197172224521637,
        -0.16154396533966064,
        0.1642313301563263,
        -0.050493113696575165,
        0.25014185905456543,
        -0.19269563257694244,
        -0.003227802226319909,
        -0.15305191278457642,
        -0.01877811923623085,
        -0.002739404095336795,
        -0.03407914936542511,
        -0.06253724545240402,
        0.029855605214834213,
        -0.010662131942808628,
        -0.08257325738668442,
        0.15809176862239838,
        -0.20952539145946503,
        -0.06723589450120926,
        0.010864993557333946,
        -0.05890809744596481,
        0.21991278231143951,
        0.10323236882686615,
        -0.14352932572364807,
        0.0698300376534462,
        0.009869614616036415,
        -0.21070054173469543,
        -0.052258964627981186,
        -0.02838689461350441,
        0.11195151507854462,
        -0.017082300037145615,
        -0.010963479988276958,
        0.12658311426639557,
        -0.14010830223560333,
        0.16578219830989838,
        0.05371823161840439,
        -0.08552335947751999,
        0.11993139982223511,
        -0.09584010392427444,
        0.042708322405815125,
        -0.11831014603376389,
        0.027639813721179962,
        -0.08165740966796875,
        0.09311104565858841,
        -0.08483307808637619,
        0.12281986325979233,
        -0.15369968116283417,
        -0.10596291720867157,
        -0.10921427607536316,
        -0.029748963192105293,
        0.1326959729194641,
        0.021911462768912315,
        -0.0763988345861435,
        0.04846569523215294,
        0.05316599830985069,
        0.23510503768920898,
        0.13190649449825287,
        -0.1194746345281601,
        0.04639240726828575,
        -0.028942571952939034,
        -0.11118369549512863,
        0.1707308143377304,
        0.17434626817703247,
        -0.14945125579833984,
        0.21760523319244385,
        -0.04320455715060234,
        -0.07121757417917252,
        0.22456978261470795,
        -0.01822221279144287,
        0.0010445796651765704,
        0.020605450496077538,
        0.12002147734165192,
        -0.04851298779249191,
        -0.11950933933258057,
        0.014625579118728638,
        -0.07684192061424255,
        -0.09570635110139847,
        -0.01235988363623619,
        0.09163636714220047,
        -0.057670507580041885,
        0.09368405491113663,
        0.09996496886014938,
        0.08120349794626236,
        -0.05106703191995621,
        -0.04385406896471977,
        -0.035813137888908386,
        -0.1308467537164688,
        0.006499342620372772,
        0.08000630140304565,
        0.1405785232782364,
        0.09340771287679672,
        0.13061989843845367,
        -0.03527836501598358,
        0.13284596800804138,
        -0.046011585742235184,
        -0.1276913732290268,
        -0.0894734337925911,
        0.028462817892432213,
        -0.21455828845500946,
        0.18188321590423584,
        0.08460235595703125,
        -0.090457983314991,
        -0.07347802817821503,
        0.09568290412425995,
        -0.10746337473392487,
        0.02398769184947014,
        0.14513197541236877,
        -0.07238493114709854,
        0.056645479053258896,
        0.061770230531692505,
        0.1173248142004013,
        -0.1166929230093956,
        0.12859952449798584,
        -0.06088041141629219,
        0.11073949187994003,
        -0.16163519024848938,
        -0.11536633223295212,
        0.21212735772132874,
        0.17408068478107452,
        0.13433100283145905,
        -0.090494304895401,
        -0.051189079880714417,
        -0.09782984852790833,
        -0.12772874534130096,
        0.03820392116904259,
        0.190090611577034,
        0.05721885338425636,
        -0.03739818185567856,
        0.07731986790895462,
        0.09336257725954056,
        -0.0991661548614502,
        -0.004763198085129261,
        0.0001497175544500351,
        -0.0037732459604740143,
        -0.044849693775177,
        -0.01585543341934681,
        0.49722233414649963,
        -0.4071284830570221,
        0.6601805686950684,
        -0.6261706948280334,
        0.07129194587469101,
        0.734730064868927,
        0.945216178894043,
        -0.5780670046806335,
        0.11829356104135513,
        0.06100720539689064,
        -0.47389766573905945,
        -0.3346189558506012,
        0.20620156824588776,
        -0.5937566757202148,
        0.11798995733261108,
        0.39472711086273193,
        -0.09107556194067001,
        0.15792444348335266,
        -0.04176197201013565,
        0.15812711417675018,
        0.3828839361667633,
        -0.2819845676422119,
        0.34174591302871704,
        -0.09178733825683594,
        -0.2282862365245819,
        -0.06497182697057724,
        0.10846073925495148,
        0.10203681886196136,
        -0.011858807876706123,
        -0.014460857026278973,
        0.48862960934638977,
        0.030613435432314873,
        -0.18756943941116333,
        0.005383210722357035,
        -0.2725558578968048,
        -0.09057492017745972,
        -0.17210887372493744,
        0.10748283565044403,
        -0.3281535804271698,
        0.2563275694847107,
        0.2414848804473877,
        0.27867475152015686,
        -0.14764977991580963,
        -0.053160056471824646,
        0.06122180446982384,
        -0.04301748424768448,
        -0.16211935877799988,
        0.04746387153863907,
        -0.019555339589715004,
        0.0028770004864782095,
        0.17039428651332855,
        0.21940314769744873,
        0.03583198040723801,
        -0.3245769143104553,
        0.49062857031822205,
        -0.548011064529419,
        -0.17010252177715302,
        -0.20100098848342896,
        0.2804851531982422,
        -0.07837281376123428,
        0.01108870655298233,
        0.06979876756668091,
        0.23187780380249023,
        -0.020713716745376587,
        0.31589868664741516,
        -0.29972466826438904,
        0.028764991089701653,
        -0.2518335282802582,
        0.005032835993915796,
        0.24486468732357025,
        0.18893910944461823,
        -0.09846197813749313,
        -0.1307363659143448,
        0.06479839980602264,
        -0.005359465256333351,
        -0.20896103978157043,
        0.08327588438987732,
        -0.02600807324051857,
        -0.20134879648685455,
        0.06033680588006973,
        -0.2749648988246918,
        -0.024896519258618355,
        -0.20236381888389587,
        0.0801311805844307,
        0.08620945364236832,
        0.2513422667980194,
        0.09113457798957825,
        -0.06292039901018143,
        0.1612701714038849,
        0.2989165186882019,
        -0.2933399975299835,
        0.16672903299331665,
        -0.06930316239595413,
        0.24002209305763245,
        -0.05704814940690994,
        -0.05773014575242996,
        -0.31274184584617615,
        0.06050189957022667,
        0.014945329166948795,
        0.007218764629215002,
        0.25838756561279297,
        0.08108597993850708,
        0.18688176572322845,
        0.03143922984600067,
        0.056801628321409225,
        -0.1868043690919876,
        -0.26235485076904297,
        -0.14742890000343323,
        0.050246551632881165,
        -0.14174878597259521,
        0.168482705950737,
        0.011730176396667957,
        -0.013236326165497303,
        0.12812520563602448,
        0.24699755012989044,
        0.08003070950508118,
        -0.18576498329639435,
        -0.29279935359954834,
        0.17421820759773254,
        -0.052878543734550476,
        -0.014887243509292603,
        -0.31900492310523987,
        -0.28836533427238464,
        0.21890075504779816,
        0.07360508292913437,
        -0.1621885597705841,
        0.19809924066066742,
        -0.11829639226198196,
        0.07599013298749924,
        0.10003818571567535,
        0.3053639531135559,
        -0.045120805501937866,
        -0.19991753995418549,
        0.08114935457706451,
        0.27123576402664185,
        0.15203656256198883,
        0.12730608880519867,
        -0.18803580105304718,
        0.25779372453689575,
        -0.12496881186962128,
        0.022800816223025322,
        -0.04175771400332451,
        0.06178870052099228,
        0.06443887948989868,
        0.023195117712020874,
        -0.032154835760593414,
        -0.28252333402633667,
        -0.25999709963798523,
        0.039021484553813934,
        -0.02756389230489731,
        -0.1395285576581955,
        0.13966980576515198,
        -0.21542151272296906,
        -0.1807677298784256,
        0.2386031150817871,
        -0.03583007678389549,
        0.019489692524075508,
        -0.11064097285270691,
        0.2604961395263672,
        -0.0027579606976360083,
        -0.1444607526063919,
        0.05651828274130821,
        0.1361294984817505,
        -0.17271046340465546,
        -0.03166990354657173,
        -0.15325435996055603,
        0.10504445433616638,
        -0.4500705897808075,
        -0.0866556242108345,
        0.06386037170886993,
        -0.06861113011837006,
        0.13515214622020721,
        0.024737464264035225,
        0.18985670804977417,
        -0.17231698334217072,
        -0.018751690164208412,
        0.19291935861110687,
        0.20135395228862762,
        -0.28950101137161255,
        -0.012302039191126823,
        -0.12309678643941879,
        -0.14217709004878998,
        0.03982178866863251,
        -0.04962659627199173,
        0.039244357496500015,
        -0.18027709424495697,
        -0.19884490966796875,
        -0.10312686115503311,
        0.0044599357061088085,
        0.06189322844147682,
        0.05593853071331978,
        0.08267594873905182,
        0.0015588047681376338,
        -0.13500651717185974,
        0.13786108791828156,
        0.01756836473941803,
        -0.04421549662947655,
        0.01943899504840374,
        -0.17441990971565247,
        0.03892277553677559,
        0.12562356889247894,
        -0.11849543452262878,
        -0.07394815236330032,
        -0.17852464318275452,
        -0.04675031825900078,
        0.004214239772409201,
        -0.34975287318229675,
        -0.011601027101278305,
        0.2052793949842453,
        -0.16410085558891296,
        0.16313481330871582,
        -0.09716033190488815,
        0.0730632096529007,
        0.019779397174715996,
        0.10151409357786179,
        0.055030710995197296,
        0.2858037054538727,
        -0.04982883483171463,
        -0.0399639867246151,
        -0.3447677493095398,
        0.0893939882516861,
        -0.41732123494148254,
        -0.1558222472667694,
        0.14332738518714905,
        0.053094588220119476,
        -0.20812809467315674,
        -0.12786640226840973,
        0.1788933277130127,
        -0.05476907268166542,
        0.14720861613750458,
        0.3115999400615692,
        -0.05985904484987259,
        -0.033353108912706375,
        -0.10053560137748718,
        0.0051747877150774,
        0.13799914717674255,
        -0.15886244177818298,
        -0.08473920822143555,
        -0.2349390834569931,
        0.07022936642169952,
        -0.12792204320430756,
        0.2013837844133377,
        -0.07927542924880981,
        0.04762096330523491,
        0.1567298173904419,
        -0.13029739260673523,
        0.29409950971603394,
        -0.044621292501688004,
        -0.34726762771606445,
        0.10390074551105499,
        -0.021058646962046623,
        0.16894690692424774,
        0.06667591631412506,
        0.10025720298290253,
        -0.09136861562728882,
        -0.06786665320396423,
        0.11367055773735046,
        0.1540422886610031,
        -0.007373731583356857,
        0.13686053454875946,
        -0.09973956644535065,
        0.06853033602237701,
        -0.11728814989328384,
        0.3718325197696686,
        -0.07200209051370621,
        -0.11720979958772659,
        -0.14090237021446228,
        0.20200741291046143,
        -0.04537615180015564,
        0.1911213994026184,
        -0.3295546770095825,
        -0.04504498466849327,
        0.12512348592281342,
        -0.11176972091197968,
        0.16619333624839783,
        -0.1771920621395111,
        -0.14101675152778625,
        -0.0859639048576355,
        0.10280714929103851,
        0.005365582648664713,
        0.06937187165021896,
        -0.075625479221344,
        0.057118695229291916,
        -0.03482012823224068,
        -0.01656835339963436,
        0.08711542189121246,
        0.023736245930194855,
        0.035543687641620636,
        -0.15388382971286774,
        -0.1380527913570404,
        -0.058219682425260544,
        0.37979739904403687,
        0.2295597642660141,
        0.21145689487457275,
        -0.1538165956735611,
        -0.2526648938655853,
        -0.09628964960575104,
        -0.19477695226669312,
        0.03162351995706558,
        -0.13313689827919006,
        -0.1105346754193306,
        -0.04687923192977905,
        -0.04117944836616516,
        0.028117874637246132,
        -0.11427857726812363,
        0.22133348882198334,
        -0.1596125215291977,
        -0.3174733817577362,
        0.008249354548752308,
        0.15965911746025085,
        -0.1789993792772293,
        -0.05705022066831589,
        -0.16027963161468506,
        0.16890332102775574,
        -0.23964884877204895,
        -0.1323200911283493,
        -0.046477098017930984,
        -0.022930756211280823,
        -0.26260343194007874,
        0.13263961672782898,
        -0.0604732371866703,
        -0.12201137840747833,
        0.01475270465016365,
        -0.23387645184993744,
        -0.21944403648376465,
        -0.060456532984972,
        -0.23058581352233887,
        -0.11806173622608185,
        -0.06968945264816284,
        -0.17571881413459778,
        -0.19185771048069,
        -0.04644622281193733,
        -0.08973974734544754,
        0.07823137193918228,
        0.006449326407164335,
        -0.2046201378107071,
        0.09064283221960068,
        -0.1494494080543518,
        0.15171852707862854,
        -0.12288280576467514,
        0.19595621526241302,
        0.09222105145454407,
        -0.1183723509311676,
        -0.21383503079414368,
        0.08788533508777618,
        -0.2325827032327652,
        -0.007899191230535507,
        -0.2304929792881012,
        -0.06836667656898499,
        0.05322972685098648,
        -0.04477120563387871,
        -0.014036501757800579,
        0.03091324307024479,
        -0.05185601860284805,
        0.09789511561393738,
        -0.0057170940563082695,
        -0.005627771373838186,
        0.40374329686164856,
        -0.09287039190530777,
        -0.1292559951543808,
        -0.18512140214443207,
        0.04941771179437637,
        0.052080560475587845,
        0.1639208048582077,
        0.006747853476554155,
        -0.21171344816684723,
        -0.17664721608161926,
        0.10148454457521439,
        0.15997180342674255,
        -0.2407880276441574,
        0.05836109817028046,
        -0.10439683496952057,
        -0.22366397082805634,
        0.07007887959480286,
        0.13912037014961243,
        -0.0564550943672657,
        0.061737049371004105,
        0.0693436712026596,
        0.026074010878801346,
        -0.10747504979372025,
        -0.03710394725203514,
        -0.009533198550343513,
        0.2579297125339508,
        0.014699142426252365,
        0.059230927377939224,
        -0.4918461740016937,
        -0.058281153440475464,
        0.15582847595214844,
        0.34426289796829224,
        0.09099060297012329,
        -0.21815989911556244,
        -0.17150768637657166,
        -0.20904815196990967,
        0.06508927047252655,
        -0.05418270826339722,
        -0.02741445042192936,
        -0.09451937675476074,
        -0.007985525764524937,
        0.07178838551044464,
        -0.02536504715681076,
        0.09571000188589096,
        -0.023850297555327415,
        -0.05796749144792557,
        -0.14977562427520752,
        -0.17142674326896667,
        0.006289839744567871,
        0.07072515785694122,
        0.03748205304145813,
        0.058319054543972015,
        -0.23842833936214447,
        0.15673893690109253,
        -0.020360371097922325,
        0.22882233560085297,
        -0.2368253916501999,
        -0.14015857875347137,
        -0.3025508224964142,
        0.20127427577972412,
        0.04644070938229561,
        0.050592370331287384,
        0.2001701444387436,
        -0.05657382681965828,
        -0.04325352609157562,
        0.06142309680581093,
        -0.199563667178154,
        -0.019460486248135567,
        0.006131913512945175,
        -0.17454692721366882,
        -0.10369595140218735,
        0.13290441036224365,
        0.023480858653783798,
        0.12615181505680084,
        0.454674631357193,
        0.017677947878837585,
        0.004760222975164652,
        0.10003294795751572,
        -0.2806829512119293,
        -0.19285179674625397,
        -0.12482666224241257,
        0.1314280480146408,
        -0.0053789387457072735,
        -0.10388050228357315,
        0.07723120599985123,
        0.016069000586867332,
        -0.1027110368013382,
        0.08562073856592178,
        -0.13008426129817963,
        -0.05092142894864082,
        0.05800947919487953,
        0.25801512598991394,
        0.023489663377404213,
        0.11992603540420532,
        0.27399590611457825,
        0.026245173066854477,
        -0.2417232096195221,
        0.19553124904632568,
        0.1423211693763733,
        0.11949832737445831,
        -0.293751060962677,
        0.06470238417387009,
        0.10481695830821991,
        -0.04661072790622711,
        0.0794033482670784,
        0.15803362429141998,
        -0.30717915296554565,
        -0.06920856237411499,
        0.030319007113575935,
        -0.13479919731616974,
        0.22869950532913208,
        0.126961350440979,
        0.06792142242193222,
        -0.09741730242967606,
        0.1300635188817978,
        -0.08693578094244003,
        -0.10359925031661987,
        -0.02965068444609642,
        0.0463564358651638,
        0.13064204156398773,
        0.04331701621413231,
        -0.05573752894997597,
        -0.00448508420959115,
        -0.17366240918636322,
        -0.10218256711959839,
        -0.012245351448655128,
        0.12097231298685074,
        0.2149050533771515,
        0.08745169639587402,
        -0.1960652768611908,
        -0.12493743747472763,
        -0.2001606971025467,
        -0.12511590123176575,
        0.02761826291680336,
        0.09773102402687073,
        -0.08577613532543182,
        -0.06650278717279434,
        -0.006484845653176308,
        -0.1306879222393036,
        -0.05695638805627823,
        -0.18124958872795105,
        0.03211284801363945,
        -0.2524809241294861,
        -0.10166581720113754,
        -0.13804587721824646,
        0.11252416670322418,
        0.12744025886058807,
        0.17492152750492096,
        0.08212893456220627,
        0.03701430559158325,
        -0.09921793639659882,
        -0.09491991251707077,
        -0.02656356245279312,
        0.23109260201454163,
        -0.0865236148238182,
        -0.019472187384963036,
        -0.11453737318515778,
        0.044280044734478,
        0.20687827467918396,
        -0.14246755838394165,
        -0.31603631377220154,
        0.015272146090865135,
        -0.012862478382885456,
        -0.09574153274297714,
        -0.030367331579327583,
        -0.05041938275098801,
        -0.24818633496761322,
        -0.082087442278862,
        0.12959802150726318,
        0.02976829931139946,
        0.13217899203300476,
        -0.05881193280220032,
        -0.27867385745048523,
        -0.01605321653187275,
        0.12794290482997894,
        0.5129203796386719,
        0.15743795037269592,
        -0.3611578643321991,
        -0.6125836372375488,
        -0.23114298284053802,
        -0.20591230690479279,
        -0.11808141320943832,
        -0.19271627068519592,
        -0.1989913135766983,
        0.07809355109930038,
        -0.24701155722141266,
        0.08365054428577423,
        0.06266152858734131,
        0.10389886051416397,
        -0.008045283146202564,
        -0.19877272844314575,
        -0.03710830584168434,
        0.10029346495866776,
        -0.0810432955622673,
        0.25980260968208313,
        0.1289646476507187,
        0.12152428925037384,
        -0.11885649710893631,
        0.11024290323257446,
        -0.033498816192150116,
        0.167850524187088,
        0.04062275215983391,
        0.018454913049936295,
        -0.07641763985157013,
        0.05677278712391853,
        -0.03727401793003082,
        -0.1418704390525818,
        -0.008249105885624886,
        -0.09659189730882645,
        -0.27029699087142944,
        -0.16343122720718384,
        -0.3986870050430298,
        -0.28549954295158386,
        -0.16333803534507751,
        -0.10339941829442978,
        -0.09639105200767517,
        0.03618515282869339,
        0.06006227433681488,
        0.035669829696416855,
        0.2224881500005722,
        0.18938679993152618,
        0.08049989491701126,
        -0.20796933770179749,
        -0.13108238577842712,
        -0.13737022876739502,
        0.1864728331565857,
        0.24822276830673218,
        0.10617488622665405,
        0.19579286873340607,
        0.09712535887956619,
        0.06444144994020462,
        -0.05708634480834007,
        0.09393676370382309,
        -0.017193837091326714,
        0.1977931261062622,
        0.11121989786624908,
        -0.01547352783381939,
        0.16618701815605164,
        0.07909894734621048,
        -0.07103484123945236,
        0.10445019602775574,
        0.1362985521554947,
        -0.09952425956726074,
        0.007138809654861689,
        -0.11635436117649078,
        -0.030034629628062248,
        0.07016400992870331,
        0.08198152482509613,
        -0.03645144775509834,
        -0.017623689025640488,
        -0.12075001746416092,
        0.19869855046272278,
        -0.046987444162368774,
        0.04623599350452423,
        0.17130589485168457,
        0.0803191140294075,
        0.30929940938949585,
        0.25163426995277405,
        0.022449934855103493,
        0.2114318162202835,
        -0.12601891160011292,
        -0.0060303048230707645,
        0.15271981060504913,
        -0.2782858610153198,
        -0.046682484447956085,
        -0.0904250368475914,
        -0.14372853934764862,
        -0.12216963618993759,
        0.06442907452583313,
        0.1303592026233673,
        -0.0303926020860672,
        -0.0315890796482563,
        -0.08361530303955078,
        0.009353076107800007,
        0.027491027489304543,
        0.0029652065131813288,
        0.05050500109791756,
        0.034474991261959076,
        -0.11526991426944733,
        0.00473004812374711,
        -0.05693204328417778,
        -0.1887989193201065,
        0.11079823225736618,
        -0.0253802128136158,
        0.05807334557175636,
        -0.009599045850336552,
        -0.10710678994655609,
        -0.05205145850777626,
        0.1696387231349945,
        -0.15581272542476654,
        0.05476963520050049,
        0.002490169135853648,
        0.014113975688815117,
        0.062297604978084564,
        0.13692568242549896,
        0.04630507156252861,
        0.041470758616924286,
        0.004243156872689724,
        -0.0009396620444022119,
        -0.044213201850652695,
        -0.007597752846777439,
        -0.040470585227012634,
        -0.06744258105754852,
        -0.02821776643395424,
        0.10127783566713333,
        -0.15923602879047394,
        -0.07253547757863998,
        -0.013975242152810097,
        -0.17337235808372498,
        0.08444676548242569,
        0.0529315248131752,
        -0.12395021319389343,
        -0.13232506811618805,
        0.0564088337123394,
        -0.15108127892017365,
        0.12601929903030396,
        0.09597685933113098,
        0.0011361527722328901,
        -0.06254234164953232,
        -0.21866226196289062,
        -0.31355178356170654,
        0.09059016406536102,
        0.0619744211435318,
        0.4735589921474457,
        -0.004184707999229431,
        -0.01753987930715084,
        0.030516184866428375,
        0.14882320165634155,
        0.07415308803319931,
        0.2090591937303543,
        0.025488529354333878,
        0.07494624704122543,
        0.04604627564549446,
        0.1374618262052536,
        -0.06005028262734413,
        0.30321046710014343,
        -0.28886678814888,
        -0.019550614058971405,
        0.00488209817558527,
        -0.06128710135817528,
        -0.2836948335170746,
        0.16259895265102386,
        -0.03534436225891113,
        0.1715448796749115,
        -0.20440596342086792,
        0.1367596536874771,
        -0.15746936202049255,
        -0.07802791148424149,
        -0.08544866740703583,
        0.05293708294630051,
        0.26492372155189514,
        0.0722070187330246,
        0.0794602781534195,
        0.3386298716068268,
        0.001294711953960359,
        -0.012546229176223278,
        0.15204189717769623,
        0.09911219030618668,
        -0.009407075121998787,
        0.5367556810379028,
        -0.007002715952694416,
        -0.14479701220989227,
        0.04263845831155777,
        0.14382870495319366,
        0.19546297192573547,
        0.049148667603731155,
        -0.12983018159866333,
        0.05941414088010788,
        0.061793092638254166,
        -0.06758534163236618,
        -0.06454800814390182,
        -0.07373819500207901,
        -0.05189134180545807,
        0.1161603331565857,
        -0.10321634262800217,
        0.13799834251403809,
        -0.019005589187145233,
        -0.1942211389541626,
        0.0008226701174862683,
        0.021126890555024147,
        0.125639870762825,
        0.161517933011055,
        -0.03332309052348137,
        0.0032500692177563906,
        0.05488341674208641,
        -0.01831619068980217,
        0.2542317509651184,
        -0.04567708820104599,
        0.26218360662460327,
        -0.06316647678613663,
        -0.10228991508483887,
        -0.12878957390785217,
        0.1250307410955429,
        -0.2439366579055786,
        0.12033703178167343,
        0.012325484305620193,
        -0.07272281497716904,
        -0.12319327145814896,
        -0.22264942526817322,
        -0.0847158208489418,
        -0.1644083708524704,
        -0.337405264377594,
        -0.06166299805045128,
        -0.0025947135873138905,
        -0.011900953948497772,
        -0.0041786120273172855,
        -0.16793394088745117,
        -0.08073140680789948,
        -0.035735275596380234,
        0.07197294384241104,
        -0.21533112227916718,
        -0.04093759506940842,
        0.3114067614078522,
        -0.2530137896537781,
        -0.32515037059783936,
        -0.06916794180870056,
        0.09377510845661163,
        0.1818539798259735,
        0.21097508072853088,
        -0.09230489283800125,
        0.06930717825889587,
        0.18184056878089905,
        0.050883956253528595,
        -0.0943087488412857,
        -0.08822537958621979,
        -0.22755946218967438,
        0.040480583906173706,
        -0.06600253283977509,
        -0.01483698096126318,
        0.024991704151034355,
        0.20966923236846924,
        0.13838519155979156,
        0.2195296287536621,
        0.007872916758060455,
        0.08822000026702881,
        -0.10807758569717407,
        0.20134025812149048,
        0.06367284059524536,
        0.022332241758704185,
        -0.25193482637405396,
        0.05124744027853012,
        -0.07227229326963425,
        0.10642203688621521,
        -0.03285875543951988,
        0.1261047124862671,
        -0.02077937312424183,
        -0.07450494915246964,
        -0.025627601891756058,
        0.09157276153564453,
        -0.07975199818611145,
        0.021081233397126198,
        -0.13442784547805786,
        -0.14449861645698547,
        0.04459713026881218,
        0.1342182606458664,
        -0.3807990849018097,
        -0.051904041320085526,
        -0.07340297102928162,
        -0.26934459805488586,
        0.20974500477313995,
        0.06984315812587738,
        0.0926721841096878,
        -0.22749783098697662,
        -0.29879915714263916,
        -0.38269901275634766,
        0.11322672665119171,
        0.39568084478378296,
        0.13392987847328186,
        0.12839452922344208,
        0.1672796756029129,
        0.0871143564581871,
        0.06464042514562607,
        0.1598494052886963,
        -0.21253904700279236,
        0.032975420355796814,
        0.20196768641471863,
        0.07098278403282166,
        0.0642864778637886,
        0.0037116133607923985,
        -0.10272151231765747,
        0.19017204642295837,
        0.13588331639766693,
        0.05880578234791756,
        0.13517826795578003,
        -0.15868352353572845,
        -0.11025863885879517,
        -0.1790226846933365,
        0.13294653594493866,
        0.0384216234087944,
        -0.10050202906131744,
        0.045084044337272644,
        6.116105942055583e-05,
        -0.06500548124313354,
        0.11710673570632935,
        0.06999776512384415,
        0.009703331626951694,
        0.16358999907970428,
        0.10533653199672699,
        0.23361936211585999,
        0.1970759779214859,
        -0.010388840921223164,
        0.2974257171154022,
        0.18993337452411652,
        -0.2725500166416168,
        -0.04478287324309349,
        -0.07212453335523605,
        -0.18736308813095093,
        -0.1385388970375061,
        0.2326699197292328,
        -0.050742007791996,
        0.12865139544010162,
        0.07467995584011078,
        -0.023776456713676453,
        0.15323159098625183,
        0.12948407232761383,
        0.04917425289750099,
        -0.011859975755214691,
        -0.06361313164234161,
        -0.19750840961933136,
        0.34767571091651917,
        0.05309351161122322,
        -0.03857453167438507,
        -0.10279989242553711,
        -0.13091425597667694,
        0.15799735486507416,
        0.010235503315925598,
        -0.04397802799940109,
        0.0411248579621315,
        -0.2343931645154953,
        -0.1451614499092102,
        0.1700652688741684,
        -0.06882451474666595,
        0.1511528491973877,
        0.02686816081404686,
        -0.09063539654016495,
        -0.07288637012243271,
        -0.08452414721250534,
        0.19255438446998596,
        0.1766587644815445,
        -0.115312360227108,
        0.20285704731941223,
        -0.26856517791748047,
        -0.19676978886127472,
        0.14809182286262512,
        -0.16327646374702454,
        -0.06752470880746841,
        0.1677868813276291,
        0.023518279194831848,
        -0.04620193690061569,
        0.04424341768026352,
        -0.040705498307943344,
        0.04891921579837799,
        -0.05404600501060486,
        0.0727597177028656,
        -0.07848495244979858,
        -0.29666975140571594,
        -0.3871658742427826,
        -0.38285982608795166,
        0.8477038145065308,
        0.69225013256073,
        0.7360782027244568,
        -0.849235475063324,
        -0.833077073097229,
        -0.6597613096237183,
        -0.40154406428337097,
        -0.16941781342029572,
        -0.06415136903524399,
        -0.05824083089828491,
        -0.038105402141809464,
        0.29444509744644165,
        -0.14457370340824127,
        -0.06572266668081284,
        -0.14796175062656403,
        -0.2362990528345108,
        -0.15078285336494446,
        -0.09346606582403183,
        0.3252449035644531,
        0.18007126450538635,
        -0.06770536303520203,
        0.04413735866546631,
        -0.11826552450656891,
        0.12000475823879242,
        -0.035203754901885986,
        -0.13789157569408417,
        0.02523803524672985,
        -0.15944406390190125,
        -0.11077970266342163,
        0.055910624563694,
        0.023355834186077118,
        0.14830654859542847,
        0.25944000482559204,
        -0.3428693413734436,
        -0.09615134447813034,
        -0.0625745952129364,
        -0.33416298031806946,
        -0.21742457151412964,
        -0.36174288392066956,
        -0.28776228427886963,
        -0.4244798421859741,
        -0.6549751162528992,
        0.21823090314865112,
        -0.0020659861620515585,
        -0.028819788247346878,
        -0.15150997042655945,
        -0.06485339999198914,
        -0.1880260854959488,
        -0.002140903612598777,
        0.1663975715637207,
        -0.05511598661541939,
        -0.07926719635725021,
        0.017807262018322945,
        0.054254479706287384,
        -0.0380486324429512,
        -0.031269658356904984,
        0.02550327219069004,
        0.089727021753788,
        0.13888253271579742,
        0.15913450717926025,
        0.3017151951789856,
        -0.019648656249046326,
        -0.015826355665922165,
        0.057584356516599655,
        -0.05969357118010521,
        0.0863289088010788,
        -0.05791224539279938,
        0.0036729469429701567,
        -0.08052818477153778,
        -0.030398182570934296,
        -0.2227998822927475,
        -0.13360226154327393,
        -0.06913919001817703,
        -0.07238923013210297,
        0.09469269961118698,
        -0.006391953676939011,
        0.05843048915266991,
        0.03125317767262459,
        0.008885437622666359,
        0.1320042461156845,
        0.03388755023479462,
        0.07721865922212601,
        -0.038941964507102966,
        0.12309100478887558,
        -0.05281462520360947,
        -0.05947253853082657,
        -0.019278008490800858,
        -0.1074172705411911,
        -0.11432185769081116,
        -0.05022881552577019,
        0.13175255060195923,
        -0.08297789096832275,
        0.15609736740589142,
        0.015515835955739021,
        -0.05117565020918846,
        -0.2141067236661911,
        -0.008379432372748852,
        -0.016184255480766296,
        0.1161380335688591,
        0.0985715240240097,
        0.2037932425737381,
        0.00900581106543541,
        0.0955883041024208,
        0.12588685750961304,
        -0.046772345900535583,
        -0.11361735314130783,
        -0.0073422701098024845,
        0.02487678825855255,
        -0.137507364153862,
        -0.11992020905017853,
        -0.018763510510325432,
        -0.052265264093875885,
        0.04312346130609512,
        -0.4660543203353882,
        0.09278488904237747,
        -0.039056114852428436,
        -0.06974282115697861,
        -0.09392417967319489,
        -0.2885943055152893,
        -0.1862337738275528,
        -0.09797094017267227,
        0.28632599115371704,
        0.27706825733184814,
        -0.0010301164584234357,
        -0.0457158237695694,
        -0.15372635424137115,
        0.09578218311071396,
        0.0951862707734108,
        0.21169130504131317,
        -0.07985591888427734,
        0.033391550183296204,
        -0.004062773659825325,
        0.01879945956170559,
        0.26525965332984924,
        -0.03174924477934837,
        0.06441698968410492,
        -0.10680321604013443,
        -0.195638507604599,
        0.08728287369012833,
        -0.054751135408878326,
        -0.1460283100605011,
        0.13840731978416443,
        0.16790975630283356,
        -0.06068361923098564,
        0.08716744929552078,
        -0.12008748948574066,
        0.1173265278339386,
        0.14961561560630798,
        0.1271134912967682,
        -0.027682393789291382,
        -0.056851331144571304,
        0.023576796054840088,
        0.10612214356660843,
        0.1710447072982788,
        0.13508546352386475,
        0.05369884520769119,
        -0.03163640573620796,
        -0.21954095363616943,
        0.2300792783498764,
        0.2950252592563629,
        -0.5538725852966309,
        0.16232338547706604,
        -0.7147022485733032,
        -0.15958333015441895,
        -0.171378031373024,
        0.5691078305244446,
        -0.7265337705612183,
        -0.41280093789100647,
        -0.7458335161209106,
        0.16881723701953888,
        -0.5084568858146667,
        0.1944819986820221,
        -0.5263150930404663,
        -0.14540362358093262,
        -0.19704414904117584,
        -0.03813709691166878,
        0.2635880410671234,
        0.1507018804550171,
        -0.06829293072223663,
        -0.0688810721039772,
        -0.08658279478549957,
        -0.0916396901011467,
        -0.12914486229419708,
        0.2695683240890503,
        0.1820378601551056,
        0.21379515528678894,
        0.16110536456108093,
        -0.10043144971132278,
        0.060743652284145355,
        0.13968759775161743,
        0.11922261118888855,
        0.015213040634989738,
        -0.14884357154369354,
        -0.17961005866527557,
        0.404729962348938,
        -0.1657814383506775,
        -0.12358390539884567,
        -0.0020862931851297617,
        -0.1508392095565796,
        0.04115375503897667,
        -0.09414464980363846,
        -0.02527027018368244,
        -0.08102281391620636,
        0.08723393082618713,
        0.05351979285478592,
        -0.15475529432296753,
        -0.1881227344274521,
        0.017941202968358994,
        0.19694501161575317,
        -0.0034200812224298716,
        -0.054013822227716446,
        0.08620701730251312,
        0.006309987045824528,
        0.1660180538892746,
        -0.001106067094951868,
        -0.11418282985687256,
        -0.005555580370128155,
        0.014786318875849247,
        0.18248073756694794,
        0.1619289219379425,
        0.053081709891557693,
        0.189477801322937,
        0.12946221232414246,
        -0.09357544779777527,
        -0.15130476653575897,
        -0.1661229431629181,
        0.09905940294265747,
        -0.10516475886106491,
        -0.1857152134180069,
        -0.0007089244900271297,
        -0.06642678380012512,
        -0.03285016492009163,
        0.24026934802532196,
        0.15701138973236084,
        -0.1924407035112381,
        0.16768136620521545,
        0.08813011646270752,
        0.356029748916626,
        0.18933232128620148,
        -0.0883665606379509,
        -0.25080981850624084,
        0.07667369395494461,
        0.04151705279946327,
        -0.09248900413513184,
        0.2269677072763443,
        0.23802149295806885,
        -0.10034878551959991,
        -0.13531813025474548,
        0.14841392636299133,
        -0.0912112444639206,
        -0.32651129364967346,
        -0.11455493420362473,
        -0.15793202817440033,
        -0.17722444236278534,
        -0.0325813814997673,
        -0.22374072670936584,
        -0.12649551033973694,
        -0.0435660146176815,
        -0.29217529296875,
        -0.02023821696639061,
        -0.04028281196951866,
        0.2634299695491791,
        -0.00414900342002511,
        0.010021243244409561,
        0.017700545489788055,
        -0.18234814703464508,
        0.013126258738338947,
        0.05762043222784996,
        0.11734798550605774,
        0.25940728187561035,
        -0.20032203197479248,
        0.2672329545021057,
        0.06549893319606781,
        0.2444869726896286,
        0.3919909596443176,
        -0.05883859843015671,
        -0.0919324979186058,
        -0.12630020081996918,
        -0.07807488739490509,
        -0.2933254539966583,
        0.1521342396736145,
        -0.13436362147331238,
        -0.1924544721841812,
        0.020337006077170372,
        0.2995350956916809,
        -0.03429325670003891,
        0.04955649748444557,
        -0.06211084872484207,
        0.03399999439716339,
        0.01537014078348875,
        -0.10980577021837234,
        -0.045821867883205414,
        0.054914966225624084,
        0.03770023584365845,
        0.08166640996932983,
        -0.11403176188468933,
        0.04412951320409775,
        -0.08879583328962326,
        0.03912641853094101,
        0.010585245676338673,
        0.03233706206083298,
        -0.045487433671951294,
        0.25393566489219666,
        -0.1582014411687851,
        -0.09874217212200165,
        -0.2627900540828705,
        -0.24542254209518433,
        0.18818062543869019,
        -0.00819261185824871,
        -0.11997020989656448,
        0.08208456635475159,
        0.28056344389915466,
        0.19963926076889038,
        -0.24203236401081085,
        0.27192357182502747,
        -0.08251065015792847,
        0.19171610474586487,
        -0.021775946021080017,
        -0.04839850962162018,
        -0.0854763314127922,
        -0.03579125925898552,
        -0.013584770262241364,
        -0.1423100084066391,
        -0.015040801838040352,
        -0.03646557405591011,
        0.0162789486348629,
        0.12834596633911133,
        0.2108742594718933,
        0.13302212953567505,
        0.2653639316558838,
        0.20057833194732666,
        0.07471021264791489,
        -0.06656121462583542,
        -0.08147656917572021,
        -0.09207719564437866,
        -0.06516839563846588,
        0.1836603432893753,
        0.21684910356998444,
        -0.07844211906194687,
        -0.05283254384994507,
        -0.006305241025984287,
        0.1520947813987732,
        0.243935227394104,
        -0.17456074059009552,
        0.13645751774311066,
        0.06840639561414719,
        0.0268818698823452,
        -0.004247215576469898,
        0.10403893887996674,
        0.23395419120788574,
        0.3398391604423523,
        -0.32922449707984924,
        -0.21542459726333618,
        -0.1376051902770996,
        0.16185566782951355,
        0.013039438053965569,
        0.11187535524368286,
        -0.33024826645851135,
        0.22589895129203796,
        0.15829993784427643,
        -0.17580319941043854,
        0.10288351029157639,
        -0.39459773898124695,
        -0.03160634636878967,
        -0.06581120193004608,
        -0.1122753769159317,
        -0.25274765491485596,
        -0.12422481179237366,
        0.1711226850748062,
        0.07934530824422836,
        -0.012727482244372368,
        -0.16819904744625092,
        0.05862092599272728,
        -0.10325391590595245,
        -0.1434059590101242,
        -0.2471846342086792,
        -0.28820037841796875,
        0.22325760126113892,
        -0.2447146475315094,
        0.1421404778957367,
        0.04586630314588547,
        0.22487041354179382,
        0.06394453346729279,
        -0.08727579563856125,
        0.3490797281265259,
        -0.08339270949363708,
        0.38834279775619507,
        -0.008645560592412949,
        -0.04629524424672127,
        0.06865536421537399,
        0.3668573200702667,
        0.06167522817850113,
        -0.021446270868182182,
        0.21423892676830292,
        0.03692640736699104,
        0.03431674838066101,
        -0.07482043653726578,
        0.08485724776983261,
        0.3691544234752655,
        -0.1058732122182846,
        -0.21904046833515167,
        -0.28100407123565674,
        -0.12101706117391586,
        0.2085164189338684,
        -0.009422005154192448,
        -0.1301722228527069,
        0.06410355120897293,
        -0.19013923406600952,
        0.11376631259918213,
        -0.2575450837612152,
        0.23603174090385437,
        0.2525523900985718,
        0.13448978960514069,
        0.21064411103725433,
        -0.13761983811855316,
        -0.18998338282108307,
        0.0382479764521122,
        -0.33694988489151,
        -0.032151155173778534,
        0.03270108252763748,
        0.2559722363948822,
        -0.1294880211353302,
        0.059558745473623276,
        0.2812129259109497,
        0.3519423305988312,
        -0.2837311327457428,
        0.36534878611564636,
        -0.26660528779029846,
        -0.07112103700637817,
        -0.08432923257350922,
        -0.030483754351735115,
        -0.012963819317519665,
        -0.030400609597563744,
        -0.1518656313419342,
        0.007949302904307842,
        0.12379142642021179,
        0.15816012024879456,
        0.11800074577331543,
        0.041989147663116455,
        0.025481270626187325,
        -0.17425505816936493,
        0.04051686078310013,
        -0.22891418635845184,
        -0.13804873824119568,
        -0.04105859622359276,
        0.1209472045302391,
        -0.0420512929558754,
        -0.03386670723557472,
        -0.16379988193511963,
        -0.15668413043022156,
        -0.13347618281841278,
        0.0356571227312088,
        0.08224351704120636,
        -0.01476835086941719,
        0.029665406793355942,
        -0.028740769252181053,
        -0.1366320699453354,
        0.14501631259918213,
        0.007560363970696926,
        -0.10032007843255997,
        0.11389048397541046,
        0.34567001461982727,
        0.08762234449386597,
        -0.19095103442668915,
        0.12311466783285141,
        0.029430696740746498,
        0.18108582496643066,
        -0.015361747704446316,
        -0.1670730859041214,
        -0.13725139200687408,
        0.13090407848358154,
        -0.11232790350914001,
        0.051579851657152176,
        -0.04961824417114258,
        -0.06256918609142303,
        -0.21492886543273926,
        0.062422432005405426,
        -0.1056797131896019,
        -0.19534087181091309,
        -0.06398669630289078,
        -0.16368646919727325,
        -0.12832964956760406,
        0.032100871205329895,
        0.06748178601264954,
        -0.1351674646139145,
        0.3140326142311096,
        -0.20261427760124207,
        0.17651592195034027,
        0.01995726302266121,
        -0.2470899075269699,
        0.06765339523553848,
        -0.10987371951341629,
        -0.1198238730430603,
        -0.041735876351594925,
        0.0406317263841629,
        0.016815537586808205,
        -0.06825017184019089,
        -0.14386384189128876,
        -0.08460062742233276,
        0.1718445122241974,
        0.291269987821579,
        0.15185265243053436,
        0.0546632781624794,
        -0.24496085941791534,
        -0.11353448033332825,
        0.3194340765476227,
        -0.14821818470954895,
        0.055588286370038986,
        0.06916362792253494,
        0.09042971581220627,
        -0.06818759441375732,
        0.2491813451051712,
        -0.1876690685749054,
        0.03739035874605179,
        -0.0776863619685173,
        0.22665710747241974,
        0.0005740435444749892,
        0.01921125128865242,
        -0.21471759676933289,
        -0.23813533782958984,
        0.08153266459703445,
        0.33078739047050476,
        0.258330762386322,
        0.2728889286518097,
        -0.15039469301700592,
        0.07480765879154205,
        0.10702324658632278,
        -0.46511533856391907,
        0.016051264479756355,
        0.12573662400245667,
        -0.017092391848564148,
        -0.008573809638619423,
        0.2539701759815216,
        -0.0014222527388483286,
        -0.11125477403402328,
        -0.14512085914611816,
        0.10804461687803268,
        -0.020604971796274185,
        0.13511469960212708,
        -0.06628742814064026,
        -0.11555248498916626,
        0.15790164470672607,
        -0.04142773896455765,
        -0.03599534556269646,
        0.16250447928905487,
        -0.07686402648687363,
        -0.2332429736852646,
        0.11148251593112946,
        -0.011449586600065231,
        -0.03075246699154377,
        -0.08471059799194336,
        0.07503024488687515,
        0.16443343460559845,
        -0.12841783463954926,
        -0.16531382501125336,
        0.0892336443066597,
        0.09497400373220444,
        0.007707567885518074,
        0.0456906296312809,
        -0.03667258471250534,
        0.0988040491938591,
        -0.053945332765579224,
        -0.27908840775489807,
        -0.003741696011275053,
        0.04286099597811699,
        -0.014395003207027912,
        0.16121679544448853,
        0.15261200070381165,
        -0.06791502237319946,
        0.16121360659599304,
        -0.04797627404332161,
        0.027780206874012947,
        0.08518725633621216,
        -0.05300995707511902,
        0.08705192804336548,
        0.0868612676858902,
        0.08896738290786743,
        0.29254990816116333,
        0.014590801671147346,
        0.004828756675124168,
        -0.05733462795615196,
        0.16111309826374054,
        0.11132047325372696,
        -0.18460947275161743,
        0.1555997133255005,
        0.2247210592031479,
        -0.39064404368400574,
        0.34088411927223206,
        0.37888431549072266,
        -0.053945399820804596,
        -0.05860920622944832,
        0.18533742427825928,
        0.030580757185816765,
        0.06565164029598236,
        0.11174098402261734,
        0.11660793423652649,
        0.25482678413391113,
        -0.15474066138267517,
        0.23229540884494781,
        -0.03661012277007103,
        -0.0673920288681984,
        -0.0495278537273407,
        -0.20950652658939362,
        -0.013854588381946087,
        0.054490674287080765,
        -0.0924655869603157,
        -0.0058641089126467705,
        0.27510005235671997,
        -0.024655751883983612,
        -0.1314016729593277,
        -0.20202183723449707,
        0.15409772098064423,
        0.10124728828668594,
        0.0429927259683609,
        0.08101776242256165,
        0.1470986008644104,
        -0.3009631037712097,
        0.010325120761990547,
        -0.397871196269989,
        0.20369137823581696,
        -0.04214278981089592,
        0.08307438343763351,
        0.24718788266181946,
        -0.260509729385376,
        0.09116250276565552,
        0.26771798729896545,
        -0.1143900528550148,
        0.009821652434766293,
        0.1265586018562317,
        0.007382889278233051,
        -0.008970015682280064,
        -0.16148202121257782,
        0.12451531738042831,
        0.0020774228032678366,
        -0.09466639161109924,
        0.30441147089004517,
        0.042984019964933395,
        0.037997737526893616,
        -0.30614417791366577,
        -0.07860487699508667,
        -0.08458571135997772,
        0.16699303686618805,
        -0.05308787524700165,
        -0.017859527841210365,
        -0.1776939332485199,
        -0.11069189012050629,
        -0.032580599188804626,
        0.28852587938308716,
        -0.05183985456824303,
        -0.08465762436389923,
        0.10736513882875443,
        0.03239480406045914,
        0.10859084874391556,
        0.13027077913284302,
        0.17379574477672577,
        -0.15983907878398895,
        0.03296159580349922,
        -0.02030223049223423,
        0.04606591537594795,
        -0.2635003924369812,
        0.1666059046983719,
        -0.04761575534939766,
        -0.04963666945695877,
        0.07390231639146805,
        0.23673340678215027,
        -0.07673238962888718,
        0.23908738791942596,
        -0.2232842594385147,
        0.024125615134835243,
        -0.12823204696178436,
        -0.05205737426877022,
        0.4023783802986145,
        -0.011901569552719593,
        -0.20386269688606262,
        0.12877106666564941,
        -0.11504068225622177,
        -0.19500790536403656,
        -0.21050219237804413,
        -0.030667202547192574,
        0.08430454134941101,
        -0.14567340910434723,
        0.2493022084236145,
        0.09360544383525848,
        -0.1751420497894287,
        -0.045481305569410324,
        -0.03865891695022583,
        -0.09725536406040192,
        -0.4715286195278168,
        0.04199753701686859,
        0.03554486110806465,
        0.07480882853269577,
        0.008166750892996788,
        -0.211385115981102,
        -0.10467017441987991,
        -0.06570931524038315,
        -0.12716522812843323,
        0.13917651772499084,
        -0.025701692327857018,
        0.08962205052375793,
        0.2001979649066925,
        0.02675151638686657,
        -0.09252816438674927,
        0.16995957493782043,
        -0.1051204726099968,
        0.23313699662685394,
        0.22941969335079193,
        -0.14406205713748932,
        -0.10891091078519821,
        0.17200210690498352,
        0.03734837472438812,
        0.05113406851887703,
        0.00325600104406476,
        -0.08894172310829163,
        -0.015589508228003979,
        -0.14276659488677979,
        0.07713598012924194,
        0.06162841245532036,
        -0.041398096829652786,
        -0.06155760586261749,
        0.21997672319412231,
        0.06571917980909348,
        0.13085445761680603,
        -0.07173275202512741,
        -0.2131381630897522,
        -0.3576759696006775,
        0.27191033959388733,
        -0.07738128304481506,
        -0.04638861492276192,
        0.03984558582305908,
        0.17600451409816742,
        -0.03539789840579033,
        0.18172653019428253,
        0.15727268159389496,
        0.009995604865252972,
        -0.08111441880464554,
        -0.001343369483947754,
        0.0192509014159441,
        -0.10658029466867447,
        0.09658051282167435,
        0.1284051090478897,
        -0.11451555788516998,
        -0.16681888699531555,
        -0.01883324794471264,
        0.1458398699760437,
        0.04507453739643097,
        -0.12011099606752396,
        -0.08017545193433762,
        0.005183138884603977,
        -0.10944994539022446,
        -0.003920569084584713,
        -0.0527816079556942,
        -0.1590585857629776,
        -0.10676415264606476,
        0.08676832169294357,
        0.17843735218048096,
        0.12750473618507385,
        -0.20157122611999512,
        -0.20813575387001038,
        -0.057303477078676224,
        0.023792801424860954,
        0.011647047474980354,
        0.21706809103488922,
        -0.10003364831209183,
        -0.17266090214252472,
        0.04473615437746048,
        -0.006646561902016401,
        -0.0031426704954355955,
        -0.1637207269668579,
        -0.05613894760608673,
        -0.05585206300020218,
        -0.132643923163414,
        0.22787097096443176,
        -0.08962255716323853,
        -0.2696014642715454,
        -0.1014828309416771,
        -0.40926897525787354,
        -0.027788715437054634,
        -0.23981623351573944,
        -0.18675310909748077,
        -0.26930347084999084,
        -0.3075091540813446,
        -0.09598804265260696,
        0.16544583439826965,
        -0.182111918926239,
        0.37613511085510254,
        0.23692280054092407,
        0.26047128438949585,
        -0.24949097633361816,
        0.04518984630703926,
        -0.04412612318992615,
        -0.11140205711126328,
        -0.07169456034898758,
        0.07377970963716507,
        0.045689526945352554,
        0.022074848413467407,
        0.07450054585933685,
        -0.05616253241896629,
        -0.054827865213155746,
        -0.03834740072488785,
        -0.07264208793640137,
        -0.02336834743618965,
        0.05838010832667351,
        -0.17388077080249786,
        0.12005701661109924,
        0.11532531678676605,
        -0.051571790128946304,
        0.058204151690006256,
        -0.0626935213804245,
        -0.1234920397400856,
        -0.023884247988462448,
        -0.06931775063276291,
        0.16172932088375092,
        -0.09201913326978683,
        -0.06613632291555405,
        0.21440596878528595,
        0.07636616379022598,
        -0.11143491417169571,
        0.0909033864736557,
        0.038997527211904526,
        0.022157682105898857,
        -0.12507838010787964,
        -0.1549038589000702,
        -0.006845207419246435,
        0.005705514922738075,
        -0.04481862857937813,
        0.1848609298467636,
        -0.1475427746772766,
        -0.15191440284252167,
        0.10582660883665085,
        -0.16328659653663635,
        -0.17313770949840546,
        -0.05644230917096138,
        0.06709873676300049,
        -0.057692110538482666,
        0.06768690049648285,
        -0.048631664365530014,
        -0.052471794188022614,
        -0.16020852327346802,
        -0.004663369152694941,
        0.22200296819210052,
        -0.005007867235690355,
        -0.05154024064540863,
        0.030894063413143158,
        -0.15627174079418182,
        -0.2009570598602295,
        -0.07209749519824982,
        -0.19140395522117615,
        0.10180703550577164,
        -0.12234766036272049,
        -0.06071104481816292,
        -0.059233762323856354,
        -0.33275261521339417,
        0.07156690210103989,
        0.17640136182308197,
        0.26698583364486694,
        0.24891850352287292,
        -0.010124430060386658,
        0.09256245195865631,
        0.1524287909269333,
        0.09389682859182358,
        0.15293733775615692,
        -0.28105130791664124,
        0.047752249985933304,
        0.35772061347961426,
        -0.21218635141849518,
        -0.15602783858776093,
        0.21362340450286865,
        -0.15052831172943115,
        0.1294439136981964,
        -0.040104806423187256,
        0.1830781102180481,
        0.24930505454540253,
        0.1545572727918625,
        0.16174167394638062,
        0.09702763706445694,
        0.11926817893981934,
        0.20176003873348236,
        -0.005858072079718113,
        -0.14101622998714447,
        -0.18703755736351013,
        0.02677989937365055,
        -0.06301926076412201,
        -0.06735403090715408,
        0.11789049208164215,
        0.023110060021281242,
        0.012004748918116093,
        -0.06434955447912216,
        -0.06448584794998169,
        -0.18352563679218292,
        0.005567748099565506,
        -0.01536099798977375,
        0.1684717983007431,
        0.02329998090863228,
        0.09733371436595917,
        0.06685121357440948,
        0.10677658766508102,
        -0.01245932187885046,
        -0.218790665268898,
        0.14447729289531708,
        0.017375046387314796,
        -0.06814542412757874,
        -0.23203803598880768,
        -0.2097918838262558,
        -0.04192880168557167,
        0.07947555184364319,
        -0.07006687670946121,
        0.10783136636018753,
        -0.027304409071803093,
        -0.1497776210308075,
        -0.13938289880752563,
        -0.08045443147420883,
        -0.07611623406410217,
        -0.07025497406721115,
        0.06461632251739502,
        -0.09888143092393875,
        -0.03887747600674629,
        0.10082694888114929,
        -0.19366466999053955,
        -0.2121921330690384,
        -0.23077727854251862,
        0.23181045055389404,
        -0.17433896660804749,
        -0.1593150496482849,
        -0.0593336746096611,
        -0.35889002680778503,
        0.061178743839263916,
        0.015505761839449406,
        0.12140046060085297,
        -0.005329790059477091,
        -0.07142763584852219,
        0.11087365448474884,
        0.100849948823452,
        0.20102907717227936,
        0.17863257229328156,
        0.01816760189831257,
        0.005453850142657757,
        0.2169111669063568,
        0.008946709334850311,
        -0.2547867000102997,
        0.06245402619242668,
        0.07634378224611282,
        0.010528582148253918,
        -0.04582084342837334,
        0.16653446853160858,
        0.154977947473526,
        -0.023327820003032684,
        0.07200898230075836,
        0.18626604974269867,
        -0.19087278842926025,
        -0.12220128625631332,
        -0.0014381619403138757,
        0.1617203950881958,
        -0.01451064832508564,
        0.12824173271656036,
        -0.17297013103961945,
        0.07953304797410965,
        -0.03827398642897606,
        0.3092783987522125,
        0.03622015565633774,
        -0.3980458378791809,
        0.19924382865428925,
        0.2209189385175705,
        0.016153009608387947,
        0.18694770336151123,
        0.1188531294465065,
        -0.12481612712144852,
        0.18645191192626953,
        -0.3029019832611084,
        0.12068469077348709,
        -0.25537002086639404,
        -0.17288810014724731,
        -0.17629054188728333,
        0.02010667324066162,
        -0.019765499979257584,
        -0.1921897530555725,
        0.09048823267221451,
        0.41872015595436096,
        0.22731205821037292,
        0.15712851285934448,
        -0.11090748012065887,
        -0.10315197706222534,
        0.09601061046123505,
        -0.25942182540893555,
        -0.16777706146240234,
        0.19027531147003174,
        -0.13384850323200226,
        -0.14112135767936707,
        0.08133170008659363,
        -0.12061139941215515,
        -0.16609995067119598,
        -0.034107763320207596,
        -0.02559521794319153,
        0.3742755949497223,
        0.35336506366729736,
        0.22624406218528748,
        0.1397530883550644,
        -0.33046022057533264,
        -0.23066961765289307,
        -0.07977865636348724,
        -0.08457154035568237,
        -0.14381201565265656,
        -0.21782389283180237,
        -0.25516659021377563,
        -0.1992153525352478,
        -0.29753533005714417,
        0.14500804245471954,
        0.09973861277103424,
        -0.4362095892429352,
        0.1383761763572693,
        0.0175254438072443,
        -0.13762560486793518,
        0.18881048262119293,
        -0.2138776183128357,
        -0.2232157438993454,
        0.36369040608406067,
        -0.16033126413822174,
        0.03173338621854782,
        0.11126252263784409,
        -0.15658298134803772,
        -0.17930825054645538,
        -0.21882611513137817,
        -0.1414678692817688,
        -0.23294435441493988,
        0.1928420066833496,
        0.3053111732006073,
        0.26828932762145996,
        -0.16111059486865997,
        -0.2120555192232132,
        -0.4462144076824188,
        0.026577768847346306,
        -0.1494389921426773,
        0.11220918595790863,
        -0.0036884669680148363,
        0.12244290858507156,
        0.2807246744632721,
        0.1399720311164856,
        -0.11763150244951248,
        -0.06063985079526901,
        -0.030134104192256927,
        -0.16366064548492432,
        0.16153809428215027,
        -0.10713068395853043,
        0.09296458959579468,
        -0.27680543065071106,
        0.1224016323685646,
        0.03498421981930733,
        -0.01780756190419197,
        0.09408997744321823,
        -0.17244082689285278,
        -0.18220990896224976,
        0.02817855402827263,
        0.011699975468218327,
        0.19736310839653015,
        -0.17670713365077972,
        -0.10307639092206955,
        0.3827746510505676,
        0.1115826815366745,
        -0.2519555985927582,
        0.09487758576869965,
        -0.18913769721984863,
        -0.0742378756403923,
        -0.009556617587804794,
        0.08659715205430984,
        0.019228950142860413,
        0.016742674633860588,
        -0.017134496942162514,
        0.2023514062166214,
        0.022558290511369705,
        0.24196495115756989,
        0.03236599639058113,
        -0.07631504535675049,
        0.0108836330473423,
        0.09868895262479782,
        -0.2816556394100189,
        -0.25201258063316345,
        0.1203550472855568,
        0.12196167558431625,
        -0.13842721283435822,
        -0.07216859608888626,
        -0.06948716938495636,
        0.09696453809738159,
        -0.03175192326307297,
        -0.00826533604413271,
        0.07993557304143906,
        0.12889377772808075,
        0.04068075865507126,
        -0.0700351670384407,
        0.10564050078392029,
        -0.09768722206354141,
        -0.11493562906980515,
        0.056631699204444885,
        0.1422606110572815,
        -0.09497465193271637,
        -0.12861418724060059,
        0.01396756712347269,
        -0.06840362399816513,
        -0.024752167984843254,
        0.09785021096467972,
        0.1748531013727188,
        0.023758290335536003,
        -0.10107006132602692,
        -0.050720736384391785,
        0.004893261473625898,
        -0.1757362335920334,
        -0.00914610456675291,
        0.06002397835254669,
        0.00852358527481556,
        0.01918718032538891,
        0.04731631278991699,
        0.038251329213380814,
        -0.2527201473712921,
        -0.2973354756832123,
        0.1537218540906906,
        -0.13241267204284668,
        -0.2755347490310669,
        0.04636271297931671,
        -0.2659185230731964,
        0.02203776314854622,
        0.15267862379550934,
        0.22103698551654816,
        -0.06193622946739197,
        -0.047924503684043884,
        -0.10975416004657745,
        -0.056244879961013794,
        0.08420488983392715,
        0.23297910392284393,
        -0.11595943570137024,
        -0.0571933388710022,
        0.02528398670256138,
        -0.005215831100940704,
        -0.0235110055655241,
        -0.2943858504295349,
        0.038732483983039856,
        -0.018948307260870934,
        -0.1981433629989624,
        -0.3373432457447052,
        0.03446074575185776,
        -0.25931087136268616,
        0.14780697226524353,
        -0.1307438164949417,
        -0.11094268411397934,
        0.14598290622234344,
        -0.0497884526848793,
        0.05793951079249382,
        0.14883551001548767,
        0.06478200107812881,
        0.03984248638153076,
        -0.17457617819309235,
        0.11389587819576263,
        0.14590144157409668,
        -0.15525920689105988,
        0.00813219416886568,
        -0.28096088767051697,
        -0.2501507103443146,
        0.011896083131432533,
        0.05126957967877388,
        -0.033634889870882034,
        0.04908588156104088,
        0.1216229647397995,
        0.16342851519584656,
        -0.15928885340690613,
        -0.24326659739017487,
        0.20199760794639587,
        0.27181580662727356,
        -0.1284017264842987,
        0.059652965515851974,
        0.09513979405164719,
        0.019202517345547676,
        -0.11025486141443253,
        -0.0075903781689703465,
        0.3132852613925934,
        -0.08253894001245499,
        0.06777574121952057,
        0.16249875724315643,
        -0.12317916005849838,
        0.04767070338129997,
        0.15123021602630615,
        -0.024394623935222626,
        0.05502443015575409,
        0.1958002895116806,
        0.0499957874417305,
        -0.1105567142367363,
        -0.049809329211711884,
        0.04381316527724266,
        0.0200278889387846,
        0.19740304350852966,
        0.05592229217290878,
        0.07272268086671829,
        0.14871573448181152,
        0.0875694751739502,
        -0.13920055329799652,
        -0.2031436413526535,
        0.050678979605436325,
        -0.25693437457084656,
        0.05959014222025871,
        -0.03247856721282005,
        -0.10321975499391556,
        0.015929467976093292,
        -0.07862848043441772,
        0.20952510833740234,
        0.1369003802537918,
        -0.17731662094593048,
        0.17393071949481964,
        -0.07928325980901718,
        0.000499729358125478,
        -0.07642174512147903,
        -0.054806869477033615,
        0.23133663833141327,
        -0.22040288150310516,
        -0.054840538650751114,
        0.12509165704250336,
        -0.34110838174819946,
        0.003652926767244935,
        0.005826030857861042,
        0.08707530796527863,
        -0.0013381103053689003,
        0.0027350648306310177,
        0.06692397594451904,
        0.0025960304774343967,
        -0.05429593473672867,
        -0.07323519885540009,
        0.20436012744903564,
        0.018715186044573784,
        0.1182611733675003,
        0.03485395014286041,
        -0.1907608062028885,
        0.00028885112260468304,
        -0.022589733824133873,
        0.1339317411184311,
        -0.22615961730480194,
        -0.4018649756908417,
        0.7741537690162659,
        0.3300769329071045,
        -0.2408725768327713,
        0.11789607256650925,
        -0.14606794714927673,
        0.048653777688741684,
        0.47320058941841125,
        -0.6882181167602539,
        0.7535688281059265,
        0.4796118438243866,
        0.11658060550689697,
        -0.3341604471206665,
        0.09635264426469803,
        -0.5547179579734802,
        0.07290397584438324,
        -0.16854166984558105,
        0.001961992820724845,
        -0.35170605778694153,
        0.1763944923877716,
        0.2321252077817917,
        0.24545255303382874,
        0.15019097924232483,
        0.2334112823009491,
        0.12336642295122147,
        -0.011787633411586285,
        0.08019474893808365,
        -0.05365053564310074,
        0.0140759889036417,
        -0.1566779911518097,
        -0.012026160955429077,
        0.3188096582889557,
        -0.24860930442810059,
        0.07063309848308563,
        -0.010120059363543987,
        0.19658802449703217,
        0.16877582669258118,
        0.20404678583145142,
        -0.33307918906211853,
        -0.24945184588432312,
        0.20408500730991364,
        0.0403907410800457,
        0.007867998443543911,
        0.055683381855487823,
        0.4342729151248932,
        0.26948145031929016,
        -0.1334451138973236,
        -0.02371934801340103,
        -0.13692431151866913,
        0.1645091027021408,
        -0.1330074965953827,
        0.07213059067726135,
        0.06180661544203758,
        0.0006705939886160195,
        -0.24033915996551514,
        -0.019648542627692223,
        0.1191994771361351,
        -0.2504630386829376,
        0.045068368315696716,
        0.1519424170255661,
        -0.05388232693076134,
        -0.051362693309783936,
        0.0031515327282249928,
        0.30687442421913147,
        0.11454346776008606,
        0.0511060431599617,
        0.15258997678756714,
        -0.15504658222198486,
        0.03228708729147911,
        -0.3021208941936493,
        0.1777898222208023,
        0.23691286146640778,
        0.03096846118569374,
        -0.00455887708812952,
        0.21021758019924164,
        0.08280103653669357,
        0.09351275861263275,
        0.11497586965560913,
        -0.10472210496664047,
        -0.04765480384230614,
        -0.0611172653734684,
        0.20051144063472748,
        0.017101416364312172,
        -0.19505394995212555,
        0.016905223950743675,
        0.045874759554862976,
        -0.06745956838130951,
        0.190584197640419,
        -0.1301916092634201,
        0.01688242331147194,
        0.09836295992136002,
        -0.255092591047287,
        -0.2130906879901886,
        0.22143995761871338,
        -0.25899383425712585,
        -0.09393201768398285,
        0.10967815667390823,
        -0.09951817244291306,
        0.013505577109754086,
        -0.3282623291015625,
        -0.16923007369041443,
        0.051549918949604034,
        0.10515023022890091,
        -0.03916047513484955,
        -0.2423567920923233,
        -0.04535648226737976,
        0.1576964110136032,
        -0.08849964290857315,
        -0.012751300819218159,
        0.39376622438430786,
        -0.14665167033672333,
        0.18170295655727386,
        0.06276559084653854,
        -0.07360628992319107,
        0.05940627679228783,
        0.19445741176605225,
        -0.17502298951148987,
        0.2524867057800293,
        -0.032067760825157166,
        -0.2260669469833374,
        0.2607281506061554,
        0.17382951080799103,
        -0.029607253149151802,
        0.17364279925823212,
        0.1424131989479065,
        0.21681973338127136,
        -0.012246779166162014,
        0.18519456684589386,
        -0.10245949774980545,
        -0.19656533002853394,
        -0.1999908834695816,
        0.25462162494659424,
        -0.09680318087339401,
        0.014152426272630692,
        -0.16087394952774048,
        0.18398939073085785,
        0.030961325392127037,
        -0.0632769986987114,
        0.16204187273979187,
        0.1480318307876587,
        -0.028696609660983086,
        0.16159775853157043,
        0.08469048142433167,
        -0.10624414682388306,
        0.34372907876968384,
        -0.1871722936630249,
        0.10273580998182297,
        0.19503061473369598,
        -0.019644010812044144,
        -0.256163090467453,
        0.13340923190116882,
        -0.2310563623905182,
        -0.0808277428150177,
        -0.1584203839302063,
        0.14641669392585754,
        -0.22772014141082764,
        -0.08115695416927338,
        -0.05287922918796539,
        0.26981881260871887,
        -0.002013756660744548,
        -0.026066835969686508,
        -0.19442512094974518,
        0.2794558107852936,
        -0.19560977816581726,
        0.09571310132741928,
        -0.1949879676103592,
        -0.1268201470375061,
        -0.09563761204481125,
        0.01030257809907198,
        0.1551651507616043,
        -0.073163241147995,
        -0.1368977278470993,
        -0.1835704892873764,
        0.005427131894975901,
        0.03970945626497269,
        0.3372630178928375,
        -0.007993267849087715,
        -0.30556753277778625,
        -0.2665129005908966,
        0.22074571251869202,
        -0.18117304146289825,
        0.019407927989959717,
        -0.08189482241868973,
        0.3149455189704895,
        -0.021767383441329002,
        -0.2567065358161926,
        0.05852930620312691,
        0.11723572760820389,
        -0.24542157351970673,
        0.1149967834353447,
        0.26087719202041626,
        0.15633080899715424,
        0.0104225417599082,
        -0.06927406042814255,
        -0.04713469371199608,
        -0.13293412327766418,
        0.03341471776366234,
        0.2589680850505829,
        0.11995787173509598,
        -0.16494840383529663,
        -0.07245592772960663,
        -0.11242571473121643,
        0.3056921660900116,
        -0.22282107174396515,
        -0.1662321835756302,
        0.044470157474279404,
        0.1294078826904297,
        -0.21974900364875793,
        -0.08027999103069305,
        -0.09798779338598251,
        0.017105689272284508,
        0.013743812218308449,
        -0.020166616886854172,
        -0.15120849013328552,
        -0.2685425281524658,
        0.09635414928197861,
        0.06285373866558075,
        -0.05656735599040985,
        0.03853365033864975,
        0.02255634404718876,
        0.13346518576145172,
        0.08998071402311325,
        -0.2619180977344513,
        -0.14650988578796387,
        0.07532457262277603,
        -0.27131107449531555,
        -0.017537202686071396,
        -0.02313574217259884,
        0.07888587564229965,
        0.28765177726745605,
        0.05950932949781418,
        -0.06837102025747299,
        -0.0004282945883460343,
        0.15283501148223877,
        -0.19881054759025574,
        0.08991587162017822,
        -0.03295762836933136,
        -0.2380201518535614,
        0.1462661474943161,
        0.023085620254278183,
        0.1384916752576828,
        0.013971161097288132,
        0.136126309633255,
        -0.3073834478855133,
        -0.083920419216156,
        0.20978911221027374,
        -0.23817791044712067,
        -0.042283955961465836,
        0.12099342793226242,
        0.18230415880680084,
        0.27544528245925903,
        -0.2652672231197357,
        0.16771961748600006,
        0.04288436099886894,
        -0.33172479271888733,
        0.04431656748056412,
        -0.07328838109970093,
        -0.08818601816892624,
        -0.11125268787145615,
        -0.2707730233669281,
        -0.03676966577768326,
        0.06766294687986374,
        -0.1920301914215088,
        -0.1680980622768402,
        0.15706607699394226,
        0.20322825014591217,
        0.2733350694179535,
        -0.2978018820285797,
        0.056900616735219955,
        0.02709314040839672,
        -0.07401637732982635,
        -0.002967740874737501,
        -0.010191475041210651,
        0.04820675030350685,
        0.013583685271441936,
        -0.07536713778972626,
        0.13054423034191132,
        0.07463916391134262,
        0.008812720887362957,
        -0.1510481983423233,
        -0.10429697483778,
        0.04641216620802879,
        0.06645277887582779,
        0.1500225067138672,
        0.11753398180007935,
        0.011466823518276215,
        -0.040479861199855804,
        0.07276993989944458,
        -0.15113964676856995,
        0.10220450907945633,
        0.10732205957174301,
        -0.022977743297815323,
        0.10021446645259857,
        0.21198099851608276,
        -0.07921603322029114,
        0.0815870463848114,
        -0.12341152876615524,
        0.09792815148830414,
        0.23128896951675415,
        0.12041667848825455,
        -0.056846100836992264,
        -0.13990621268749237,
        0.17506860196590424,
        -0.0635308101773262,
        0.029809296131134033,
        0.12054358422756195,
        -0.14668969810009003,
        -0.13206930458545685,
        -0.027687836438417435,
        0.05012209340929985,
        -0.08795731514692307,
        -0.1326921433210373,
        -0.281413197517395,
        0.2966237962245941,
        0.0870155319571495,
        0.01856500282883644,
        -0.1275312900543213,
        -0.06845477223396301,
        -0.10465521365404129,
        0.3680938482284546,
        0.02870645374059677,
        -0.18534605205059052,
        0.10994487255811691,
        -0.1595066636800766,
        0.14338462054729462,
        0.10499465465545654,
        -0.06189588084816933,
        -0.03508719801902771,
        0.041671209037303925,
        -0.0080104386433959,
        -0.2790273129940033,
        -0.26030877232551575,
        0.18633192777633667,
        -0.3045307993888855,
        -0.027493733912706375,
        0.08962677419185638,
        0.13776841759681702,
        0.1284656524658203,
        0.018631283193826675,
        0.15681056678295135,
        0.2525138258934021,
        0.019795214757323265,
        0.0023682827595621347,
        0.08219512552022934,
        -0.13538557291030884,
        0.0997377410531044,
        0.043052200227975845,
        -0.17534278333187103,
        0.1011926680803299,
        0.2656169831752777,
        0.010810552164912224,
        0.025416214019060135,
        -0.6305573582649231,
        -0.1456199735403061,
        0.18342643976211548,
        -0.009927299804985523,
        0.155880406498909,
        -0.29088908433914185,
        -0.01913628727197647,
        0.20233790576457977,
        0.10686560720205307,
        0.21780170500278473,
        0.020627640187740326,
        -0.046034522354602814,
        -0.3395204246044159,
        -0.0953584760427475,
        0.1726652830839157,
        -0.06100963056087494,
        0.15985113382339478,
        0.13322637975215912,
        -0.08241895586252213,
        -0.150553897023201,
        0.0980214923620224,
        -0.10051321983337402,
        -0.2144453376531601,
        -0.0523398257791996,
        -0.11534658074378967,
        0.032754767686128616,
        0.11560899764299393,
        0.13739991188049316,
        0.06906047463417053,
        0.015571230091154575,
        0.1524370312690735,
        0.01036070380359888,
        -0.10463118553161621,
        -0.07442533224821091,
        0.031214095652103424,
        -0.005001343786716461,
        -0.10291293263435364,
        -0.1551825851202011,
        0.04729034751653671,
        0.12122093886137009,
        -0.01788693107664585,
        0.12271331250667572,
        0.14079441130161285,
        0.12291771173477173,
        -0.004079760517925024,
        0.12848465144634247,
        -0.12077981978654861,
        -0.03791427239775658,
